svm_type c_svc
kernel_type linear
nr_class 26
total_sv 3888
rho -1.0222127230899987 -1.8423953248987022 0.01040885617793254 0.60522876424277905 -0.27099021280840141 -2.2565986485443714 0.068257670441967511 -4.8276523449147639 -5.7654789168697729 -2.9976361992797407 -3.7697027093136226 -5.2807623343389816 -2.5451347623423795 -1.8460753985553919 -1.8982146256242136 -3.7382399831655526 -6.0422688641970339 -9.4409996638098068 -7.8132890437788687 -3.4096422287090804 -2.9833786440779102 -2.6087715377979555 -2.1631703712239205 -5.8250417628376372 -4.1365559745567095 -1.27234028250978 5.8471256898115378 1.8449938027870831 14.534442054039758 -1.1477152520424698 0.26807036243076332 -0.99694532669678404 -3.1898975214189247 -2.9275856718557418 -2.6936125662597434 0.13404730826462438 -1.7349081709145924 -1.9418897211378634 -1.1006604592853906 -2.072470244615257 -5.1951902352646098 -2.7495590414279185 -2.3450374142875132 -3.7762358913337009 -3.1597804425849936 -2.4609411970377053 -0.79428524714755522 -1.6592936889344863 -3.4031435051921255 4.1952867815215722 2.2498543784143146 2.7410515980671981 0.42576692250134318 0.60375906704421378 0.13596344150052667 -1.5112093592474463 -1.5417345643086484 -1.7139875010434538 0.56930570690171434 -1.737070829213287 -0.31699570157011281 -0.69339302143313053 -1.1095129777931316 -2.0075313573704014 -2.04106346761438 -1.9976787818565245 -1.6457832723253416 -1.596822115049203 -0.15375032095204369 -0.33350059102771035 -0.65537077845191882 -1.7947003798982226 -2.7670745816492808 -2.0790014819352418 -4.2804737348556721 -0.37268593656999166 -8.1968809582166031 -4.6264975172911162 -6.5050978361392797 -9.465803242579172 -9.8428796319326484 -2.7053971556743144 -5.3080421164674112 -5.1579841946547864 -4.2920811932927387 -6.1506549635046959 -6.7492763045708024 -6.8442742666152192 -6.8484409599660703 -7.5658983511810272 -7.8907784816422026 -9.2304390827617926 -8.2334110770305262 -8.5495660195211478 2.9315357927395689 -2.6667997876470051 0.070434001112287398 -6.3493514901754589 -5.9026309620797379 -5.5171408496394223 -6.4096976148949425 -2.837387396942558 -2.1665255439270958 -3.6682049667876364 -2.3476257395635218 -3.5058204843392105 -8.7272466242753879 -12.97575622376136 -11.984017043866768 -7.8862866720553075 -5.9453208082212896 -4.4866195201197838 -1.7781857454750964 -7.4207639109201846 -6.4158789438210233 -3.3485644050447645 0.063828446765716029 -7.1456479265230035 -4.3389873123381308 -3.7754602463172056 -3.3375476901471188 -4.9119139399488301 -2.4692645781381977 -2.9286537774860766 -2.9760215561632042 -2.8304751777349426 -5.7940183813667527 -4.8990546991530532 -4.8182601810828709 -4.7744138375698695 -5.0994346055097255 -5.587702633177809 -3.3278833649394066 -6.3394736657757749 -3.8137523859573816 0.11337681574024552 -0.40151779905890167 -3.4071783854329794 -1.445314993424726 -1.2374216628214876 -0.15407467324814031 -0.8626925282623954 -1.5588528766252214 -1.6793945125566356 -3.8815580055731171 -4.0046077086043095 -3.8212440964832748 -3.7020517623973674 -4.8601321665468182 -2.7809119405811007 -2.1137109009788952 -1.9350567886600361 -1.601881534818995 -3.7799275213776631 -0.44587749188414511 -1.4935693552968965 -0.45317102589466191 -0.26701534961116419 0.26035912428144148 -1.1747530102634123 -0.98653060300511652 -0.6088969135268345 -1.474010329404017 0.040308816229769708 -0.47952695861195616 -0.92560811851941394 -1.4100368741189184 -0.32053681730701555 -0.045532331381227656 -0.22911445629808069 -0.44225029227777057 0.15745311028411518 -7.392200693366493 -1.6514917684314447 -1.5263262210336119 2.8620704624964923 -1.69179580410594 -1.8124114471946438 -0.38778614194239536 -2.0699683228403716 -3.6063036474609915 -5.3274265723611975 -3.882294546630245 -3.7125002025058804 -2.3735043127109337 -1.0211049569276875 0.07069675619294577 -1.1507107714864513 -3.9647992517479649 1.438722358942409 2.9853249523492802 6.5293241218272486 1.115619112417771 2.778710074053953 1.9439434410526035 2.3692829998319178 2.1160327585059604 3.7440830001477372 3.8984892964642683 3.6043623274732628 2.5251436080923808 3.9841167538578284 3.8390943200515295 7.889253523790404 3.543469940668615 2.8679828443475857 7.1328936966959642 0.79373652431618147 2.2220560805120706 1.1404612115864246 0.24660968825098797 1.7137959527324764 2.2038922812006598 2.9188030590387259 4.4471517671214933 4.9663002717242479 5.7377670482809906 3.9794381469532292 3.2904146468269415 2.3590917096021915 6.1186213435718173 0.093991966074445779 1.1341801594327565 -0.55882587057968469 -1.8543980688407806 -1.1026859827259359 0.97408082441313215 5.4947710057583103 1.7719657860656863 1.6844596115931103 1.5741029372702215 4.6158219151950197 4.5393522622307971 1.3988846149020013 -3.0649277040287277 -3.0078737876611479 -3.5050816674541352 -4.989364700686381 -8.7004191541576752 -13.44061244379281 -6.7791720121617534 -5.7863263882753948 -5.8895586797051198 -3.5265414122710257 -3.3753797390504632 -2.0739509308830359 -9.6181556447497467 1.3386413011021754 -1.5299578775789457 -5.5210493832823708 -1.6643768585869796 0.67361522540466701 3.0271805199108264 0.14320471867804499 0.35253222075652602 0.64235890413246799 1.6037082375177023 1.5810092146678172 -0.084055059702623391 -0.013134450930383684 -1.131139082474989 -1.0820465725592547 -0.10238227678453751 0.11478369539476886 0.60125689110663472 0.49103331501728303 1.025030026156561 1.0676862967012135 2.812212248944518 0.67971754840473142 -5.4085652163999987 -3.033738464026535 -1.3229868313551876 -0.9598914454814631 -1.7717401502611116 -0.2816453449730007 0.1222974416894778 2.799215891205376 0.99985609785346041 -0.19184372246509501 -1.0711714538217172 0.59018551592059099 2.0500549255862404 0.60909428188930304 3.1867161981193082 3.1525780846196718 5.0811986682853947 3.7305817792431304 3.4821753819060199 1.3611704690577631 7.584874925341226 25.454361189838618 22.071312659839105 11.429436246204212 9.2248856662099907 8.0092150781576663 3.9623226841370904 12.623645449460458 2.6366019001651844 1.2754714977205446 5.8903124024751943 6.505932137053831 13.308780048824177 0.22769937758712372 -1.8855474347040782 0.38395720579037584 4.833048229722861 4.2467229046174735 10.194706087466846 -6.2838975040851217 33.262731544022742 8.4865077420913675 4.6531517219111107 5.9884270522897403 -2.2242386563712748 7.3199320838225974 5.9123435976597589 2.9432296008908985 -1.9376568520694348 4.571218976605917 0.97135072606335959 -3.3740326618010421 -1.3742123606337056 -14.082462840422911 -6.6626577011880324
label 0 1 2 3 4 5 6 7 8 9 10 11 12 13 14 15 16 17 18 19 20 21 22 23 24 25
nr_sv 231 238 119 139 246 190 103 127 305 57 122 109 117 47 120 55 41 134 165 192 242 225 93 93 250 128
SV
0 0 0 1 0 0 0 0 0 0 0 0 0 0 0 0 0 0 0 0 0 0 0 0 0 1:0.31206867 2:0.62710214 3:8.3071577e-10 4:0.38911602 5:0.58616364 6:-0.013917021 7:0.43558931 8:0.50414187 9:-0.027841572 10:0.44105321 11:0.42108113 12:-0.046574399 13:0.43617716 14:0.35712272 15:-0.061560899 16:0.39036041 17:0.41339946 18:0.010174555 19:0.40445513 20:0.35471493 21:-0.0016612632 22:0.40231168 23:0.41894919 24:0.00062412728 25:0.39196974 26:0.45877692 27:0.0016598476 28:0.34797269 29:0.40777349 30:-0.0031200142 31:0.35917908 32:0.34668472 33:-0.028638238 34:0.35907915 35:0.42848432 36:-0.033855278 37:0.35080716 38:0.46131262 39:-0.028896909 40:0.30355525 41:0.41360614 42:-0.020837879 43:0.31372467 44:0.35288838 45:-0.045868482 46:0.32053721 47:0.42251152 48:-0.044925284 49:0.31401291 50:0.45723823 51:-0.036835574 52:0.25425881 53:0.42811304 54:-0.040999044 55:0.26504585 56:0.37481251 57:-0.051106401 58:0.27848452 59:0.42242911 60:-0.047185887 61:0.27818751 62:0.45171186 63:-0.040842548 
0 0 0 1 0 0 0 0 0 0 0 0 0 0 0 0 0 0 0 0 0 0 0 0 0 1:0.31308952 2:0.62467009 3:8.6327612e-10 4:0.38909692 5:0.5851146 6:-0.014015096 7:0.43642628 8:0.50425833 9:-0.026005851 10:0.44552526 11:0.42076036 12:-0.04175736 13:0.44018427 14:0.35705379 15:-0.053431269 16:0.39073673 17:0.41570446 18:0.0096941674 19:0.40401363 20:0.35611483 21:0.00083649362 22:0.40157455 23:0.42248434 24:0.0063501378 25:0.3923206 26:0.46066934 27:0.0093348203 28:0.34741884 29:0.41037878 30:-0.0018045645 31:0.35904193 32:0.34775445 33:-0.024818841 34:0.35799652 35:0.42899799 36:-0.027005466 37:0.35011789 38:0.45778432 39:-0.019937582 40:0.30347326 41:0.41621262 42:-0.017557625 43:0.3134065 44:0.35354373 45:-0.041269492 46:0.32015026 47:0.42249796 48:-0.039137162 49:0.31491768 50:0.45487675 51:-0.02983091 52:0.25474483 53:0.42979318 54:-0.03535242 55:0.26503155 56:0.37482339 57:-0.044801898 58:0.27796167 59:0.42121115 60:-0.040898018 61:0.278321 62:0.44815269 63:-0.034260038 
0 0 0 1 0 0 0 0 0 0 0 0 0 0 0 0 0 0 0 0 0 0 0 0 0 1:0.31935507 2:0.62150681 3:7.7142542e-10 4:0.39315873 5:0.58756185 6:-0.015264747 7:0.44025341 8:0.50841951 9:-0.027915921 10:0.44800237 11:0.42689648 12:-0.044506814 13:0.44468379 14:0.36449069 15:-0.057374649 16:0.39632636 17:0.42188078 18:0.0087423259 19:0.41067818 20:0.36378324 21:-0.0017628893 22:0.4065257 23:0.42671481 24:0.0016363331 25:0.39690176 26:0.46439037 27:0.0034191206 28:0.35582402 29:0.41449445 30:-0.0024343217 31:0.36927986 32:0.3533048 33:-0.026827035 34:0.36728823 35:0.43262753 36:-0.031149909 37:0.35923722 38:0.46412966 39:-0.025579425 40:0.31351063 41:0.41784599 42:-0.017971281 43:0.32561961 44:0.35619658 45:-0.042348988 46:0.33152428 47:0.42445105 48:-0.041766606 49:0.32586315 50:0.45958668 51:-0.033651222 52:0.26663721 53:0.42992225 54:-0.035838209 55:0.27829492 56:0.37812442 57:-0.045942683 58:0.29152974 59:0.42301798 60:-0.042962618 61:0.29211217 62:0.45081502 63:-0.037047356 
0 0 0 1 0 0 0 0 0 0 0 0 0 0 0 0 0 0 0 0 0 0 0 0 0 1:0.32423961 2:0.61669791 3:8.2842483e-10 4:0.39672282 5:0.58417529 6:-0.013917659 7:0.44370624 8:0.50740254 9:-0.02696315 10:0.45295209 11:0.42668527 12:-0.043794081 13:0.4516632 14:0.36371127 15:-0.056713771 16:0.40189773 17:0.42191809 18:0.0073397364 19:0.41589004 20:0.36709499 21:-0.0029890905 22:0.41134501 23:0.4342595 24:0.0019241163 25:0.40142027 26:0.4674885 27:0.0045337449 28:0.36104003 29:0.4154309 30:-0.0046988772 31:0.37448677 32:0.35631508 33:-0.028773893 34:0.37323079 35:0.43928441 36:-0.029619245 37:0.36476648 38:0.46413124 39:-0.021518564 40:0.31959462 41:0.41934809 42:-0.02110089 43:0.3317869 44:0.35800636 45:-0.04628801 46:0.3380053 47:0.43158701 48:-0.042632792 49:0.33090144 50:0.46157706 51:-0.031912133 52:0.27384564 53:0.43101344 54:-0.039454613 55:0.288086 56:0.37972105 57:-0.049945418 58:0.30025128 59:0.42942107 60:-0.045201223 61:0.29785973 62:0.45495239 63:-0.037637174 
0 0 0 1 0 0 0 0 0 0 0 0 0 0 0 0 0 0 0 0 0 0 0 0 0 1:0.32504773 2:0.61464083 3:8.9928098e-10 4:0.3971391 5:0.58071882 6:-0.012556868 7:0.443919 8:0.50642073 9:-0.024279268 10:0.45512953 11:0.42653641 12:-0.039694663 13:0.45214343 14:0.36440653 15:-0.05108327 16:0.40243167 17:0.42171153 18:0.0089855669 19:0.41740197 20:0.36730444 21:-3.8923285e-05 22:0.41285932 23:0.4334009 24:0.0063117887 25:0.40228111 26:0.46888945 27:0.0099267177 28:0.36175877 29:0.41556299 30:-0.0030940825 31:0.37549335 32:0.35570383 33:-0.026711842 34:0.37374005 35:0.4375661 36:-0.0267803 37:0.36468768 38:0.46361864 39:-0.017902674 40:0.32030416 41:0.42015991 42:-0.019407211 43:0.33260274 44:0.35850659 45:-0.045079585 46:0.33860487 47:0.43086451 48:-0.04180168 49:0.33070859 50:0.4610365 51:-0.030807281 52:0.2739284 53:0.43269938 54:-0.037301183 55:0.28728485 56:0.38022614 57:-0.048562277 58:0.29919526 59:0.42799637 60:-0.044549279 61:0.29617244 62:0.45252189 63:-0.037184827 
0 0 0 1 0 0 0 0 0 0 0 0 0 0 0 0 0 0 0 0 0 0 0 0 0 1:0.32761574 2:0.61317772 3:2.1032419e-10 4:0.39923662 5:0.58141941 6:-0.015610486 7:0.44684049 8:0.50652915 9:-0.028291123 10:0.45731872 11:0.42614418 12:-0.044039991 13:0.45463416 14:0.36701986 15:-0.056052651 16:0.40432975 17:0.42316073 18:0.0039746016 19:0.41917476 20:0.36943918 21:-0.0053125643 22:0.41314617 23:0.43432617 24:-0.00038034708 25:0.40275842 26:0.46884641 27:0.0019837171 28:0.36486173 29:0.41605467 30:-0.0065882569 31:0.3786473 32:0.35901967 33:-0.029601552 34:0.37611857 35:0.43552789 36:-0.031888902 37:0.36758333 38:0.46205905 39:-0.025727076 40:0.32438731 41:0.41998202 42:-0.021151941 43:0.33688775 44:0.361222 45:-0.045551784 46:0.34228987 47:0.42906007 48:-0.04421908 49:0.33563137 50:0.46087095 51:-0.035666917 52:0.27986121 53:0.43265778 54:-0.037675321 55:0.29291511 56:0.3816095 57:-0.048684314 58:0.30621743 59:0.42669168 60:-0.04586288 61:0.30600491 62:0.45323482 63:-0.039991185 
0 0 0 1 0 0 0 0 0 0 0 0 0 0 0 0 0 0 0 0 0 0 0 0 0 1:0.33171159 2:0.61064738 3:1.1372856e-09 4:0.40185288 5:0.57971871 6:-0.01348976 7:0.44863999 8:0.50717896 9:-0.025317201 10:0.45914242 11:0.42931145 12:-0.040513109 13:0.45587379 14:0.37029019 15:-0.05195592 16:0.40686828 17:0.42496338 18:0.0072551812 19:0.4222666 20:0.37294146 21:-0.0015840079 22:0.41671485 23:0.43661952 24:0.0037850107 25:0.40559259 26:0.46882835 27:0.0066499785 28:0.3679758 29:0.41808096 30:-0.003755701 31:0.38231584 32:0.36176017 33:-0.025904009 34:0.37921596 35:0.43909389 36:-0.026696701 37:0.36961013 38:0.46326482 39:-0.019149404 40:0.32828119 41:0.42127141 42:-0.018795673 43:0.34159058 44:0.36362627 45:-0.042310964 46:0.34578252 47:0.43200126 48:-0.039293136 49:0.33732292 50:0.4604415 51:-0.029409476 52:0.2839964 53:0.43193641 54:-0.035676654 55:0.29805672 56:0.38205686 57:-0.045595508 58:0.30882314 59:0.42844412 60:-0.041480958 61:0.30570459 62:0.45301998 63:-0.034572177 
0 0 0 1 0 0 0 0 0 0 0 0 0 0 0 0 0 0 0 0 0 0 0 0 0 1:0.33256209 2:0.60900789 3:1.0510033e-09 4:0.40209323 5:0.57866615 6:-0.0136029 7:0.4487341 8:0.50721014 9:-0.025423529 10:0.45915627 11:0.43013284 12:-0.040311687 13:0.45528045 14:0.37136561 15:-0.051351428 16:0.40768644 17:0.4252547 18:0.0059689158 19:0.42318779 20:0.3739289 21:-0.0025696494 22:0.41814861 23:0.43534753 24:0.0035235004 25:0.40734318 26:0.46573085 27:0.0069863847 28:0.36851484 29:0.41863587 30:-0.0045812498 31:0.38338903 32:0.36157131 33:-0.026071059 34:0.38032073 35:0.4376598 36:-0.02522726 37:0.37061751 38:0.4598296 39:-0.01649639 40:0.32890537 41:0.42181924 42:-0.019141411 43:0.34237874 44:0.36350527 45:-0.042285167 46:0.34677044 47:0.43123689 48:-0.037799891 49:0.33827516 50:0.45878375 51:-0.026749339 52:0.28457588 53:0.43220231 54:-0.035492349 55:0.29807547 56:0.3816452 57:-0.045346849 58:0.30856931 59:0.42708007 60:-0.040577114 61:0.30513036 62:0.45037839 63:-0.03297554 
0 0 0 1 0 0 0 0 0 0 0 0 0 0 0 0 0 0 0 0 0 0 0 0 0 1:0.33675674 2:0.60972774 3:5.3895033e-10 4:0.40495446 5:0.58036721 6:-0.011479369 7:0.45001656 8:0.51129884 9:-0.023318177 10:0.45909983 11:0.43863171 12:-0.039120544 13:0.45604008 14:0.37979051 15:-0.051562022 16:0.41058972 17:0.43004766 18:0.009183689 19:0.42497981 20:0.37742031 21:0.00024294807 22:0.42091775 23:0.43549728 24:0.0039509335 25:0.41090083 26:0.47116345 27:0.0059302426 28:0.37407374 29:0.42365587 30:-0.0020693224 31:0.38761556 32:0.36755934 33:-0.024022168 34:0.38487983 35:0.43952772 36:-0.026938183 37:0.37589121 38:0.46900952 39:-0.021011556 40:0.33603984 41:0.4260782 42:-0.01698604 43:0.34959483 44:0.36904514 45:-0.038912084 46:0.35279211 47:0.43257397 48:-0.036543012 49:0.34439614 50:0.4641059 51:-0.027814155 52:0.29314137 53:0.43557552 54:-0.033773605 55:0.30807689 56:0.3854453 57:-0.042601742 58:0.31729183 59:0.4285731 60:-0.038317211 61:0.31363326 62:0.4549278 63:-0.031713691 
0 0 0 1 0 0 0 0 0 0 0 0 0 0 0 0 0 0 0 0 0 0 0 0 0 1:0.33730981 2:0.6094529 3:-4.703982e-11 4:0.40506771 5:0.57921565 6:-0.012568338 7:0.45042574 8:0.51132923 9:-0.024154155 10:0.4607563 11:0.4389894 12:-0.039150678 13:0.45717078 14:0.38203791 15:-0.050834287 16:0.41299325 17:0.43018076 18:0.0066803098 19:0.42839661 20:0.37884718 21:-0.0016601516 22:0.42515904 23:0.4340688 24:0.0026051376 25:0.41536635 26:0.47081906 27:0.0049990956 28:0.37572449 29:0.42345467 30:-0.0034901008 31:0.38955116 32:0.36689109 33:-0.024778914 34:0.38721257 35:0.43488351 36:-0.027493514 37:0.37825924 38:0.46599346 39:-0.021701852 40:0.33704489 41:0.42629531 42:-0.017207507 43:0.34954923 44:0.36989817 45:-0.039064169 46:0.35353398 47:0.43063515 48:-0.037231557 49:0.34618607 50:0.46353313 51:-0.028848294 52:0.29333636 53:0.43678382 54:-0.032735184 55:0.30694166 56:0.38574827 57:-0.042460561 58:0.31688371 59:0.42621344 60:-0.039045494 61:0.31434923 62:0.45272064 63:-0.032859873 
0 0 0 1 0 0 0 0 0 0 0 0 0 0 0 0 0 0 0 0 0 0 0 0 0 1:0.34312984 2:0.61172283 3:4.727217e-10 4:0.4108119 5:0.58138835 6:-0.0095764799 7:0.4558267 8:0.51533294 9:-0.019736733 10:0.46567258 11:0.44275394 12:-0.03434607 13:0.46125671 14:0.38656926 15:-0.045997016 16:0.41747394 17:0.43646869 18:0.013903049 19:0.43311393 20:0.38362694 21:0.0061753178 22:0.43039852 23:0.43685299 24:0.0084113935 25:0.4205986 26:0.47195429 27:0.0091018192 28:0.38277137 29:0.42965317 30:0.0022818968 31:0.39643237 32:0.37371585 33:-0.018115485 34:0.39501551 35:0.43939459 36:-0.02425693 37:0.38649052 38:0.47229311 39:-0.021423621 40:0.34518975 41:0.431611 42:-0.012810691 43:0.35882598 44:0.374533 45:-0.033651866 46:0.36367863 47:0.43352652 48:-0.034640141 49:0.35659325 50:0.46941072 51:-0.028887564 52:0.30163923 53:0.44095209 54:-0.029699972 55:0.3173987 56:0.38806432 57:-0.038911041 58:0.32829565 59:0.4293831 60:-0.036552861 61:0.32633904 62:0.46095333 63:-0.031798419 
0 0 0.78039671285998724 1 0 0 0 0 0 0 0 0 0 0 0 0 0 0 0 0 0 0 0 0 0 1:0.34943151 2:0.61067808 3:2.3340743e-10 4:0.41862291 5:0.58134598 6:-0.0092175873 7:0.46333754 8:0.51860946 9:-0.018809279 10:0.47190166 11:0.44756487 12:-0.032949094 13:0.46605134 14:0.39421314 15:-0.043938007 16:0.42693859 17:0.43961853 18:0.014447281 19:0.44443196 20:0.38706782 21:0.0060584662 22:0.44091535 23:0.43989924 24:0.0090794377 25:0.4295097 26:0.47581014 27:0.010667874 28:0.39102814 29:0.43107796 30:0.0023998078 31:0.4073647 32:0.3736701 33:-0.020050194 34:0.40501747 35:0.44175014 36:-0.025224334 37:0.39405859 38:0.4761419 39:-0.020616136 40:0.3531037 41:0.43138212 42:-0.013427512 43:0.36810425 44:0.37390089 45:-0.037349097 46:0.37245157 47:0.43591285 48:-0.038544811 49:0.36305532 50:0.47271457 51:-0.031554658 52:0.30882341 53:0.439347 54:-0.030821616 55:0.3254571 56:0.38690537 57:-0.042551529 58:0.33668035 59:0.42932302 60:-0.041079458 61:0.33346123 62:0.46055642 63:-0.03607174 
0 0 0 1 0 0 0 0 0 0 0 0 0 0 0 0 0 0 0 0 0 0 0 0 0 1:0.34951508 2:0.60910803 3:1.8877617e-09 4:0.42017472 5:0.57941121 6:-0.01027707 7:0.4654693 8:0.51689607 9:-0.018104354 10:0.47512776 11:0.44402677 12:-0.030131517 13:0.46948409 14:0.3921462 15:-0.03885005 16:0.42766333 17:0.44181797 18:0.018100632 19:0.44605854 20:0.3890132 21:0.010779018 22:0.44257724 23:0.44366458 24:0.014330171 25:0.43205804 26:0.47835338 27:0.016145246 28:0.39193958 29:0.43267444 30:0.0074153016 31:0.40931639 32:0.3742294 33:-0.014561167 34:0.40659684 35:0.4423674 36:-0.020688072 37:0.39607549 38:0.47448221 39:-0.016653411 40:0.3543213 41:0.4322944 42:-0.0074930242 43:0.37014413 44:0.37492391 45:-0.032287847 46:0.3742303 47:0.43810785 48:-0.035877019 49:0.36504346 50:0.47309834 51:-0.029945368 52:0.31079981 53:0.43813989 54:-0.023868673 55:0.32811189 56:0.38795537 57:-0.036318831 58:0.33894405 59:0.43179846 60:-0.036728252 61:0.33564603 62:0.4614484 63:-0.032924097 
0 0 0 1 0 0 0 0 0 0 0 0 0 0 0 0 0 0 0 0 0 0 0 0 0 1:0.35074762 2:0.61017722 3:2.0863651e-09 4:0.42006862 5:0.58099872 6:-0.010006269 7:0.46530035 8:0.51640475 9:-0.018294606 10:0.47543627 11:0.44259685 12:-0.030460062 13:0.47022498 14:0.39003843 15:-0.039074466 16:0.42757577 17:0.4412922 18:0.015912076 19:0.44619796 20:0.39076012 21:0.0087583233 22:0.44410729 23:0.44786626 24:0.013689159 25:0.43376884 26:0.48116356 27:0.016377119 28:0.39148837 29:0.43233868 30:0.0051248488 31:0.40918556 32:0.37558323 33:-0.016075281 34:0.40684107 35:0.44673532 36:-0.019256247 37:0.39572138 38:0.47528142 39:-0.013131188 40:0.3539061 41:0.43188602 42:-0.0098230764 43:0.37004659 44:0.3752653 45:-0.034302998 46:0.37422734 47:0.44131184 48:-0.035267092 49:0.36418825 50:0.47263986 51:-0.027386362 52:0.31012684 53:0.43714222 54:-0.026110329 55:0.3283374 56:0.38778591 57:-0.038185935 58:0.33860314 59:0.43411016 60:-0.036965609 61:0.33391124 62:0.46173537 63:-0.031775009 
0 0 0 1 0 0 0 0 0 0 0 0 0 0 0 0 0 0 0 0 0 0 0 0 0 1:0.35145646 2:0.60686535 3:9.2625896e-10 4:0.42026612 5:0.57876575 6:-0.0062958137 7:0.46552038 8:0.51739049 9:-0.013558866 10:0.47548902 11:0.44669333 12:-0.025688205 13:0.46981975 14:0.39359492 15:-0.03478675 16:0.42880628 17:0.43957302 18:0.019473938 19:0.44901896 20:0.39087659 21:0.012420809 22:0.44450623 23:0.44710886 24:0.016359812 25:0.43095356 26:0.48130682 27:0.018494274 28:0.39448753 29:0.43047827 30:0.0068495465 31:0.41313022 32:0.37513059 33:-0.014596971 34:0.40897706 35:0.44720674 36:-0.018949801 37:0.39586416 38:0.47986308 39:-0.013539135 40:0.35821354 41:0.4297733 42:-0.0094799753 43:0.3748748 44:0.37506768 45:-0.033293672 46:0.37703353 47:0.44283897 48:-0.033995558 49:0.36503619 50:0.47783828 51:-0.026182512 52:0.31548691 53:0.43504399 54:-0.026998192 55:0.33457038 56:0.38568881 57:-0.038164169 58:0.34321031 59:0.43259883 60:-0.036334824 61:0.3371051 62:0.46252722 63:-0.030929895 
0 0 0 1 0 0 0 0 0 0 0 0 0 0 0 0 0 0 0 0 0 0 0 0 0 1:0.34851533 2:0.60173666 3:1.4890743e-09 4:0.41902274 5:0.57726759 6:-0.0069039701 7:0.46607363 8:0.51666212 9:-0.013455968 10:0.47630811 11:0.44468376 12:-0.024429498 13:0.47021669 14:0.39277902 15:-0.032173 16:0.43124738 17:0.4416835 18:0.01839314 19:0.45000219 20:0.39174074 21:0.012396212 22:0.44458136 23:0.4466657 24:0.01722086 25:0.43229252 26:0.47884503 27:0.019807767 28:0.39655519 29:0.43064696 30:0.0068555567 31:0.41425559 32:0.37601405 33:-0.01250896 34:0.40931857 35:0.4458389 36:-0.015708789 37:0.39704317 38:0.47593561 39:-0.0100977 40:0.36039221 41:0.42801952 42:-0.00836791 43:0.37680081 44:0.37427127 45:-0.030209932 46:0.3782635 47:0.43978402 48:-0.030710077 49:0.36706936 50:0.47207808 51:-0.023317084 52:0.31862971 53:0.43119389 54:-0.024833631 55:0.33725944 56:0.3850764 57:-0.034517296 58:0.34491152 59:0.43148106 60:-0.032604549 61:0.33885211 62:0.45964345 63:-0.027436571 
0 0 0 1 0 0 0 0 0 0 0 0 0 0 0 0 0 0 0 0 0 0 0 0 0 1:0.3501392 2:0.60291559 3:3.0007319e-09 4:0.42024967 5:0.57677275 6:-0.0070800446 7:0.46594045 8:0.51690251 9:-0.013226873 10:0.47691703 11:0.44436851 12:-0.023263019 13:0.47078502 14:0.39143234 15:-0.029641664 16:0.4310095 17:0.43989074 18:0.019258382 19:0.44967681 20:0.39400414 21:0.014402438 22:0.4450331 23:0.45113093 24:0.021165997 25:0.43400586 26:0.47717473 27:0.024833973 28:0.39560005 29:0.42993125 30:0.0081773866 31:0.41501659 32:0.37819424 33:-0.0098987017 34:0.40962636 35:0.45205685 36:-0.0094705541 37:0.39723453 38:0.47273615 39:-0.0010628278 40:0.3592945 41:0.42810345 42:-0.0069546141 43:0.37721407 44:0.37639403 45:-0.02933679 46:0.37807617 47:0.44546866 48:-0.027865494 49:0.36577141 50:0.46909752 51:-0.018310884 52:0.31699231 53:0.43039978 54:-0.023097182 55:0.3368504 56:0.38709667 57:-0.033195227 58:0.34329906 59:0.43638393 60:-0.030509599 61:0.33512557 62:0.45864969 63:-0.024216296 
0 0 0 1 0 0 0 0 0 0 0 0 0 0 0 0 0 0 0 0 0 0 0 0 0 1:0.35188144 2:0.59658855 3:5.9979893e-10 4:0.42119741 5:0.57232136 6:-0.006719219 7:0.46620744 8:0.5130223 9:-0.013592456 10:0.47785696 11:0.4433575 12:-0.024949996 13:0.47609514 14:0.38815418 15:-0.033222221 16:0.43330267 17:0.43611011 18:0.020788047 19:0.45130101 20:0.3913573 21:0.016086522 22:0.44520873 23:0.44701973 24:0.020686522 25:0.43178838 26:0.47905883 27:0.022780608 28:0.39940193 29:0.42558056 30:0.0094040735 31:0.41672042 32:0.37565738 33:-0.0083927242 34:0.4108679 35:0.44554606 36:-0.012262896 37:0.39762381 38:0.47544247 39:-0.0075852112 40:0.36345375 41:0.4234567 42:-0.0056408397 43:0.37956011 44:0.37393501 45:-0.025916845 46:0.37990743 47:0.43864572 48:-0.027203511 49:0.36789709 50:0.46883774 51:-0.020913806 52:0.32163161 53:0.42680091 54:-0.021810587 55:0.34048206 56:0.38271329 57:-0.030776219 58:0.34774503 59:0.42889535 60:-0.029251987 61:0.34139556 62:0.45573041 63:-0.024690233 
0 1 0 1 0 0 0 1 0 0 0 0 0 0 0 0 0 0 0 0 0 0 0 0 0 1:0.35368654 2:0.59225559 3:8.3295049e-10 4:0.42406937 5:0.56838447 6:-0.0037847271 7:0.46849474 8:0.51370859 9:-0.0077911261 10:0.47969285 11:0.44543982 12:-0.016736805 13:0.47520852 14:0.39121011 15:-0.022979766 16:0.43540987 17:0.43705538 18:0.026143726 19:0.45363235 20:0.38906407 21:0.022816386 22:0.4475325 23:0.44062883 24:0.02734155 25:0.43482277 26:0.47566086 27:0.029555421 28:0.4021354 29:0.42653787 30:0.014654697 31:0.42028096 32:0.37421912 33:-0.0036012868 34:0.41413867 35:0.44027451 36:-0.0098046884 37:0.40112811 38:0.47565374 39:-0.0062150364 40:0.36639684 41:0.42399177 42:-0.00012057446 43:0.38298842 44:0.37269044 45:-0.021199839 46:0.38282385 47:0.43427387 48:-0.025031412 49:0.37135279 50:0.46906683 51:-0.019915888 52:0.32468629 53:0.42678803 54:-0.015698068 55:0.34344074 56:0.38047722 57:-0.025703613 58:0.34982574 59:0.42419374 60:-0.025837019 61:0.3435432 62:0.45379317 63:-0.022198299 
0 1 0 1 0 0 0 1 0 0 0 0 0 0 0 0 0 0 0 0 0 0 0 0 0 1:0.35667825 2:0.59316015 3:1.6891375e-09 4:0.42609566 5:0.56801599 6:-0.0039963904 7:0.46951583 8:0.51170248 9:-0.008073614 10:0.47954351 11:0.443001 12:-0.017136537 13:0.47699392 14:0.39034376 15:-0.023485901 16:0.43482709 17:0.43758976 18:0.027279083 19:0.45273414 20:0.39080381 21:0.02433954 22:0.44721851 23:0.44231394 24:0.028686188 25:0.43532062 26:0.47662789 27:0.030621424 28:0.40142748 29:0.4273892 30:0.016105905 31:0.4199239 32:0.37614459 33:-0.0014012203 34:0.41417375 35:0.44150987 36:-0.0080709513 37:0.40161878 38:0.47580433 39:-0.0050118174 40:0.36566854 41:0.42480275 42:0.0015955168 43:0.38280368 44:0.3738302 45:-0.018657092 46:0.3826071 47:0.43510193 48:-0.022750719 49:0.37150568 50:0.46910542 51:-0.018017249 52:0.32337606 53:0.42719194 54:-0.01378118 55:0.34219304 56:0.38065502 57:-0.023377955 58:0.34856713 59:0.42375231 60:-0.023494763 61:0.3427107 62:0.45255452 63:-0.019920737 
0 0 0 1 0 0 0 0 0 0 0 0 0 0 0 0 0 0 0 0 0 0 0 0 0 1:0.35853773 2:0.58903193 3:3.7819842e-10 4:0.42687923 5:0.56908023 6:-0.0073468457 7:0.47262585 8:0.51427656 9:-0.014152135 10:0.4837473 11:0.44697779 12:-0.025354808 13:0.47954142 14:0.39334166 15:-0.033654865 16:0.43932095 17:0.43652996 18:0.020305429 19:0.45866835 20:0.38977811 21:0.015100132 22:0.45311701 23:0.44029692 24:0.018923594 25:0.43992564 26:0.47316721 27:0.020818755 28:0.40593067 29:0.4253293 30:0.0097067486 31:0.42389545 32:0.3741613 33:-0.0095670745 34:0.41747397 35:0.43940923 36:-0.01499067 37:0.40422943 38:0.47124934 39:-0.010828656 40:0.3705219 41:0.42209348 42:-0.0044519273 43:0.38689411 44:0.3728469 45:-0.025812376 46:0.38696742 47:0.4342055 48:-0.028263336 49:0.37543821 50:0.46708956 51:-0.022292256 52:0.32921568 53:0.42465132 54:-0.019845763 55:0.34813389 56:0.37998632 57:-0.029868945 58:0.35519964 59:0.42356741 60:-0.029215101 61:0.34959066 62:0.45194304 63:-0.024950728 
0 0 0 1 0 0 0 1 0 0 0 0 0 0 0 0 0 0 0 0 0 0 0 0 0 1:0.36055878 2:0.59186625 3:1.2103386e-09 4:0.42833942 5:0.56972247 6:-0.0064897556 7:0.47350025 8:0.51338488 9:-0.01319424 10:0.48450845 11:0.44572642 12:-0.024352133 13:0.48166102 14:0.39327079 15:-0.032577347 16:0.4383229 17:0.43769532 18:0.019907024 19:0.45727992 20:0.39160845 21:0.014454016 22:0.45206636 23:0.44323006 24:0.018410524 25:0.44001535 26:0.4765397 27:0.020416902 28:0.40506074 29:0.42736903 30:0.0090336557 31:0.42322415 32:0.37548947 33:-0.010419094 34:0.41734624 35:0.44174796 36:-0.015467945 37:0.40474072 38:0.47406662 39:-0.011029302 40:0.36956617 41:0.42449349 42:-0.0052788574 43:0.3865712 44:0.37340516 45:-0.026699277 46:0.38648823 47:0.43496481 48:-0.028512219 49:0.3751041 50:0.46740937 51:-0.022081913 52:0.32749766 53:0.42678022 54:-0.020709358 55:0.34606776 56:0.37966838 57:-0.030791726 58:0.35291377 59:0.42253554 60:-0.029694881 61:0.34718305 62:0.45001245 63:-0.02506873 
1 1 1 1 0 0 0 1 0 0 0 0 0 0 0 0 0 0 0 0 0 0 0 0 0 1:0.36079207 2:0.58967936 3:7.6241563e-10 4:0.42934361 5:0.56933451 6:-0.0066755353 7:0.47470498 8:0.51588619 9:-0.012829697 10:0.48606518 11:0.44858855 12:-0.023529779 13:0.48257029 14:0.39613858 15:-0.031347316 16:0.43994236 17:0.43868715 18:0.022488873 19:0.46069875 20:0.39179343 21:0.017370734 22:0.45473495 23:0.4412241 24:0.020836648 25:0.44061434 26:0.47424164 27:0.022524659 28:0.40780616 29:0.4269805 30:0.011866651 31:0.42705244 32:0.37517405 33:-0.0074358853 34:0.42012107 35:0.43951738 36:-0.013851049 37:0.40629637 38:0.4717378 39:-0.01035865 40:0.37322819 41:0.42315328 42:-0.0023349705 43:0.39050624 44:0.37297624 45:-0.024018429 46:0.39006507 47:0.4343245 48:-0.027641416 49:0.37781569 50:0.46856925 51:-0.022285389 52:0.33249968 53:0.425396 54:-0.017661804 55:0.35121211 56:0.38015524 57:-0.027978433 58:0.35854685 59:0.42315742 60:-0.028096486 61:0.35292551 62:0.45240757 63:-0.024351737 
1 1 0 1 0 0 0 1 0 0 0 0 0 0 0 0 0 0 0 0 0 0 0 0 0 1:0.35947245 2:0.5899539 3:1.3742448e-09 4:0.42947948 5:0.56968188 6:-0.0078301607 7:0.47647232 8:0.51677489 9:-0.013487801 10:0.48861623 11:0.44896147 12:-0.023447536 13:0.48354658 14:0.3984471 15:-0.030488258 16:0.44223192 17:0.4405736 18:0.023188286 19:0.46493429 20:0.3947295 21:0.018094901 22:0.45843819 23:0.44374016 24:0.021715349 25:0.44420153 26:0.47528908 27:0.023597475 28:0.40979922 29:0.42833507 30:0.013222857 31:0.43100125 32:0.37521291 33:-0.0066532567 34:0.42321226 35:0.43884861 36:-0.013294883 37:0.40811497 38:0.47071528 39:-0.0096032033 40:0.37490097 41:0.42364386 42:-0.0006012735 43:0.39372674 44:0.37366974 45:-0.023795784 46:0.39154232 47:0.43644467 48:-0.028019987 49:0.37749431 50:0.47014835 51:-0.022338405 52:0.33326754 53:0.42412847 54:-0.01559551 55:0.35382447 56:0.3781344 57:-0.027386487 58:0.35958189 59:0.42230538 60:-0.028210141 61:0.35208371 62:0.45130938 63:-0.024528418 
0 1 0 1 0 0 0 1 0 0 0 0 0 0 0 0 0 0 0 0 0 0 0 0 0 1:0.36122638 2:0.58906054 3:1.8633328e-09 4:0.43257242 5:0.5677672 6:-0.0047329441 7:0.47762612 8:0.5144031 9:-0.010005885 10:0.48985976 11:0.44664422 12:-0.020323137 13:0.48796719 14:0.39396751 15:-0.027872352 16:0.44420102 17:0.43772468 18:0.025651742 19:0.46469936 20:0.39370784 21:0.020907199 22:0.45864668 23:0.44513834 24:0.024590356 25:0.44521287 26:0.47681001 27:0.026202632 28:0.41175792 29:0.42609096 30:0.013938513 31:0.43263677 32:0.37652332 33:-0.0055640894 34:0.42482018 35:0.44342074 36:-0.011683987 37:0.40961036 38:0.47484952 39:-0.0078228498 40:0.37652555 41:0.42197248 42:-0.0014804283 43:0.39636895 44:0.37333888 45:-0.024474435 46:0.39386842 47:0.4369258 48:-0.028466253 49:0.3795068 50:0.46682787 51:-0.02301467 52:0.33476776 53:0.42215335 54:-0.0177048 55:0.3576692 56:0.3790873 57:-0.029146709 58:0.36197555 59:0.42535919 60:-0.029524516 61:0.35256922 62:0.45174062 63:-0.0258458 
0 1 0 1 0 0 0 1 0 0 0 0 0 0 0 0 0 0 0 0 0 0 0 0 0 1:0.36065176 2:0.58940071 3:1.9383264e-09 4:0.43264282 5:0.56750715 6:-0.0047469828 7:0.47748604 8:0.51480478 9:-0.0098698428 10:0.49011695 11:0.44696611 12:-0.020008262 13:0.48824769 14:0.39426771 15:-0.027350275 16:0.44377318 17:0.4378593 18:0.026066307 19:0.46457225 20:0.39367169 21:0.021222638 22:0.45857993 23:0.44507343 24:0.02494221 25:0.44550052 26:0.47648355 27:0.026598796 28:0.41127944 29:0.42642489 30:0.014352586 31:0.43256474 32:0.37640613 33:-0.0058080018 34:0.42454076 35:0.4437778 36:-0.012055108 37:0.40940741 38:0.47492427 39:-0.0080195013 40:0.37590471 41:0.4226661 42:-0.0011160386 43:0.39581048 44:0.37304339 45:-0.025165807 46:0.39337048 47:0.43710443 48:-0.029484592 49:0.37903515 50:0.46714404 51:-0.023844818 52:0.33404574 53:0.42315215 54:-0.017285911 55:0.35671926 56:0.37931073 57:-0.029532135 58:0.36104321 59:0.42558721 60:-0.030270658 61:0.35153151 62:0.45182452 63:-0.026642747 
0 1 0 1 0 0 0 1 0 0 0 0 0 0 0 0 0 0 0 0 0 0 0 0 0 1:0.36265621 2:0.58856118 3:1.3276681e-09 4:0.43335009 5:0.56621134 6:-0.0050535174 7:0.47742054 8:0.5138588 9:-0.010504212 10:0.49026084 11:0.44636756 12:-0.020761605 13:0.48903206 14:0.39367399 15:-0.028165331 16:0.44185978 17:0.43615413 18:0.024252545 19:0.46355236 20:0.39292467 21:0.019332381 22:0.45573175 23:0.44575661 24:0.023284469 25:0.44127917 26:0.47810724 27:0.025126252 28:0.41016391 29:0.42506784 30:0.012764332 31:0.43212515 32:0.37571025 33:-0.0077881524 34:0.42269003 35:0.44440258 36:-0.014171837 37:0.40684065 38:0.47652826 39:-0.010257235 40:0.3756091 41:0.42142075 42:-0.0022286475 43:0.39595494 44:0.37325227 45:-0.02651155 46:0.39236706 47:0.43883663 48:-0.030677339 49:0.37741962 50:0.47054279 51:-0.024846731 52:0.3346453 53:0.42223933 54:-0.017886259 55:0.35644835 56:0.37748924 57:-0.030362044 58:0.36131278 59:0.42379814 60:-0.031082842 61:0.35257578 62:0.45122579 63:-0.027373193 
0 0 0 1 0 0 0 0 0 0 0 0 0 0 0 0 0 0 0 0 0 0 0 0 0 1:0.36267656 2:0.5845049 3:9.6500885e-10 4:0.43180844 5:0.56623638 6:-0.005994204 7:0.47714561 8:0.51273227 9:-0.012401073 10:0.49017355 11:0.44576007 12:-0.023318373 13:0.48907518 14:0.39391103 15:-0.031322047 16:0.44274148 17:0.43384293 18:0.020859331 19:0.46524668 20:0.39310592 21:0.015343182 22:0.45630455 23:0.44740286 24:0.019229956 25:0.44029647 26:0.47785553 27:0.020979701 28:0.41114596 29:0.42149344 30:0.0095391283 31:0.43288651 32:0.37468582 33:-0.010537998 34:0.42199808 35:0.44386193 36:-0.015663227 37:0.40518028 38:0.47306114 39:-0.011286459 40:0.37676498 41:0.41704777 42:-0.0051901471 43:0.39766511 44:0.37291151 45:-0.028039336 46:0.39246151 47:0.43947592 48:-0.030358443 49:0.37644428 50:0.46872622 51:-0.023888284 52:0.33643597 53:0.41765466 54:-0.020850863 55:0.35901973 56:0.3780725 57:-0.03182916 58:0.36286137 59:0.42555285 60:-0.031296309 61:0.35363713 62:0.45102212 63:-0.027026856 
0 0 0 1 0 0 0 0 0 0 0 0 0 0 0 0 0 0 0 0 0 0 0 0 0 1:0.36363056 2:0.58500826 3:7.2675083e-10 4:0.43182486 5:0.5663957 6:-0.0073290588 7:0.47745779 8:0.51309615 9:-0.014945213 10:0.49009764 11:0.44601268 12:-0.026801016 13:0.4885807 14:0.39488044 15:-0.03572261 16:0.4423863 17:0.43482611 18:0.01712958 19:0.46435252 20:0.39271599 21:0.010604262 22:0.45563343 23:0.4459959 24:0.014373999 25:0.44036174 26:0.47774827 27:0.016220532 28:0.41084316 29:0.42304203 30:0.0060570869 31:0.43191138 32:0.37433091 33:-0.015078607 34:0.42173567 35:0.44216698 36:-0.020033093 37:0.4057439 38:0.47287592 39:-0.01540467 40:0.37645882 41:0.41919523 42:-0.008382706 43:0.3967061 44:0.37209085 45:-0.032136593 46:0.3921577 47:0.43715888 48:-0.03390019 49:0.3770217 50:0.46801606 51:-0.026931949 52:0.33578107 53:0.42079031 54:-0.023855476 55:0.35750961 56:0.37722376 57:-0.035730921 58:0.36176515 59:0.4232417 60:-0.034868956 61:0.35324651 62:0.45005906 63:-0.030197248 
0 1 -0 1 0 0 0 0 0 0 0 0 0 0 0 0 0 0 0 0 0 0 0 0 0 1:0.36379638 2:0.58583343 3:7.1918943e-10 4:0.43190482 5:0.56547433 6:-0.0067192237 7:0.47676107 8:0.51282042 9:-0.013931767 10:0.48991951 11:0.44689155 12:-0.025574246 13:0.48772243 14:0.39501995 15:-0.034289274 16:0.44291419 17:0.43493292 18:0.019274523 19:0.46439257 20:0.39211088 21:0.012711892 22:0.45548099 23:0.44476241 24:0.016112989 25:0.44021216 26:0.47847712 27:0.017808706 28:0.41131142 29:0.4236533 30:0.0078468546 31:0.43313667 32:0.37436512 33:-0.013885602 34:0.42293295 35:0.44230801 36:-0.019825391 37:0.40735102 38:0.47492716 39:-0.015637541 40:0.37688968 41:0.42018315 42:-0.0070236288 43:0.39781383 44:0.37069941 45:-0.031198397 46:0.39407551 47:0.43406793 48:-0.033889692 49:0.37945351 50:0.46671203 51:-0.027446667 52:0.33640197 53:0.42212713 54:-0.022825172 55:0.35785407 56:0.37681824 57:-0.034826107 58:0.36334431 59:0.42124349 60:-0.034480784 61:0.35557148 62:0.44902048 63:-0.030229276 
0 0.28470344764763511 0 1 0 0 0 0 0 0 0 0 0 0 0 0 0 0 0 0 0 0 0 0 0 1:0.36323345 2:0.58648545 3:6.7529488e-10 4:0.43174994 5:0.56576282 6:-0.0064881532 7:0.47658825 8:0.51309496 9:-0.013516991 10:0.48992664 11:0.44704166 12:-0.025023509 13:0.48816621 14:0.39507949 15:-0.033624399 16:0.44303527 17:0.43541917 18:0.01957378 19:0.46452454 20:0.39249679 21:0.013244657 22:0.45565954 23:0.4451313 24:0.016724167 25:0.4403114 26:0.47937077 27:0.018450711 28:0.41131899 29:0.42394394 30:0.0081352163 31:0.43297231 32:0.37455705 33:-0.013403526 34:0.42281145 35:0.44211993 36:-0.019506851 37:0.40710935 38:0.47541368 39:-0.015493386 40:0.37674516 41:0.42028698 42:-0.0066970713 43:0.39756048 44:0.37136921 45:-0.030709164 46:0.39373469 47:0.43440959 48:-0.033577897 49:0.37901983 50:0.4672029 51:-0.027300838 52:0.33608904 53:0.42199725 54:-0.022434069 55:0.35745773 56:0.37665945 57:-0.034408975 58:0.36293173 59:0.42087221 60:-0.034166772 61:0.35517514 62:0.44872549 63:-0.030001691 
0 0 0 1 0 0 0 0 0 0 0 0 0 0 0 0 0 0 0 0 0 0 0 0 0 1:0.36247158 2:0.58690816 3:3.8776499e-10 4:0.42937577 5:0.56707913 6:-0.0088427123 7:0.4754414 8:0.51391995 9:-0.017495867 10:0.48977888 11:0.44780168 12:-0.030279148 13:0.48791033 14:0.39464256 15:-0.040089954 16:0.44350696 17:0.43515593 18:0.015562688 19:0.46531641 20:0.39302996 21:0.0076444321 22:0.45571464 23:0.44574606 24:0.010186514 25:0.43980449 26:0.47885743 27:0.011367832 28:0.41195333 29:0.42340389 30:0.0045831157 31:0.43333387 32:0.37471443 33:-0.017915942 34:0.42260438 35:0.44256699 36:-0.024177058 37:0.40701786 38:0.47433341 39:-0.020451389 40:0.37759653 41:0.41949263 42:-0.0099769058 43:0.39743307 44:0.3713713 45:-0.034490287 46:0.39341128 47:0.43461534 48:-0.03716151 49:0.37886053 50:0.46710169 51:-0.030886821 52:0.33710608 53:0.42138875 54:-0.025731236 55:0.35709804 56:0.37683257 57:-0.037839033 58:0.36293432 59:0.42047769 60:-0.037596636 61:0.3558692 62:0.44767293 63:-0.033498351 
0.93071228388084382 0 0 1 0 0 0 0 0 0 0 0 0 0 0 0 0 0 0 0 0 0 0 0 0 1:0.36067238 2:0.58734798 3:5.5968508e-10 4:0.42888319 5:0.56688285 6:-0.0076305037 7:0.47463533 8:0.51300019 9:-0.014657384 10:0.48818946 11:0.44622612 12:-0.026097357 13:0.48814732 14:0.39389756 15:-0.034693681 16:0.44101921 17:0.43584111 18:0.020456549 19:0.46166196 20:0.39368871 21:0.014865619 22:0.45353481 23:0.44410712 24:0.017503671 25:0.43912005 26:0.47630247 27:0.018427029 28:0.40960041 29:0.42424384 30:0.0099089937 31:0.43002471 32:0.37600657 33:-0.009635726 34:0.42138022 35:0.43945739 36:-0.016878316 37:0.40738374 38:0.47104976 39:-0.014452454 40:0.37515533 41:0.41990924 42:-0.0041100942 43:0.3941111 44:0.37168515 45:-0.025624676 46:0.39122945 47:0.43160361 48:-0.029072164 49:0.37850085 50:0.46494466 51:-0.024058422 52:0.33414948 53:0.42083502 54:-0.019378956 55:0.35346225 56:0.3749468 57:-0.029702395 58:0.35966352 59:0.4164865 60:-0.029504474 61:0.35411432 62:0.44483942 63:-0.025821721 
1 0 0 1 0 0 0 0 0 0 0 0 0 0 0 0 0 0 0 0 0 0 0 0 0 1:0.36017501 2:0.58621502 3:3.4045317e-10 4:0.42786753 5:0.56772131 6:-0.0092390757 7:0.47445488 8:0.51393425 9:-0.016746841 10:0.48845959 11:0.44681418 12:-0.028185477 13:0.48745745 14:0.39358217 15:-0.036702469 16:0.44185674 17:0.43591562 18:0.017975178 19:0.46238703 20:0.39311057 21:0.012226145 22:0.45429823 23:0.44397256 24:0.015451277 25:0.43940613 26:0.47504684 27:0.016909676 28:0.41013181 29:0.42378616 30:0.0083059035 31:0.42992693 32:0.37511125 33:-0.010768998 34:0.42105618 35:0.43979532 36:-0.016535604 37:0.40665725 38:0.4694998 39:-0.01307262 40:0.37583867 41:0.41944534 42:-0.0050237561 43:0.39407375 44:0.37224451 45:-0.026281547 46:0.39120817 47:0.43354765 48:-0.028802343 49:0.37793678 50:0.46501976 51:-0.02307207 52:0.33524743 53:0.4203355 54:-0.019716827 55:0.35412613 56:0.37568319 57:-0.029738881 58:0.36017528 59:0.41827536 60:-0.029249623 61:0.35416669 62:0.44527838 63:-0.025255999 
1 0 0 1 0 0 0 0 0 0 0 0 0 0 0 0 0 0 0 0 0 0 0 0 0 1:0.3572748 2:0.58540046 3:5.5169203e-10 4:0.42499569 5:0.56748623 6:-0.0085819643 7:0.47205228 8:0.51156181 9:-0.016335228 10:0.48503429 11:0.44390696 12:-0.028091155 13:0.48482141 14:0.39128423 15:-0.036873408 16:0.44179404 17:0.43516588 18:0.016481714 19:0.46061131 20:0.39229161 21:0.011093196 22:0.45314273 23:0.44248343 24:0.015098968 25:0.44115004 26:0.47167325 27:0.016870037 28:0.40792456 29:0.42273182 30:0.00618554 31:0.42654037 32:0.37459657 33:-0.012328602 34:0.41824907 35:0.43838149 36:-0.016377805 37:0.40650064 38:0.46554577 39:-0.011864804 40:0.37225392 41:0.41873765 42:-0.0075538666 43:0.38884342 44:0.36929882 45:-0.027825972 46:0.38669249 47:0.42927825 48:-0.028113546 49:0.37632462 50:0.45930606 51:-0.021202322 52:0.33040899 53:0.41988441 54:-0.022669226 55:0.34831828 56:0.37479267 57:-0.031777106 58:0.35306865 59:0.41677547 60:-0.029649733 61:0.34764206 62:0.44243473 63:-0.024549192 
0 0 0 1 0 0 0 0 0 0 0 0 0 0 0 0 0 0 0 0 0 0 0 0 0 1:0.3555409 2:0.58692706 3:5.5414823e-10 4:0.42337263 5:0.56571746 6:-0.0052692951 7:0.46841449 8:0.50858158 9:-0.01057505 10:0.48081094 11:0.440402 12:-0.020577155 13:0.48252183 14:0.38702476 15:-0.027794342 16:0.43605936 17:0.43300197 18:0.023633836 19:0.45387894 20:0.38818392 21:0.020538233 22:0.44662151 23:0.4395234 24:0.024893682 25:0.43515843 26:0.47149092 27:0.026535282 28:0.40321252 29:0.42156664 30:0.012544182 31:0.42178187 32:0.37264645 33:-0.0041608033 34:0.41369641 35:0.43621927 36:-0.009729743 37:0.40175927 38:0.46671343 39:-0.0065662856 40:0.36747113 41:0.41838244 42:-0.0017817039 43:0.38459182 44:0.36823928 45:-0.020337572 46:0.38230142 47:0.42794406 48:-0.022528131 49:0.37226683 50:0.46029028 51:-0.017340137 52:0.32517284 53:0.4205623 54:-0.017201487 55:0.34339321 56:0.3752996 57:-0.025519246 58:0.34868336 59:0.41669092 60:-0.024403961 61:0.3440975 62:0.44379646 63:-0.020346988 
1 0 0 1 1 0 0 0 0 0 0 0 0 0 0 0 0 0 0 0 0 0 0 0 0 1:0.3503983 2:0.58605087 3:8.2144702e-10 4:0.41972947 5:0.56451708 6:-0.0079075992 7:0.46547103 8:0.50648272 9:-0.014153075 10:0.47766328 11:0.43733701 12:-0.024656525 13:0.47660613 14:0.38514233 15:-0.032183699 16:0.43369916 17:0.43190804 18:0.021634968 19:0.45196196 20:0.38884002 21:0.017623618 22:0.44699746 23:0.43739742 24:0.021386465 25:0.43694896 26:0.46558303 27:0.022814419 28:0.39990923 29:0.41993269 30:0.011654588 31:0.41926038 32:0.37273496 33:-0.0048638908 34:0.41216746 35:0.43368414 36:-0.0097673628 37:0.40079454 38:0.45949763 39:-0.0062924754 40:0.36376965 41:0.41664612 42:-0.0020022162 43:0.38145375 44:0.36747023 45:-0.02066518 46:0.38024768 47:0.42437842 48:-0.022224806 49:0.37026569 50:0.45358142 51:-0.016534304 52:0.32175511 53:0.41889825 54:-0.017090015 55:0.33906528 56:0.37504697 57:-0.025048099 58:0.34397683 59:0.41506216 60:-0.023502728 61:0.33845747 62:0.43995592 63:-0.019107839 
1 0 0 1 0.53190233738615078 0 0 0 0 0 0 0 0 0 0 0 0 0 0 0 0 0 0 0 0 1:0.35058191 2:0.58645296 3:1.0415299e-09 4:0.41921422 5:0.56630647 6:-0.0094700735 7:0.46513 8:0.50837064 9:-0.0172142 10:0.4774569 11:0.43942115 12:-0.028518453 13:0.47632372 14:0.38616186 15:-0.03657325 16:0.43445259 17:0.43131229 18:0.0157398 19:0.453087 20:0.38786975 21:0.010911219 22:0.44795454 23:0.4393324 24:0.01616222 25:0.43757874 26:0.46621245 27:0.018786252 28:0.39968339 29:0.42026275 30:0.0063199643 31:0.41933545 32:0.37280545 33:-0.010458329 34:0.41214612 35:0.43741924 36:-0.011879705 37:0.40096045 38:0.45879108 39:-0.0057330974 40:0.363428 41:0.41764528 42:-0.0068345685 43:0.38137692 44:0.36919615 45:-0.026015082 46:0.38008821 47:0.42900535 48:-0.024656823 49:0.36961788 50:0.45401731 51:-0.0166147 52:0.32122526 53:0.41963637 54:-0.02143942 55:0.33937576 56:0.37666205 57:-0.029564215 58:0.3439483 59:0.41903731 60:-0.0265225 61:0.33744404 62:0.44157174 63:-0.020700192 
1 0 0 1 0 0 0 0 0 0 0 0 0 0 0 0 0 0 0 0 0 0 0 0 0 1:0.34081441 2:0.58304 3:4.4133111e-10 4:0.40777719 5:0.56386751 6:-0.0076376647 7:0.45712262 8:0.50264889 9:-0.016518217 10:0.47026834 11:0.43328354 12:-0.029363371 13:0.47013995 14:0.37947515 15:-0.039479349 16:0.42481989 17:0.42615229 18:0.0089225397 19:0.44360381 20:0.38093501 21:0.00264469 22:0.43520695 23:0.43266702 24:0.0064525162 25:0.4229942 26:0.46182287 27:0.0078179911 28:0.3909283 29:0.41511694 30:-0.0021412659 31:0.40948722 32:0.36858702 33:-0.020345626 34:0.40097085 35:0.42958695 36:-0.023294838 37:0.38985047 38:0.45513231 39:-0.019153329 40:0.35500008 41:0.41357216 42:-0.015693024 43:0.37221152 44:0.36557457 45:-0.033681631 46:0.37028241 47:0.42162201 48:-0.031021656 49:0.36128432 50:0.45055163 51:-0.023690585 52:0.31360793 53:0.41768771 54:-0.030761709 55:0.33175978 56:0.3756083 57:-0.037871066 58:0.33554173 59:0.41606274 60:-0.033317417 61:0.33034104 62:0.44073313 63:-0.02731785 
0 0 0 1 0 0 0 0 0 0 0 0 0 0 0 0 0 0 0 0 0 0 0 0 0 1:0.33021075 2:0.57732534 3:8.427577e-10 4:0.40082181 5:0.56125605 6:-0.0079090325 7:0.44986743 8:0.49796689 9:-0.016626911 10:0.46002531 11:0.42478454 12:-0.02869766 13:0.45946854 14:0.37198335 15:-0.037665792 16:0.41671354 17:0.42303544 18:0.0051103015 19:0.43250155 20:0.37656438 21:-0.00041382416 22:0.42255199 23:0.43026611 24:0.0055413647 25:0.4108437 26:0.45465857 27:0.0082555292 28:0.38066217 29:0.41122696 30:-0.0050987038 31:0.39758545 32:0.36449233 33:-0.021967368 34:0.3877281 35:0.42808673 36:-0.021422826 37:0.37650478 38:0.44545874 39:-0.01498712 40:0.34418213 41:0.40908319 42:-0.017572852 43:0.35932645 44:0.36237571 45:-0.034605995 46:0.35683584 47:0.42082879 48:-0.029334754 49:0.34753123 50:0.44365591 51:-0.020128528 52:0.30346465 53:0.41201702 54:-0.031412486 55:0.32014903 56:0.37096468 57:-0.037379872 58:0.32439911 59:0.41283923 60:-0.031565819 61:0.31934521 62:0.4332431 63:-0.0246129 
0 0 0 1 0 0 0 0 0 0 0 0 0 0 0 0 0 0 0 0 0 0 0 0 0 1:0.33134979 2:0.57802391 3:1.0135683e-09 4:0.39993966 5:0.56009746 6:-0.0092951013 7:0.44914013 8:0.49962676 9:-0.017910214 10:0.46146441 11:0.42939103 12:-0.029344879 13:0.45904952 14:0.37667659 15:-0.037684534 16:0.4172323 17:0.42076504 18:0.0044997474 19:0.4329716 20:0.3769885 21:-0.00085601461 22:0.42258391 23:0.43185624 24:0.005176126 25:0.41173753 26:0.45616412 27:0.0079934709 28:0.38099587 29:0.40976706 30:-0.0048439265 31:0.39779338 32:0.36509094 33:-0.021275155 34:0.38810965 35:0.43006283 36:-0.020306058 37:0.37782395 38:0.44736236 39:-0.01357567 40:0.34442532 41:0.40841126 42:-0.016713658 43:0.36000592 44:0.36370587 45:-0.033695012 46:0.35695916 47:0.42201433 48:-0.02895892 49:0.34777665 50:0.44255689 51:-0.020079851 52:0.30357361 53:0.41162306 54:-0.030078782 55:0.3209677 56:0.37363237 57:-0.035907522 58:0.32367989 59:0.4159483 60:-0.030596383 61:0.31774309 62:0.43460149 63:-0.024024205 
0 0 0 1 0 0 0 0 0 0 0 0 0 0 0 0 0 0 0 0 0 0 0 0 0 1:0.32156077 2:0.57380611 3:2.3253481e-10 4:0.39037609 5:0.56085837 6:-0.010695585 7:0.44012105 8:0.49483347 9:-0.021516513 10:0.45065892 11:0.42104435 12:-0.035258625 13:0.45056674 14:0.36976981 15:-0.046116222 16:0.40969601 17:0.42041638 18:-0.0034853341 19:0.42334557 20:0.37284625 21:-0.011868364 22:0.41333279 23:0.42835709 24:-0.0068848338 25:0.40469089 26:0.451895 27:-0.0047587198 28:0.37248063 29:0.40828952 30:-0.013750948 31:0.38742062 32:0.36113301 33:-0.03305677 34:0.37793013 35:0.42776689 36:-0.031896908 37:0.36981982 38:0.44502017 39:-0.025245659 40:0.33521444 41:0.40646836 42:-0.026400628 43:0.34889901 44:0.35877955 45:-0.045259185 46:0.34642488 47:0.42123166 48:-0.038760182 49:0.33917367 50:0.44582281 51:-0.028941359 52:0.29428661 53:0.4099941 54:-0.040761549 55:0.30910292 56:0.37008637 57:-0.047935374 58:0.31334883 59:0.41471466 60:-0.041737255 61:0.31002504 62:0.43568987 63:-0.034617249 
0 0 0 1 0 0 0 0 0 0 0 0 0 0 0 0 0 0 0 0 0 0 0 0 0 1:0.32261652 2:0.57472432 3:2.5494445e-10 4:0.39024606 5:0.55972183 6:-0.010826696 7:0.43996143 8:0.49579751 9:-0.020912416 10:0.4512049 11:0.42310274 12:-0.033473521 13:0.4473919 14:0.37138197 15:-0.043166913 16:0.40988377 17:0.41975999 18:-0.0037808919 19:0.42351392 20:0.37109736 21:-0.011170645 22:0.41340342 23:0.42802092 24:-0.0053964136 25:0.40498814 26:0.4546496 27:-0.0027045526 28:0.37225857 29:0.40799934 30:-0.01326903 31:0.38646859 32:0.3603282 33:-0.0313772 34:0.3775892 35:0.42816845 36:-0.029790102 37:0.37021366 38:0.4483715 39:-0.023034677 40:0.33459693 41:0.4069232 42:-0.025036586 43:0.34848869 44:0.35914403 45:-0.042994447 46:0.34642416 47:0.4218452 48:-0.037225693 49:0.33934325 50:0.44748545 51:-0.028046122 52:0.29337358 53:0.41178417 54:-0.038492639 55:0.30835548 56:0.37304321 57:-0.045024399 58:0.31254709 59:0.41810015 60:-0.039376814 61:0.30906349 62:0.4396967 63:-0.032783285 
0 0 0 1 0 0 0 0 0 0 0 0 0 0 0 0 0 0 0 0 0 0 0 0 0 1:0.3107647 2:0.5733012 3:7.4765871e-10 4:0.38014713 5:0.55979443 6:-0.0097125778 7:0.43061614 8:0.4948647 9:-0.019422483 10:0.44125718 11:0.41896325 12:-0.032319505 13:0.43855414 14:0.36520022 15:-0.042121734 16:0.39935923 17:0.42019102 18:0.0020026942 19:0.4133839 20:0.3698594 21:-0.0049697859 22:0.40289158 23:0.42597726 24:0.00099246122 25:0.39271885 26:0.45415092 27:0.0038657696 28:0.36307529 29:0.40868759 30:-0.0082451869 31:0.37701026 32:0.35834771 33:-0.027113585 34:0.36765325 35:0.4251219 36:-0.026818244 37:0.35859302 38:0.44652641 39:-0.020189045 40:0.3261793 41:0.40653634 42:-0.021003975 43:0.33783516 44:0.35805577 45:-0.040377721 46:0.33503014 47:0.42230222 48:-0.035465624 49:0.32732752 50:0.44854996 51:-0.025922665 52:0.28489667 53:0.40995002 54:-0.035289306 55:0.29889852 56:0.36742952 57:-0.042901833 58:0.30203736 59:0.41379836 60:-0.037413418 61:0.29753575 62:0.43698221 63:-0.030335642 
0 0 0 1 0 0 0 0 0 0 0 0 0 0 0 0 0 0 0 0 0 0 0 0 0 1:0.30117661 2:0.57168519 3:1.2273721e-09 4:0.37093323 5:0.56032944 6:-0.013363679 7:0.42165089 8:0.4916977 9:-0.024969591 10:0.4329685 11:0.41459689 12:-0.038872171 13:0.43111464 14:0.35955927 15:-0.049630929 16:0.3905625 17:0.41545492 18:-0.0051185386 19:0.40052283 20:0.3628242 21:-0.013884125 22:0.39086035 23:0.42009041 24:-0.0082569551 25:0.38371944 26:0.44531009 27:-0.0055029513 28:0.35299876 29:0.40431917 30:-0.014058801 31:0.36294317 32:0.35506296 33:-0.033732954 34:0.35417715 35:0.42388445 36:-0.032088127 37:0.34802878 38:0.44036978 39:-0.024726769 40:0.31587124 41:0.40357837 42:-0.025794322 43:0.32406858 44:0.35390884 45:-0.045887627 46:0.32165113 47:0.418277 48:-0.04022767 49:0.31616154 50:0.44091919 51:-0.030396357 52:0.27590182 53:0.4078469 54:-0.039329566 55:0.28565767 56:0.36889866 57:-0.046812352 58:0.2881285 59:0.41526881 60:-0.041090302 61:0.28487566 62:0.43458879 63:-0.03401693 
0 0 0 1 0 0 0 0 0 0 0 0 0 0 0 0 0 0 0 0 0 0 0 0 0 1:0.30258927 2:0.57574719 3:5.0819937e-10 4:0.37232688 5:0.55786216 6:-0.011515001 7:0.4209826 8:0.49216965 9:-0.021299178 10:0.43225867 11:0.41840398 12:-0.033637952 13:0.43097633 14:0.36403328 15:-0.042818841 16:0.39085451 17:0.41341352 18:0.0009253645 19:0.39926931 20:0.36298406 21:-0.0051207528 22:0.39051354 23:0.42028806 24:0.0012410089 25:0.38367325 26:0.44977137 27:0.0043034847 28:0.35322374 29:0.40333059 30:-0.0080336574 31:0.36213803 32:0.35460407 33:-0.025199495 34:0.3550404 35:0.42189696 36:-0.02419203 37:0.34950891 38:0.44299862 39:-0.017581411 40:0.31566831 41:0.40406176 42:-0.019795593 43:0.32318121 44:0.35541612 45:-0.038045026 46:0.32216129 47:0.41595873 48:-0.034072451 49:0.31795242 50:0.43931019 51:-0.025757499 52:0.27523169 53:0.41051665 54:-0.033180241 55:0.28498554 56:0.37132257 57:-0.039986528 58:0.28863934 59:0.41525388 60:-0.035324447 61:0.28644341 62:0.43539876 63:-0.029240448 
0 0 0 1 0 0 0 0 0 0 0 0 0 0 0 0 0 0 0 0 0 0 0 0 0 1:0.29477069 2:0.57531273 3:1.742369e-09 4:0.36306092 5:0.56074345 6:-0.013943284 7:0.41213962 8:0.48963881 9:-0.025972374 10:0.42224628 11:0.41259331 12:-0.040067807 13:0.41926315 14:0.35816276 15:-0.050833166 16:0.38191748 17:0.41360509 18:-0.0082964422 19:0.390268 20:0.35964882 21:-0.01866832 22:0.38276249 23:0.4186103 24:-0.012935677 25:0.37687278 26:0.44260848 27:-0.0098669799 28:0.34280097 29:0.40392953 30:-0.017642422 31:0.35233763 32:0.35208595 33:-0.038982052 34:0.34701666 35:0.42303649 36:-0.036008302 37:0.34232217 38:0.43731877 39:-0.027397713 40:0.30488333 41:0.40529296 42:-0.030044107 43:0.31104091 44:0.35376707 45:-0.052111719 46:0.31233111 47:0.41969794 48:-0.04513482 49:0.30853757 50:0.44157034 51:-0.033893384 52:0.26441565 53:0.41188249 54:-0.044277884 55:0.27279633 56:0.3712821 57:-0.053400014 58:0.27864528 59:0.41820067 60:-0.047386035 61:0.27721626 62:0.43716231 63:-0.039691865 
0 0 0 1 0 0 0 0 0 0 0 0 0 0 0 0 0 0 0 0 0 0 0 0 0 1:0.29006633 2:0.57390267 3:1.9300948e-09 4:0.35797665 5:0.55572337 6:-0.014086359 7:0.40474516 8:0.48453966 9:-0.0259945 10:0.41207716 11:0.40803525 12:-0.039635032 13:0.40602529 14:0.35446131 15:-0.049838759 16:0.37463889 17:0.40810829 18:-0.010122608 19:0.38174716 20:0.35546541 21:-0.020402422 22:0.37533 23:0.41677383 24:-0.014234077 25:0.37119451 26:0.43879497 27:-0.010990232 28:0.33452541 29:0.40042517 30:-0.019266661 31:0.3422628 32:0.35021865 33:-0.040032256 34:0.33828962 35:0.42399174 36:-0.03549831 37:0.33438614 38:0.43581527 39:-0.025992269 40:0.29600981 41:0.40398836 42:-0.031426318 43:0.30093279 44:0.3545382 45:-0.053134892 46:0.30334195 47:0.42229837 48:-0.045243237 49:0.29978177 50:0.44093695 51:-0.033452164 52:0.25548384 53:0.41208306 54:-0.045401897 55:0.2626096 56:0.37490505 57:-0.053899597 58:0.26807815 59:0.42313448 60:-0.047358524 61:0.26574451 62:0.43945399 63:-0.039395165 
0 0 0.90419001702546764 1 0 0 0 0 0 0 0 0 0 0 0 0 0 0 0 0 0 0 0 0 0 1:0.2813918 2:0.57384694 3:2.1178042e-09 4:0.34897351 5:0.55330759 6:-0.012715787 7:0.39502558 8:0.48283643 9:-0.023185885 10:0.40195587 11:0.40638036 12:-0.035906896 13:0.39634913 14:0.35160387 15:-0.045178883 16:0.36443236 17:0.40910339 18:-0.0036815554 19:0.36977321 20:0.35266319 21:-0.011925148 22:0.36351737 23:0.40976921 24:-0.0056751738 25:0.35961452 26:0.43371931 27:-0.0024499251 28:0.32522443 29:0.40108505 30:-0.01272328 31:0.33008775 32:0.34934685 33:-0.031719469 34:0.32598835 35:0.41734108 36:-0.029221306 37:0.32296038 38:0.43108246 39:-0.021227151 40:0.28723907 41:0.40381244 42:-0.024728749 43:0.28874457 44:0.35417825 45:-0.044452555 46:0.29082042 47:0.41634262 48:-0.038364682 49:0.28930166 50:0.4366596 51:-0.028108852 52:0.24685371 53:0.4115901 54:-0.038505871 55:0.25035238 56:0.37125343 57:-0.045908269 58:0.25581482 59:0.41528669 60:-0.040208116 61:0.25580239 62:0.4334003 63:-0.032973524 
0 0 0 1 0 0 0 0 0 0 0 0 0 0 0 0 0 0 0 0 0 0 0 0 0 1:0.28123072 2:0.57497656 3:1.2695881e-09 4:0.34919488 5:0.55127835 6:-0.012076635 7:0.39490783 8:0.48360258 9:-0.021608762 10:0.40369573 11:0.40943113 12:-0.033396222 13:0.3966881 14:0.35484821 15:-0.04156442 16:0.36271012 17:0.40530899 18:0.0014843403 19:0.36714196 20:0.35349485 21:-0.0048705116 22:0.3622992 23:0.4111861 24:0.0012615046 25:0.35834259 26:0.43644312 27:0.0041131126 28:0.32417911 29:0.39837599 30:-0.0073397979 31:0.32769287 32:0.35079178 33:-0.023752393 34:0.32473934 35:0.41832513 36:-0.021972019 37:0.32185838 38:0.43308651 39:-0.015122067 40:0.28617495 41:0.40204856 42:-0.01932616 43:0.28793088 44:0.35561323 45:-0.037154734 46:0.29062146 47:0.41580737 48:-0.032624476 49:0.28896224 50:0.43487766 51:-0.024012044 52:0.24595658 53:0.4108628 54:-0.033093948 55:0.25010917 56:0.37269172 57:-0.039346807 58:0.25626329 59:0.41605774 60:-0.03448692 61:0.25613815 62:0.43399611 63:-0.028284011 
0 0 0 1 0 0 0 0 0 0 0 0 0 0 0 0 0 0 0 0 0 0 0 0 0 1:0.27351582 2:0.57219261 3:1.0146763e-09 4:0.34196731 5:0.5507046 6:-0.013182215 7:0.38700613 8:0.47699142 9:-0.024424827 10:0.39337149 11:0.39989316 12:-0.037460789 13:0.3883239 14:0.34484679 15:-0.046971023 16:0.35354882 17:0.40202045 18:-0.0070391237 19:0.35740006 20:0.34932321 21:-0.015342128 22:0.35125211 23:0.40906033 24:-0.0091434773 25:0.34711868 26:0.43216157 27:-0.0062061823 28:0.31429675 29:0.39646742 30:-0.015674442 31:0.31686839 32:0.34854066 33:-0.034708079 34:0.31409454 35:0.41757113 36:-0.031870067 37:0.31175458 38:0.42998087 39:-0.02400976 40:0.27649608 41:0.40145907 42:-0.026935089 43:0.27641159 44:0.35556525 45:-0.0465414 46:0.27946818 47:0.4185541 48:-0.039919745 49:0.27874586 50:0.43578908 51:-0.029624315 52:0.23677054 53:0.41060767 54:-0.039848208 55:0.24083331 56:0.372365 57:-0.046814747 58:0.24678779 59:0.41859019 60:-0.040463544 61:0.24675877 62:0.43603 63:-0.03306286 
0 0 0 1 0 0 0 0 0 0 0 0 0 0 0 0 0 0 0 0 0 0 0 0 0 1:0.26199052 2:0.57300687 3:1.1813307e-09 4:0.33179575 5:0.54660237 6:-0.010379836 7:0.3763575 8:0.47412962 9:-0.019497752 10:0.38249606 11:0.39686984 12:-0.031264003 13:0.37658122 14:0.34295923 15:-0.040097699 16:0.34310538 17:0.40525675 18:-0.0013947502 19:0.34964281 20:0.34834528 21:-0.0078119799 22:0.34182933 23:0.4039928 24:-0.0015154679 25:0.33654755 26:0.43298054 27:0.0013957109 28:0.30385399 29:0.39843118 30:-0.01070688 31:0.30935329 32:0.34670892 33:-0.028784534 34:0.3034955 35:0.41049707 36:-0.028864844 37:0.29988387 38:0.43091628 39:-0.023267323 40:0.26548034 41:0.40319088 42:-0.022178717 43:0.26747668 44:0.35133749 45:-0.041167997 46:0.26839554 47:0.40929532 48:-0.037866712 49:0.26719373 50:0.43493304 51:-0.029994948 52:0.22523242 53:0.4144372 54:-0.035009671 55:0.22847864 56:0.37378913 57:-0.042103998 58:0.23432794 59:0.41518873 60:-0.037668154 61:0.23564759 62:0.43668142 63:-0.031798527 
0 0 0 1 1 0 0 0 0 0 0 0 0 0 0 0 0 0 0 0 0 0 0 0 0 1:0.26216692 2:0.57501185 3:9.0104518e-10 4:0.33282128 5:0.54446894 6:-0.0082986923 7:0.37656316 8:0.47380537 9:-0.01526933 10:0.38447484 11:0.39860293 12:-0.025208844 13:0.37767804 14:0.34628344 15:-0.032028381 16:0.34269905 17:0.40198874 18:0.0071464065 19:0.34711361 20:0.34908831 21:0.0036909643 22:0.34228578 23:0.40544271 24:0.01055388 25:0.33795443 26:0.43405446 27:0.013560966 28:0.30327401 29:0.3957862 30:-0.0024743036 31:0.30737069 32:0.34732723 33:-0.016159022 34:0.30434173 35:0.41134599 36:-0.015941201 37:0.30110624 38:0.43100107 39:-0.010936009 40:0.26450345 41:0.40147474 42:-0.014672367 43:0.26675189 44:0.35201544 45:-0.030330166 46:0.26960519 47:0.4082666 48:-0.028052863 49:0.26798573 50:0.43150112 51:-0.021616902 52:0.22428149 53:0.41306919 54:-0.028163189 55:0.22843096 56:0.37335542 57:-0.033372562 58:0.23539759 59:0.41356957 60:-0.029564112 61:0.23614869 62:0.43363848 63:-0.024655392 
0 0 0 1 0 0 0 0 0 0 0 0 0 0 0 0 0 0 0 0 0 0 0 0 0 1:0.2483052 2:0.5703975 3:9.8533282e-10 4:0.31785235 5:0.55337483 6:-0.014995624 7:0.36596277 8:0.47557852 9:-0.025478788 10:0.37190646 11:0.39379677 12:-0.037073348 13:0.36363646 14:0.33929661 15:-0.045079779 16:0.3328329 17:0.40254673 18:-0.0094856489 19:0.33640045 20:0.3457371 21:-0.017174851 22:0.32933146 23:0.40497839 24:-0.0097973002 25:0.32661551 26:0.4277879 27:-0.0059632175 28:0.29308087 29:0.39502162 30:-0.016842254 31:0.29570252 32:0.34462762 33:-0.034928422 34:0.29192922 35:0.41365102 36:-0.030987525 37:0.29055679 38:0.42690802 39:-0.022225695 40:0.2552093 41:0.39806718 42:-0.026743762 43:0.25467774 44:0.34956753 45:-0.045457609 46:0.25596058 47:0.41246292 48:-0.038054924 49:0.25541174 50:0.43135318 51:-0.027139923 52:0.216259 53:0.4053461 54:-0.038496502 55:0.21818799 56:0.36587793 57:-0.044555828 58:0.22201279 59:0.41240999 60:-0.037704743 61:0.22191316 62:0.43096164 63:-0.029814526 
0 0 0 1 1 0 0 0 0 0 0 0 0 0 0 0 0 0 0 0 0 0 0 0 0 1:0.24854536 2:0.57255411 3:1.6319692e-09 4:0.31948426 5:0.54781228 6:-0.01199988 7:0.36655945 8:0.47493628 9:-0.019982317 10:0.37441516 11:0.39771566 12:-0.029429963 13:0.36541897 14:0.34518388 15:-0.035179857 16:0.33201388 17:0.40220788 18:-0.0021066519 19:0.33402801 20:0.34601843 21:-0.0069320458 22:0.32870841 23:0.40578914 24:0.0013974496 25:0.3269971 26:0.42930591 27:0.005647291 28:0.29227468 29:0.39591187 30:-0.0098665562 31:0.29406732 32:0.34498712 33:-0.02440154 34:0.29232335 35:0.41182435 36:-0.020161597 37:0.2914122 38:0.42546672 39:-0.011997343 40:0.25399411 41:0.40079036 42:-0.02035665 43:0.25282848 44:0.35179657 45:-0.036934268 46:0.2563149 47:0.41108865 48:-0.030945947 49:0.25690705 50:0.42832255 51:-0.021517413 52:0.21475483 53:0.40908781 54:-0.03242093 55:0.21605328 56:0.37071356 57:-0.03755179 58:0.22167763 59:0.41434246 60:-0.031773631 61:0.22291753 62:0.43165267 63:-0.025093583 
0 0 1 1 0 0 0 0 0 0 0 0 0 0 0 0 0 0 0 0 0 0 0 0 0 1:0.24033248 2:0.57148623 3:1.177466e-09 4:0.30902931 5:0.54669285 6:-0.01460491 7:0.35542405 8:0.47099212 9:-0.024900049 10:0.36040708 11:0.3920778 12:-0.036535136 13:0.34929621 14:0.3382867 15:-0.044697307 16:0.32321343 17:0.40059593 18:-0.0078047845 19:0.32518318 20:0.34201324 21:-0.015969576 22:0.31649321 23:0.40010056 24:-0.0094555439 25:0.31321746 26:0.42547739 27:-0.0060072225 28:0.28368399 29:0.3942861 30:-0.015315938 31:0.28394032 32:0.34159625 33:-0.034174517 34:0.27853376 35:0.40737683 36:-0.032165825 37:0.27782363 38:0.42338443 39:-0.02490207 40:0.24563941 41:0.39956683 42:-0.025489744 43:0.24237607 44:0.34784451 45:-0.045478288 46:0.24332476 47:0.40768647 48:-0.040270351 49:0.24479064 50:0.42940164 51:-0.030740395 52:0.20615512 53:0.40994343 54:-0.03744442 55:0.20554608 56:0.3701807 57:-0.044725325 58:0.21002389 59:0.41352645 60:-0.03921786 61:0.21272647 62:0.43340185 63:-0.032365028 
0 0 1 1 0 0 0 0 0 0 0 0 0 0 0 0 0 0 0 0 0 0 0 0 0 1:0.22954315 2:0.56958389 3:1.6025656e-09 4:0.2968283 5:0.55323219 6:-0.021198172 7:0.34565133 8:0.47372621 9:-0.033644807 10:0.35017213 11:0.38999143 12:-0.045995366 13:0.33731818 14:0.33632606 15:-0.054760676 16:0.31236768 17:0.39942124 18:-0.016598618 19:0.31443286 20:0.34011531 21:-0.028194735 22:0.30617347 23:0.40029708 24:-0.022450086 25:0.30276945 26:0.42476377 27:-0.019027226 28:0.27207354 29:0.39263272 30:-0.021679081 31:0.27177083 32:0.33837581 33:-0.043707862 34:0.26692915 35:0.41015604 36:-0.040945653 37:0.26635134 38:0.42489505 39:-0.032294095 40:0.23350634 41:0.39672089 42:-0.030090494 43:0.22983764 44:0.343463 45:-0.053487491 46:0.23163481 47:0.40835992 48:-0.04784422 49:0.23267625 50:0.43032911 51:-0.036978975 52:0.1937148 53:0.40576613 54:-0.040858652 55:0.19140807 56:0.36518282 57:-0.050649639 58:0.19643377 59:0.41175908 60:-0.045605477 61:0.1987541 62:0.43106338 63:-0.038263623 
0 0 0 1 0 0 0 0 0 0 0 0 0 0 0 0 0 0 0 0 0 0 0 0 0 1:0.22961956 2:0.57416826 3:1.1246553e-09 4:0.2991643 5:0.54775369 6:-0.014603948 7:0.3464826 8:0.47220337 9:-0.024305135 10:0.35197499 11:0.39185864 12:-0.035360362 13:0.33903658 14:0.33854023 15:-0.042819429 16:0.31022134 17:0.39766791 18:-0.0042442041 19:0.3129994 20:0.34140044 21:-0.011416004 22:0.30570954 23:0.40270236 24:-0.0045699794 25:0.30112922 26:0.4297713 27:-0.001095657 28:0.27060187 29:0.39230177 30:-0.01168664 31:0.27233648 32:0.34091264 33:-0.029927906 34:0.26819208 35:0.41017559 36:-0.02817175 37:0.26564878 38:0.42681825 39:-0.020899881 40:0.23247635 41:0.39863074 42:-0.022002934 43:0.23084693 44:0.3465721 45:-0.041978188 46:0.23322052 47:0.40789282 48:-0.037711244 49:0.2326625 50:0.42913902 51:-0.028523695 52:0.1927198 53:0.4107202 54:-0.034117725 55:0.19300514 56:0.36933944 57:-0.041341584 58:0.19834939 59:0.41340089 60:-0.036453959 61:0.19896463 62:0.4334439 63:-0.029912705 
0 0 0 1 0 0 0 0 0 0 0 0 0 0 0 0 0 0 0 0 0 0 0 0 0 1:0.21940449 2:0.5691371 3:1.3982007e-09 4:0.28825191 5:0.54936564 6:-0.017575195 7:0.33707768 8:0.4699406 9:-0.02876316 10:0.34249276 11:0.3867414 12:-0.040702946 13:0.3288309 14:0.33159059 15:-0.049048059 16:0.30127615 17:0.39593813 18:-0.010473834 19:0.30535844 20:0.33732605 21:-0.019439306 22:0.29682317 23:0.39959306 24:-0.012446907 25:0.29066283 26:0.42554072 27:-0.0086676469 28:0.26145869 29:0.39049947 30:-0.017167423 31:0.26402482 32:0.33659366 33:-0.037031654 34:0.25952941 35:0.40882003 36:-0.034062058 37:0.2561937 38:0.42555493 39:-0.025570787 40:0.22358102 41:0.39614412 42:-0.026888393 43:0.22295809 44:0.3439815 45:-0.048079219 46:0.22577392 47:0.40958518 48:-0.042418517 49:0.22485071 50:0.43199843 51:-0.032011561 52:0.18448395 53:0.40680659 54:-0.038687177 55:0.18572441 56:0.36713755 57:-0.046679799 58:0.19204253 59:0.41498005 60:-0.041255876 61:0.19314489 62:0.43476254 63:-0.034007963 
0 0 1 1 0 0 0 0 0 0 0 0 0 0 0 0 0 0 0 0 0 0 0 0 0 1:0.20877826 2:0.56771511 3:1.3159164e-09 4:0.27692887 5:0.54573584 6:-0.017958486 7:0.32522082 8:0.47121882 9:-0.029175688 10:0.33063918 11:0.3889496 12:-0.041239154 13:0.31563413 14:0.33319202 15:-0.050194338 16:0.29094619 17:0.39580157 18:-0.01104198 19:0.29718125 20:0.33648044 21:-0.021346176 22:0.28699145 23:0.3940084 24:-0.01698759 25:0.28078768 26:0.42530683 27:-0.014902696 28:0.25233799 29:0.38902134 30:-0.017472895 31:0.25565222 32:0.33562207 33:-0.039724607 34:0.24793425 35:0.40304899 36:-0.041952141 37:0.24498767 38:0.42704967 39:-0.037322622 40:0.21430652 41:0.39435381 42:-0.026567137 43:0.21397404 44:0.34107217 45:-0.049691789 46:0.21366709 47:0.40182245 48:-0.048957098 49:0.21286252 50:0.43102974 51:-0.042010043 52:0.17453197 53:0.40741768 54:-0.0376787 55:0.1734626 56:0.36816049 57:-0.047608104 58:0.17901549 59:0.41062596 60:-0.045473114 61:0.18177569 62:0.4335438 63:-0.040787458 
0 0 1 1 0 0 0 0 0 0 0 0 0 0 0 0 0 0 0 0 0 0 0 0 0 1:0.2046707 2:0.56889224 3:2.4276787e-09 4:0.26998714 5:0.54568708 6:-0.018488629 7:0.31399447 8:0.46545392 9:-0.030683765 10:0.31585434 11:0.38287443 12:-0.043349911 13:0.30224925 14:0.33021939 15:-0.052487988 16:0.28052509 17:0.38751829 18:-0.015104529 19:0.28351557 20:0.33402154 21:-0.026663158 22:0.27801824 23:0.39274794 24:-0.021883823 25:0.27350485 26:0.41484538 27:-0.019445959 28:0.24052761 29:0.38371572 30:-0.021927772 31:0.24293119 32:0.33404785 33:-0.042157035 34:0.24075629 35:0.40425557 36:-0.039292704 37:0.23869531 38:0.41608068 39:-0.031843513 40:0.20195088 41:0.39252198 42:-0.031980649 43:0.19968033 44:0.34028769 45:-0.053974885 46:0.20454788 47:0.40294296 48:-0.048599284 49:0.203978 50:0.42364842 51:-0.038844328 52:0.16203147 53:0.40728968 54:-0.04423134 55:0.1589359 56:0.370341 57:-0.053502556 58:0.16783021 59:0.41295353 60:-0.048911311 61:0.17064223 62:0.42864755 63:-0.042455874 
0 0 1 1 0.33906560515696343 0 0 0 0 0 0 0 0 0 0 0 0 0 0 0 0 0 0 0 0 1:0.20259628 2:0.57129365 3:7.8431833e-10 4:0.26983422 5:0.54324406 6:-0.016764689 7:0.31432143 8:0.4641993 9:-0.026960274 10:0.31857866 11:0.38300073 12:-0.038238209 13:0.30616152 14:0.32936123 15:-0.045629594 16:0.27773377 17:0.38919717 18:-0.0035447048 19:0.28079021 20:0.33538783 21:-0.01158358 22:0.27506417 23:0.39445633 24:-0.0055972855 25:0.27028087 26:0.42014757 27:-0.0025627303 28:0.23903744 29:0.38539442 30:-0.010381532 31:0.24022146 32:0.33559728 33:-0.028173672 34:0.23794022 35:0.40432507 36:-0.026678002 37:0.23611416 38:0.41879791 39:-0.019776911 40:0.20207544 41:0.39328128 42:-0.020790581 43:0.19860598 44:0.34037381 45:-0.040983979 46:0.20369044 47:0.39946294 48:-0.037766919 49:0.20431279 50:0.42009977 51:-0.029310489 52:0.16451135 53:0.40695411 54:-0.033265777 55:0.1596825 56:0.36978212 57:-0.04078282 58:0.16869465 59:0.41133547 60:-0.036985096 61:0.17258212 62:0.42867702 63:-0.031198714 
0 0 1 1 0 0 0 0 0 0 0 0 0 0 0 0 0 0 0 0 0 0 0 0 0 1:0.19083898 2:0.57002807 3:6.8285161e-10 4:0.25835583 5:0.54595923 6:-0.016466437 7:0.30489793 8:0.46564263 9:-0.02705268 10:0.30915764 11:0.38236111 12:-0.03838348 13:0.29694724 14:0.32490119 15:-0.046513945 16:0.26774791 17:0.39075196 18:-0.010772683 19:0.27073747 20:0.33168945 21:-0.01788874 22:0.263302 23:0.39120093 24:-0.010220915 25:0.25790203 26:0.42162919 27:-0.0060221236 28:0.22880426 29:0.38642862 30:-0.017064422 31:0.23062219 32:0.33107162 33:-0.035343572 34:0.22732802 35:0.39900926 36:-0.032967832 37:0.22464903 38:0.4231669 39:-0.025281277 40:0.19149476 41:0.39423159 42:-0.02568147 43:0.18905403 44:0.33962816 45:-0.04539305 46:0.19237193 47:0.39944574 48:-0.040638756 49:0.19242437 50:0.42637822 51:-0.031317923 52:0.15318868 53:0.40939829 54:-0.036131795 55:0.15097256 56:0.36677486 57:-0.044148535 58:0.15739283 59:0.4096424 60:-0.03932244 61:0.15963991 62:0.4323858 63:-0.032537963 
0 0 1 1 0 0 0 0 0 0 0 0 0 0 0 0 0 0 0 0 0 0 0 0 0 1:0.18300414 2:0.56435949 3:1.4460305e-09 4:0.2491425 5:0.54924083 6:-0.02059344 7:0.29403919 8:0.46469033 9:-0.03213308 10:0.29541966 11:0.37705448 12:-0.043400198 13:0.2826333 14:0.32384431 15:-0.050996784 16:0.25899929 17:0.38771072 18:-0.016286273 19:0.25959343 20:0.32732195 21:-0.025714757 22:0.25475079 23:0.38784984 24:-0.018033616 25:0.25116229 26:0.41338706 27:-0.013569923 28:0.21775603 29:0.38319147 30:-0.021293977 31:0.21887597 32:0.32839668 33:-0.040087443 34:0.21828683 35:0.40100917 36:-0.035031941 37:0.21575949 38:0.41716108 39:-0.025372721 40:0.17899598 41:0.39079598 42:-0.029472776 43:0.17655794 44:0.33633283 45:-0.050463594 46:0.18320583 47:0.40096423 48:-0.043851677 49:0.18244044 50:0.42429844 51:-0.032708161 52:0.1402556 53:0.40448311 54:-0.039907418 55:0.13748184 56:0.364968 57:-0.048771627 58:0.14741254 59:0.41037783 60:-0.043479484 61:0.14943328 62:0.42919967 63:-0.035894081 
0 0 1 1 0 0 0 0 0 0 0 0 0 0 0 0 0 0 0 0 0 0 0 0 0 1:0.18322499 2:0.56480372 3:5.4331467e-10 4:0.25012535 5:0.54545307 6:-0.019878926 7:0.29429647 8:0.46326691 9:-0.030840643 10:0.29602227 11:0.37745285 12:-0.041642468 13:0.28340787 14:0.32330224 15:-0.048740055 16:0.25787276 17:0.38536334 18:-0.012295573 19:0.25709897 20:0.32729438 21:-0.019943124 22:0.25417754 23:0.38723648 24:-0.011834238 25:0.25130546 26:0.41474932 27:-0.0072280397 28:0.21685733 29:0.38093665 30:-0.017273696 31:0.21582919 32:0.32921231 33:-0.033440273 34:0.21701312 35:0.3990801 36:-0.028466137 37:0.21514541 38:0.41563681 39:-0.019509187 40:0.17872967 41:0.38947457 42:-0.025629366 43:0.17469648 44:0.33855596 45:-0.044599038 46:0.18253687 47:0.39918581 48:-0.039135911 49:0.18269399 50:0.42035306 51:-0.029462583 52:0.14099899 53:0.40424943 54:-0.036220104 55:0.13736376 56:0.36778289 57:-0.044152848 58:0.14771751 59:0.41076249 60:-0.039724838 61:0.15053234 62:0.42852941 63:-0.033160716 
0 0 1 1 0 0 0 0 0 0 0 0 0 0 0 0 0 0 0 0 0 0 0 0 0 1:0.17790763 2:0.56981176 3:1.6352322e-09 4:0.24143291 5:0.54882264 6:-0.019323763 7:0.28484112 8:0.46166497 9:-0.030112507 10:0.28642634 11:0.3740859 12:-0.040881753 13:0.27166507 14:0.32373148 15:-0.047785424 16:0.24753819 17:0.38318306 18:-0.015357331 19:0.24935345 20:0.32768109 21:-0.025801435 22:0.24526051 23:0.38943303 24:-0.018695153 25:0.24234544 26:0.41117278 27:-0.014645227 28:0.20545068 29:0.38116878 30:-0.021661967 31:0.20729798 32:0.32712239 33:-0.042109262 34:0.20791292 35:0.40208322 36:-0.03684628 37:0.20728599 38:0.41500232 39:-0.026818318 40:0.16626474 41:0.39163694 42:-0.031223113 43:0.16298902 44:0.33561349 45:-0.054330338 46:0.17066479 47:0.40253812 48:-0.046738908 49:0.17135784 50:0.42675704 51:-0.034250129 52:0.12717874 53:0.40875247 54:-0.042952359 55:0.12171969 56:0.36688349 57:-0.052730754 58:0.1326052 59:0.41157445 60:-0.046868689 61:0.13648275 62:0.43035677 63:-0.038631272 
0 0 0 0.43816898666588083 0 0 0.96347443138510447 0 0 0 0 0 0 0 0 0 0 0 0 0 0 0 0 0 0 1:0.16273798 2:0.56198412 3:-2.2566272e-10 4:0.23006494 5:0.55549049 6:-0.02735221 7:0.27744529 8:0.46402884 9:-0.039392289 10:0.27744386 11:0.37056163 12:-0.049047388 13:0.26115534 14:0.3173902 15:-0.054514602 16:0.24005395 17:0.38543415 18:-0.023821149 19:0.23768894 20:0.3247956 21:-0.036033295 22:0.2294808 23:0.38850489 24:-0.028139172 25:0.22666693 26:0.41745123 27:-0.022941556 28:0.19849603 29:0.38082767 30:-0.025544338 31:0.19438675 32:0.32387656 33:-0.04885263 34:0.19067207 35:0.40196481 36:-0.043844406 37:0.19110164 38:0.42215148 39:-0.032712597 40:0.15924677 41:0.38779509 42:-0.030988663 43:0.15122354 44:0.33029595 45:-0.05719218 46:0.15522876 47:0.40114719 48:-0.05093538 49:0.1586898 50:0.42880917 51:-0.038313124 52:0.12142681 53:0.39963815 54:-0.039091416 55:0.11173971 56:0.36493978 57:-0.051130049 58:0.12005215 59:0.41569939 60:-0.046653755 61:0.1264143 62:0.43622518 63:-0.038560335 
0 0 0 0 0 0 0 0 0 0 0 1 0 0 0 0 0 0 0 0 0 0 0 0 0 1:0.15607749 2:0.56426519 3:6.8475975e-10 4:0.22284661 5:0.55644375 6:-0.032017883 7:0.27202702 8:0.46342245 9:-0.043894604 10:0.27428871 11:0.36780271 12:-0.052286305 13:0.25500271 14:0.31512812 15:-0.055953093 16:0.23307157 17:0.3818714 18:-0.023761179 19:0.23164918 20:0.32427639 21:-0.036283534 22:0.22321565 23:0.38844356 24:-0.028291618 25:0.22041002 26:0.41575167 27:-0.023000373 28:0.19058253 29:0.37855235 30:-0.023550671 31:0.18743336 32:0.32393909 33:-0.04572669 34:0.1832691 35:0.40377244 36:-0.040009852 37:0.18459581 38:0.41900116 39:-0.028652258 40:0.15024222 41:0.38614553 42:-0.028217979 43:0.14419286 44:0.32924703 45:-0.055339739 46:0.14702269 47:0.40169755 48:-0.050156206 49:0.14989285 50:0.42720968 51:-0.037690714 52:0.11178328 53:0.39815733 54:-0.035919752 55:0.10060263 56:0.36520052 57:-0.049049575 58:0.10951959 59:0.41407108 60:-0.045975298 61:0.11671072 62:0.43122509 63:-0.03845831 
0 0 0 0 0 0 1 0 0 0 0 1 0 0 0 0 0 0 0 0 0 0 0 0 0 1:0.15787648 2:0.56561297 3:-3.4146694e-10 4:0.22497055 5:0.55021405 6:-0.0288873 7:0.2720207 8:0.46207106 9:-0.04095738 10:0.27362907 11:0.37022594 12:-0.050444458 13:0.25390419 14:0.3154574 15:-0.055372477 16:0.23270282 17:0.38141057 18:-0.021582585 19:0.23144837 20:0.32281095 21:-0.0327987 22:0.22324754 23:0.3895956 24:-0.024251293 25:0.22013107 26:0.41922572 27:-0.018838974 28:0.19036835 29:0.3782289 30:-0.023019139 31:0.18715514 32:0.32229376 33:-0.044970669 34:0.18389401 35:0.40168539 36:-0.039646838 37:0.18418916 38:0.4190467 39:-0.028713727 40:0.15065318 41:0.38720694 42:-0.028817005 43:0.14414461 44:0.3306967 45:-0.054735504 46:0.14875658 47:0.40134549 48:-0.049819961 49:0.15109038 50:0.42627731 51:-0.037982203 52:0.11263777 53:0.40249494 54:-0.037346628 55:0.10324258 56:0.36657697 57:-0.049492341 58:0.11372764 59:0.41332573 60:-0.046475139 61:0.12021162 62:0.43099648 63:-0.039393608 
0 0 0 0 0 0 0 0 0 0 0 1 0 0 0 0 0 0 0 0 0 0 0 0 0 1:0.14982176 2:0.56548232 3:3.0331559e-10 4:0.2179618 5:0.55733621 6:-0.03122298 7:0.26730576 8:0.46513781 9:-0.04300461 10:0.27090821 11:0.36840469 12:-0.051428054 13:0.25380996 14:0.3127898 15:-0.054840192 16:0.22968778 17:0.38245013 18:-0.021913063 19:0.22648993 20:0.32301819 21:-0.033100352 22:0.2190281 23:0.39015675 24:-0.023789017 25:0.21694815 26:0.41882119 27:-0.017767724 28:0.18703975 29:0.37849405 30:-0.021850349 31:0.18305425 32:0.32231128 33:-0.043602515 34:0.17984439 35:0.40454414 36:-0.037197649 37:0.18060276 38:0.4200893 39:-0.025080033 40:0.14649525 41:0.38514274 42:-0.026568078 43:0.14096268 44:0.32753477 45:-0.053223453 46:0.1443091 47:0.40178189 48:-0.047548294 49:0.14582703 50:0.42704856 51:-0.034560122 52:0.10771874 53:0.39573026 54:-0.034164067 55:0.097666018 56:0.36219776 57:-0.046533685 58:0.10664245 59:0.41247994 60:-0.043063518 61:0.11208016 62:0.42992979 63:-0.035204902 
0 0 0 0 0 0 0 0 0 0 0 1 0 0 0 0 0 0 0 0 0 0 0 0 0 1:0.15087995 2:0.56979811 3:6.1509203e-10 4:0.21859521 5:0.55444378 6:-0.030124554 7:0.26599658 8:0.46694893 9:-0.041263513 10:0.2699275 11:0.37300271 12:-0.049623281 13:0.25415516 14:0.31469187 15:-0.053052977 16:0.22651246 17:0.38309336 18:-0.015674435 19:0.22541322 20:0.32484287 21:-0.025465026 22:0.21838073 23:0.39199549 24:-0.016571132 25:0.21628143 26:0.42169899 27:-0.010980844 28:0.18422392 29:0.37908179 30:-0.0156678 31:0.18147126 32:0.32305393 33:-0.036142353 34:0.17825262 35:0.4030363 36:-0.031720415 37:0.17910103 38:0.41860965 39:-0.021291353 40:0.14399406 41:0.3867507 42:-0.020610953 43:0.13818763 44:0.32772654 45:-0.046464585 46:0.14193596 47:0.39940578 48:-0.043409746 49:0.14381479 50:0.42497578 51:-0.032345269 52:0.1048666 53:0.3998878 54:-0.028282577 55:0.094459198 56:0.3628343 57:-0.040479038 58:0.10452823 59:0.40944794 60:-0.038557418 61:0.1108873 62:0.42712215 63:-0.032012001 
0 0 0 0 0 0 0 0 0 0 0 1 0 0 0 0 0 0 0 0 0 0 0 0 0 1:0.1450804 2:0.5732674 3:-4.5533166e-10 4:0.21480113 5:0.55850506 6:-0.03285379 7:0.26397842 8:0.47133079 9:-0.045848735 10:0.26961756 11:0.37678677 12:-0.055816315 13:0.25554121 14:0.3169367 15:-0.06023195 16:0.22589311 17:0.38526514 18:-0.016470788 19:0.22421408 20:0.32546189 21:-0.028144892 22:0.21604113 23:0.39424145 24:-0.020037824 25:0.21460398 26:0.42134452 27:-0.014905908 28:0.18401773 29:0.37947851 30:-0.016473193 31:0.18136309 32:0.32326549 33:-0.039919652 34:0.17658086 35:0.40669739 36:-0.035662726 37:0.17754248 38:0.41842106 39:-0.024253419 40:0.14346546 41:0.38505805 42:-0.022103738 43:0.13859184 44:0.32578966 45:-0.050553691 46:0.14098726 47:0.39983198 48:-0.0465362 49:0.14284612 50:0.42189586 51:-0.033863489 52:0.10402586 53:0.3956809 54:-0.030744141 55:0.095345803 56:0.35928193 57:-0.043741483 58:0.10492367 59:0.40781659 60:-0.041274093 61:0.11100939 62:0.42376843 63:-0.033919893 
0 0 0 0 0 0 0 0 0 0 0 1 0 0 0 0 0 0 0 0 0 0 0 0 0 1:0.14407276 2:0.57265794 3:-2.2935702e-11 4:0.2148082 5:0.55676985 6:-0.029582513 7:0.26446849 8:0.46973959 9:-0.041293293 10:0.26984975 11:0.3753767 12:-0.050803673 13:0.25469422 14:0.31559861 15:-0.054878637 16:0.2270115 17:0.38472956 18:-0.01205597 19:0.22392257 20:0.3251906 21:-0.0222659 22:0.21559842 23:0.39491624 24:-0.013389198 25:0.21421561 26:0.42111492 27:-0.0079713259 28:0.18416931 29:0.37950376 30:-0.01380233 31:0.18079869 32:0.32252884 33:-0.035268642 34:0.1766786 35:0.40633199 36:-0.030122217 37:0.17764483 38:0.41832283 39:-0.018529005 40:0.14291452 41:0.38530296 42:-0.021106472 43:0.13735227 44:0.32548505 45:-0.048141953 46:0.14097384 47:0.40037906 48:-0.043749128 49:0.14327163 50:0.42215547 51:-0.031210333 52:0.10289927 53:0.39547843 54:-0.031228675 55:0.093852602 56:0.35808408 57:-0.043400399 58:0.10413476 59:0.40803599 60:-0.04047985 61:0.11047206 62:0.42453453 63:-0.033083472 
0 0 0 0 0 0 0 0 0 0 0 1 0 0 0 0 0 0 0 0 0 0 0 0 0 1:0.14030747 2:0.56948996 3:-8.7576957e-10 4:0.21146706 5:0.56322324 6:-0.034717571 7:0.26438928 8:0.47345376 9:-0.046988986 10:0.27061689 11:0.37518543 12:-0.055733077 13:0.25522059 14:0.31609732 15:-0.058800016 16:0.22901028 17:0.38372818 18:-0.015175475 19:0.22623308 20:0.32461366 21:-0.02658603 22:0.21663842 23:0.3962048 24:-0.018213302 25:0.21513031 26:0.42238259 27:-0.012963608 28:0.18613081 29:0.37800434 30:-0.014352319 31:0.18200462 32:0.32097864 33:-0.036987342 34:0.17598839 35:0.4099915 36:-0.032008275 37:0.17760234 38:0.42283627 39:-0.019999005 40:0.14422011 41:0.38157022 42:-0.019714568 43:0.14007442 44:0.32164443 45:-0.048564155 46:0.14100106 47:0.40288553 48:-0.044358898 49:0.14248003 50:0.42700568 51:-0.031222157 52:0.10357317 53:0.38794523 54:-0.02835447 55:0.094652563 56:0.35119432 57:-0.041834075 58:0.10281508 59:0.40673944 60:-0.0392396 61:0.10823689 62:0.42547768 63:-0.031552557 
0 0 0 0 0 0 0 0 0 0 0 1 0 0 0 0 0 0 0 0 0 0 0 0 0 1:0.14065877 2:0.56994748 3:1.5279134e-11 4:0.211888 5:0.56163043 6:-0.032925736 7:0.26410532 8:0.47289026 9:-0.045319542 10:0.27020893 11:0.37493369 12:-0.054724328 13:0.25556159 14:0.31369182 15:-0.058904432 16:0.22838113 17:0.38565201 18:-0.015866984 19:0.22661291 20:0.3268224 21:-0.027492689 22:0.21638414 23:0.39674309 24:-0.01910181 25:0.2138941 26:0.42395499 27:-0.013785446 28:0.18496878 29:0.37973118 30:-0.016103607 31:0.18220821 32:0.32070711 33:-0.03892526 34:0.17553341 35:0.40770063 36:-0.034100723 37:0.17663009 38:0.42276216 39:-0.022475071 40:0.14292304 41:0.38384077 42:-0.022220109 43:0.13873126 44:0.32126272 45:-0.051452242 46:0.13990635 47:0.40117157 48:-0.047824383 49:0.14157833 50:0.42779225 51:-0.035241242 52:0.10201761 53:0.39183766 54:-0.031387247 55:0.092755862 56:0.35295394 57:-0.045713939 58:0.10162576 59:0.40676087 60:-0.043606259 61:0.10794897 62:0.42621037 63:-0.036322355 
0 0 0 0 0 0 0 0 0 0 0 1 0 0 0 0 0 0 0 0 0 0 0 0 0 1:0.14160115 2:0.56394303 3:-9.8266462e-10 4:0.21190378 5:0.55892026 6:-0.038296316 7:0.26430908 8:0.47280705 9:-0.052442234 10:0.27136928 11:0.37837803 12:-0.062799066 13:0.26146173 14:0.31713521 15:-0.067515224 16:0.23038447 17:0.37794584 18:-0.015083657 19:0.22760785 20:0.32275426 21:-0.028053846 22:0.21819414 23:0.39383134 24:-0.021691428 25:0.21731953 26:0.41777205 27:-0.017722489 28:0.18718538 29:0.37184677 30:-0.013032222 31:0.1848605 32:0.31881618 33:-0.036892422 34:0.17827517 35:0.40711927 36:-0.03355984 37:0.17935196 38:0.41572502 39:-0.02253988 40:0.14553112 41:0.3752093 42:-0.017924212 43:0.14291395 44:0.32002473 45:-0.047915258 46:0.14286759 47:0.39973888 48:-0.04490494 49:0.14360689 50:0.41838583 51:-0.032571372 52:0.10471584 53:0.38045681 54:-0.026483398 55:0.098225772 56:0.34568223 57:-0.041375417 58:0.10497877 59:0.40063724 60:-0.039820407 61:0.10884626 62:0.41623211 63:-0.032766506 
0 0 0 0 0 0 0 0 0 0 0 0.28654519808947054 0 0 0 0 0 0 0 0 0 0 0 0 0 1:0.13950926 2:0.56925619 3:-1.120944e-09 4:0.20983663 5:0.56059808 6:-0.036486369 7:0.2655957 8:0.47792393 9:-0.049537428 10:0.27663809 11:0.38308296 12:-0.058839057 13:0.263522 14:0.32036343 15:-0.062398843 16:0.23156814 17:0.38133326 18:-0.014114853 19:0.23406754 20:0.32361162 21:-0.02495669 22:0.22013603 23:0.39187792 24:-0.017532885 25:0.21496849 26:0.42207286 27:-0.012906794 28:0.18939285 29:0.37188697 30:-0.011896189 31:0.18943629 32:0.31644008 33:-0.034318067 34:0.1784113 35:0.39855245 36:-0.032469079 37:0.17867491 38:0.41229159 39:-0.022978516 40:0.14789096 41:0.37462527 42:-0.015821159 43:0.14531541 44:0.31589037 45:-0.043557305 46:0.14278007 47:0.38933516 48:-0.04225846 49:0.14389659 50:0.41393787 51:-0.031612039 52:0.10656889 53:0.38268933 54:-0.023122238 55:0.097825021 56:0.34547216 57:-0.036044404 58:0.10484858 59:0.39425603 60:-0.035289906 61:0.11168047 62:0.41201776 63:-0.029220017 
0 0 0 0 0 0 0 0 0 0 0 1 0 0 0 0 0 0 0 0 0 0 0 0 0 1:0.13952635 2:0.57048988 3:-6.7733147e-10 4:0.21181761 5:0.55835021 6:-0.031606063 7:0.26626313 8:0.47535574 9:-0.044916544 10:0.27568033 11:0.38214183 12:-0.056096852 13:0.26377124 14:0.31893939 15:-0.062008109 16:0.23161088 17:0.38031903 18:-0.012609789 19:0.23273093 20:0.32190213 21:-0.023652883 22:0.21948493 23:0.39236853 24:-0.016190642 25:0.21513769 26:0.42232564 27:-0.011727511 28:0.18881571 29:0.37078145 30:-0.013858222 31:0.18856291 32:0.31524998 33:-0.03678035 34:0.17881522 35:0.39930904 36:-0.034324419 37:0.17833751 38:0.41394076 39:-0.024565527 40:0.14710094 41:0.37386775 42:-0.020717559 43:0.14427689 44:0.31604427 45:-0.048119631 46:0.14329469 47:0.39084783 48:-0.045738433 49:0.14419895 50:0.41423857 51:-0.034899306 52:0.10534812 53:0.38282064 54:-0.030657727 55:0.098167323 56:0.3450771 57:-0.043167304 58:0.10561789 59:0.39524138 60:-0.041422833 61:0.11138251 62:0.41276479 63:-0.035087168 
0 0 0 1 0 0 0 0 0 0 0 0 0 0 0 0 0 0 0 0 0 0 0 0 0 1:0.2892276 2:0.59971166 3:4.3953792e-09 4:0.36567262 5:0.57053924 6:-0.01256074 7:0.41763625 8:0.49144194 9:-0.026746755 10:0.42714188 11:0.41424677 12:-0.043936107 13:0.42196655 14:0.35354057 15:-0.057797078 16:0.37766647 17:0.40077895 18:-0.0064430153 19:0.39299622 20:0.34935844 21:-0.017899992 22:0.3906033 23:0.40920317 24:-0.012614839 25:0.38005272 26:0.43349779 27:-0.0092930347 28:0.33507615 29:0.39572307 30:-0.017855361 31:0.35018054 32:0.34490862 33:-0.037251342 34:0.34984118 35:0.42110714 36:-0.031817656 37:0.33819497 38:0.43489012 39:-0.02164812 40:0.29235744 41:0.40262574 42:-0.032569811 43:0.30730566 44:0.35784405 45:-0.050866857 46:0.31257629 47:0.42435542 48:-0.040423755 49:0.30077565 50:0.43966141 51:-0.027920112 52:0.24629128 53:0.41342029 54:-0.049596805 55:0.26424128 56:0.3784523 57:-0.05463716 58:0.27343419 59:0.42534244 60:-0.045538761 61:0.2656047 62:0.43808922 63:-0.036191657 
0 0 0 1 0 0 0 0 0 0 0 0 0 0 0 0 0 0 0 0 0 0 0 0 0 1:0.30327544 2:0.61000639 3:3.757886e-09 4:0.37833208 5:0.58549339 6:-0.016456254 7:0.42993152 8:0.50988299 9:-0.031456895 10:0.43958819 11:0.43316185 12:-0.048831958 13:0.43637389 14:0.37388644 15:-0.06249461 16:0.39298412 17:0.41862008 18:-0.0061905058 19:0.40677458 20:0.37051207 21:-0.018515939 22:0.40163577 23:0.43122885 24:-0.013939417 25:0.3925086 26:0.45096469 27:-0.011139565 28:0.35043824 29:0.4118818 30:-0.016194437 31:0.3645454 32:0.36280119 33:-0.03727987 34:0.36200729 35:0.44142601 36:-0.032581523 37:0.35210446 38:0.45062739 39:-0.022179013 40:0.30821541 41:0.41667497 42:-0.030323302 43:0.32145917 44:0.37119573 45:-0.05097894 46:0.32557586 47:0.44027004 48:-0.041844863 49:0.31544444 50:0.45300359 51:-0.029213373 52:0.26303619 53:0.4249168 54:-0.046996403 55:0.27871308 56:0.38986093 57:-0.053631771 58:0.28712437 59:0.43827817 60:-0.045811318 61:0.28031838 62:0.44990596 63:-0.036854465 
0 0 0 1 0 0 0 0 0 0 0 0 0 0 0 0 0 0 0 0 0 0 0 0 0 1:0.30509159 2:0.60955948 3:3.00525e-09 4:0.37874717 5:0.58573639 6:-0.01644838 7:0.42958891 8:0.50952548 9:-0.030425452 10:0.44097564 11:0.43345052 12:-0.045895975 13:0.43953928 14:0.37647057 15:-0.057406504 16:0.39241895 17:0.41837505 18:-0.0092291059 19:0.4058333 20:0.37179556 21:-0.020045811 22:0.40218762 23:0.43588936 24:-0.013955633 25:0.39540243 26:0.45528638 27:-0.010603438 28:0.34850356 29:0.41276696 30:-0.018283209 31:0.36414883 32:0.36521578 33:-0.038088109 34:0.36252725 35:0.44313815 36:-0.031835247 37:0.35285828 38:0.45000765 39:-0.020882916 40:0.30614284 41:0.41858041 42:-0.031078143 43:0.3207652 44:0.37400475 45:-0.051020522 46:0.32562077 47:0.44125223 48:-0.041428659 49:0.31576642 50:0.45131513 51:-0.028816227 52:0.26153374 53:0.42633218 54:-0.046094101 55:0.27819192 56:0.39358947 57:-0.052818481 58:0.28614286 59:0.44209665 60:-0.045198046 61:0.2787689 62:0.45167264 63:-0.036542341 
0 0 0 1 0 0 0 0 0 0 0 0 0 0 0 0 0 0 0 0 0 0 0 0 0 1:0.31294328 2:0.61946535 3:2.2180746e-09 4:0.38580558 5:0.59918427 6:-0.01919855 7:0.43535805 8:0.52365047 9:-0.035856016 10:0.44575018 11:0.44437087 12:-0.054244719 13:0.44789666 14:0.38486159 15:-0.068757579 16:0.40270406 17:0.43571699 18:-0.012763214 19:0.41888678 20:0.38568318 21:-0.026638839 22:0.41112924 23:0.44912413 24:-0.020869436 25:0.40024859 26:0.47284943 27:-0.017220823 28:0.35908246 29:0.42750105 30:-0.022203069 31:0.37678879 32:0.37596524 33:-0.04775919 34:0.37163475 35:0.45914963 36:-0.042548578 37:0.36006188 38:0.4705475 39:-0.030430855 40:0.31617886 41:0.4309541 42:-0.035673629 43:0.33226386 44:0.38316545 45:-0.061219156 46:0.33477625 47:0.45824993 48:-0.052036595 49:0.32238927 50:0.47485891 51:-0.037648991 52:0.27023196 53:0.43963131 54:-0.051440358 55:0.28726777 56:0.40391064 57:-0.061741833 58:0.29597631 59:0.45490739 60:-0.054682095 61:0.28781185 62:0.46776959 63:-0.045183603 
0 0 0 1 0 0 0 0 0 0 0 0 0 0 0 0 0 0 0 0 0 0 0 0 0 1:0.30495009 2:0.6133818 3:1.1339708e-09 4:0.37554598 5:0.59277284 6:-0.01656514 7:0.42555553 8:0.52541566 9:-0.029835764 10:0.43980116 11:0.45073083 12:-0.044995993 13:0.44047809 14:0.39185292 15:-0.056127355 16:0.39461529 17:0.43961635 18:-0.0023705731 19:0.4104833 20:0.39352721 21:-0.011785557 22:0.40101308 23:0.45683259 24:-0.0049892883 25:0.39018354 26:0.48060086 27:-0.0012054353 28:0.3540597 29:0.43095133 30:-0.01136932 31:0.37022328 32:0.38098735 33:-0.033511452 34:0.36305892 35:0.46012604 36:-0.029756369 37:0.35225254 38:0.47391549 39:-0.018939413 40:0.31394309 41:0.43284544 42:-0.024403661 43:0.32795343 44:0.38490951 45:-0.048172861 46:0.32880491 47:0.45757499 48:-0.041684195 49:0.31875208 50:0.47524032 51:-0.029103888 52:0.27047715 53:0.43988049 54:-0.039294992 55:0.28618246 56:0.4013114 57:-0.049278241 58:0.29337326 59:0.45171404 60:-0.043959506 61:0.2871722 62:0.46713671 63:-0.03573044 
0 0 0 1 0 0 0 0 0 0 0 0 0 0 0 0 0 0 0 0 0 0 0 0 0 1:0.30346295 2:0.61304075 3:1.8314666e-09 4:0.37358785 5:0.5938403 6:-0.013612383 7:0.42451975 8:0.52855724 9:-0.026746459 10:0.44001395 11:0.45503256 12:-0.042456534 13:0.44265187 14:0.39708644 15:-0.054398965 16:0.3919192 17:0.44080958 18:-0.00088719616 19:0.41043872 20:0.39580119 21:-0.010031983 22:0.40141732 23:0.45707807 24:-0.0039545973 25:0.38914052 26:0.48357657 27:-0.00077828427 28:0.35294989 29:0.43175614 30:-0.011075735 31:0.37143415 32:0.38551635 33:-0.03216723 34:0.3633967 35:0.46210223 36:-0.029629426 37:0.35090637 38:0.47809127 39:-0.020397764 40:0.31328154 41:0.43232208 42:-0.024726082 43:0.33096331 44:0.38763967 45:-0.046861384 46:0.32963026 47:0.45775607 48:-0.040782973 49:0.31717825 50:0.47576666 51:-0.029461822 52:0.26925969 53:0.43751144 54:-0.040061023 55:0.28867343 56:0.39884323 57:-0.049232822 58:0.29463395 59:0.44880179 60:-0.04355767 61:0.28659442 62:0.46547705 63:-0.035634186 
0 0 0 1 0 0 0 0 0 0 0 0 0 0 0 0 0 0 0 0 0 0 0 0 0 1:0.29912865 2:0.61881018 3:2.4582398e-09 4:0.36948854 5:0.5992223 6:-0.013229229 7:0.42036381 8:0.53728986 9:-0.026065452 10:0.43803996 11:0.46596098 12:-0.041959345 13:0.44226909 14:0.40739262 15:-0.054181721 16:0.3888258 17:0.45069775 18:0.0047481665 19:0.40872109 20:0.40549392 21:-0.0043164412 22:0.40005204 23:0.46322149 24:0.00046268135 25:0.38598517 26:0.48892477 27:0.0028608793 28:0.35188657 29:0.44016758 30:-0.0057406262 31:0.37161481 32:0.3908101 33:-0.026769156 34:0.36317945 35:0.465105 36:-0.026298014 37:0.35052818 38:0.48277324 39:-0.018343145 40:0.31311205 41:0.43870452 42:-0.020071138 43:0.33216974 44:0.38968816 45:-0.042560119 46:0.33056924 47:0.45872924 48:-0.038187932 49:0.3179279 50:0.48035145 51:-0.027747953 52:0.26919621 53:0.44316375 54:-0.036112435 55:0.28978753 56:0.40069464 57:-0.045758054 58:0.29641753 59:0.44848248 60:-0.041002247 61:0.28893572 62:0.46793759 63:-0.033651855 
0 0 0 1 0 0 0 0 0 0 0 0 0 0 0 0 0 0 0 0 0 0 0 0 0 1:0.29328433 2:0.61704814 3:1.1649183e-09 4:0.36564863 5:0.60089254 6:-0.012993371 7:0.41783559 8:0.54046839 9:-0.025771463 10:0.43429804 11:0.46863472 12:-0.041432638 13:0.43834844 14:0.41089827 15:-0.05336386 16:0.3917293 17:0.45710489 18:0.0010021306 19:0.40937275 20:0.40995532 21:-0.0081498493 22:0.39802396 23:0.4686397 24:-0.0024725816 25:0.38685018 26:0.49505779 27:0.00050618028 28:0.35313076 29:0.44438899 30:-0.0093134064 31:0.37104142 32:0.39596403 33:-0.031413376 34:0.35925543 35:0.47148564 36:-0.029759705 37:0.34789529 38:0.48912746 39:-0.020692566 40:0.31330881 41:0.44082636 42:-0.023089256 43:0.33081934 44:0.39286998 45:-0.045864422 46:0.32615384 47:0.46255583 48:-0.040313564 49:0.31452295 50:0.4828448 51:-0.029063288 52:0.26883203 53:0.4421699 54:-0.038494185 55:0.28823811 56:0.40311441 57:-0.047585782 58:0.29110429 59:0.45237669 60:-0.042131949 61:0.28272268 62:0.4700495 63:-0.034378938 
0 0 0 1 0 0 0 0 0 0 0 0 0 0 0 0 0 0 0 0 0 0 0 0 0 1:0.29002097 2:0.61609143 3:8.5424257e-10 4:0.36074352 5:0.59925169 6:-0.010824471 7:0.41272703 8:0.5399847 9:-0.022529915 10:0.42915303 11:0.47027445 12:-0.037639704 13:0.43270919 14:0.41391692 15:-0.049466733 16:0.38645494 17:0.45601881 18:0.0020214717 19:0.40365097 20:0.41121435 21:-0.006545445 22:0.39179197 23:0.46838272 24:-0.001768592 25:0.37932605 26:0.49911717 27:0.00039404305 28:0.34926519 29:0.44319472 30:-0.0090404619 31:0.36568558 32:0.39670599 33:-0.030143179 34:0.3545337 35:0.46680579 36:-0.030709475 37:0.34390685 38:0.4891679 39:-0.024222285 40:0.31005043 41:0.44021851 42:-0.023068549 43:0.32614452 44:0.39478222 45:-0.044193644 46:0.32146934 47:0.45936772 48:-0.040146504 49:0.31156674 50:0.4830111 51:-0.031148342 52:0.26564014 53:0.44241896 54:-0.038730323 55:0.28329939 56:0.40537786 57:-0.047237087 58:0.28625953 59:0.45158255 60:-0.042429574 61:0.28045255 62:0.47064126 63:-0.035840832 
0 0 0 1 0 0 0 0 0 0 0 0 0 0 0 0 0 0 0 0 0 0 0 0 0 1:0.2838991 2:0.61690801 3:2.332079e-09 4:0.3554765 5:0.59883249 6:-0.008657611 7:0.40655571 8:0.54032528 9:-0.019195754 10:0.42372191 11:0.47107002 12:-0.03328751 13:0.42727134 14:0.41241455 15:-0.043862764 16:0.37750795 17:0.45420668 18:0.0074243606 19:0.39618671 20:0.41128966 21:0.00040297396 22:0.38574946 23:0.47015181 24:0.0065088118 25:0.37215972 26:0.49672857 27:0.0094385315 28:0.34079826 29:0.44169727 30:-0.0040644845 31:0.35923007 32:0.39512205 33:-0.022982934 34:0.34841958 35:0.4677363 36:-0.021286309 37:0.33588925 38:0.48393381 39:-0.013052651 40:0.30307534 41:0.43910667 42:-0.018797198 43:0.32021186 44:0.39261073 45:-0.039058231 46:0.31659648 47:0.45982909 48:-0.034353182 49:0.30506983 50:0.47814173 51:-0.024462847 52:0.26064759 53:0.44112331 54:-0.034835167 55:0.2788592 56:0.40756476 57:-0.042546637 58:0.28187346 59:0.45556912 60:-0.037471179 61:0.27458435 62:0.47036934 63:-0.0304469 
0 0 0 1 0 0 0 0 0 0 0 0 0 0 0 0 0 0 0 0 0 0 0 0 0 1:0.28380036 2:0.61641234 3:9.2160357e-10 4:0.35624638 5:0.59832859 6:-0.01087276 7:0.40632045 8:0.54001886 9:-0.021419333 10:0.42202109 11:0.47013617 12:-0.035192721 13:0.42595342 14:0.41143045 15:-0.045367684 16:0.37833786 17:0.45310521 18:0.0089689288 19:0.39651513 20:0.41139534 21:0.0029651863 22:0.38423848 23:0.46925721 24:0.0092818663 25:0.37042212 26:0.49537256 27:0.012336469 28:0.34148383 29:0.44147485 30:-0.0011356727 31:0.35901883 32:0.3955417 33:-0.019545054 34:0.34692809 35:0.467498 36:-0.018535426 37:0.33490202 38:0.48379591 39:-0.010549324 40:0.30382264 41:0.43963602 42:-0.014782558 43:0.31981158 44:0.39228541 45:-0.035071731 46:0.31557256 47:0.45811737 48:-0.031648621 49:0.30462408 50:0.47677237 51:-0.022313215 52:0.26131785 53:0.44236472 54:-0.029843329 55:0.27804959 56:0.40622345 57:-0.037716195 58:0.28111935 59:0.45303398 60:-0.033580925 61:0.27433378 62:0.46896717 63:-0.027071502 
0 0 0 1 0 0 0 0 0 0 0 0 0 0 0 0 0 0 0 0 0 0 0 0 0 1:0.27934295 2:0.62153399 3:1.0205876e-09 4:0.3522588 5:0.60226387 6:-0.011457782 7:0.40234569 8:0.54531562 9:-0.02306764 10:0.41892815 11:0.47469562 12:-0.038000993 13:0.42271665 14:0.41644245 15:-0.049330693 16:0.3739959 17:0.45962432 18:0.0057496601 19:0.39245614 20:0.41270274 21:-0.0023223532 22:0.37984633 23:0.4715603 24:0.0034873821 25:0.36639106 26:0.50296992 27:0.0063266098 28:0.33700317 29:0.44772092 30:-0.0050217495 31:0.35495493 32:0.39919537 33:-0.027172519 34:0.34220284 35:0.47297382 36:-0.027849473 37:0.33007389 38:0.49392432 39:-0.020469284 40:0.29865384 41:0.44572333 42:-0.019288868 43:0.31538808 44:0.39700285 45:-0.043672577 46:0.3106021 47:0.46550098 48:-0.041878682 49:0.29935196 50:0.4874703 51:-0.032844037 52:0.25549155 53:0.4492119 54:-0.034785334 55:0.27399248 56:0.40952164 57:-0.046039991 58:0.27748138 59:0.45839992 60:-0.043215949 61:0.27045637 62:0.47781628 63:-0.037198938 
0 0 0 1 0 0 0 0 0 0 0 0 0 0 0 0 0 0 0 0 0 0 0 0 0 1:0.27846259 2:0.62296557 3:1.6393725e-09 4:0.35221863 5:0.60150492 6:-0.0100503 7:0.40199119 8:0.5450924 9:-0.020451706 10:0.41899684 11:0.47466299 12:-0.034513116 13:0.42248717 14:0.41631281 15:-0.044898078 16:0.37307021 17:0.45946646 18:0.010306917 19:0.39214018 20:0.41324633 21:0.0033713172 22:0.37993926 23:0.47190985 24:0.0093627796 25:0.36640123 26:0.50196207 27:0.012189161 28:0.33632776 29:0.44772348 30:-0.00091895112 31:0.3549231 32:0.39930439 33:-0.021933103 34:0.34262946 35:0.47226653 36:-0.022827942 37:0.33035901 38:0.49219432 39:-0.015678843 40:0.2981486 41:0.44561318 42:-0.015739752 43:0.31530586 44:0.39678365 45:-0.039475288 46:0.31075451 47:0.46451283 48:-0.038097847 49:0.29954481 50:0.4857766 51:-0.029355124 52:0.25499445 53:0.44849208 54:-0.031696592 55:0.27406788 56:0.4090035 57:-0.042488456 58:0.27744478 59:0.45763555 60:-0.03976842 61:0.27015266 62:0.47689214 63:-0.033871975 
0 0 0 1 0 0 0 0 0 0 0 0 0 0 0 0 0 0 0 0 0 0 0 0 0 1:0.27636674 2:0.62251663 3:1.2260531e-09 4:0.35066882 5:0.60425419 6:-0.011914505 7:0.40219256 8:0.54776776 9:-0.023662223 10:0.42009193 11:0.47658017 12:-0.038479023 13:0.42369565 14:0.4171676 15:-0.049522992 16:0.37395057 17:0.46413574 18:0.0045008594 19:0.39268458 20:0.41603488 21:-0.0035782368 22:0.37872878 23:0.47526094 24:0.0028106831 25:0.36485329 26:0.50603586 27:0.0061564869 28:0.33666879 29:0.45150754 30:-0.0060883393 31:0.35408288 32:0.40086818 33:-0.028375719 34:0.34087053 35:0.47468495 36:-0.028334014 37:0.32932064 38:0.49588469 39:-0.020301001 40:0.29822075 41:0.44841248 42:-0.0201097 43:0.31407189 44:0.39866263 45:-0.044523463 46:0.30880341 47:0.46715343 48:-0.04187569 49:0.29824048 50:0.4893446 51:-0.032112055 52:0.25550443 53:0.45084542 54:-0.035390351 55:0.27331239 56:0.41066438 57:-0.046272811 58:0.27645716 59:0.45997518 60:-0.042762432 61:0.26985234 62:0.48011389 63:-0.03617797 
0 0 0 1 0 0 0 0 0 0 0 0 0 0 0 0 0 0 0 0 0 0 0 0 0 1:0.27843764 2:0.62468958 3:1.0048908e-09 4:0.3507092 5:0.60665834 6:-0.01213202 7:0.40163419 8:0.55069536 9:-0.023507545 10:0.41894978 11:0.48087999 12:-0.038145475 13:0.42374787 14:0.42317784 15:-0.049304046 16:0.37252867 17:0.46840915 18:0.0072200196 19:0.39185137 20:0.42222065 21:-0.00024347386 22:0.3789959 23:0.47858858 24:0.0050089648 25:0.36571378 26:0.5089947 27:0.0075233146 28:0.33609369 29:0.45574781 30:-0.0028632095 31:0.35443848 32:0.40607047 33:-0.024307571 34:0.34162849 35:0.4767108 36:-0.026275411 37:0.32987362 38:0.50039607 39:-0.019898186 40:0.2981849 41:0.45171568 42:-0.016405303 43:0.31533274 44:0.40287727 45:-0.039731622 46:0.30960897 47:0.46937582 48:-0.038294263 49:0.29880637 50:0.49429327 51:-0.029693605 52:0.25541392 53:0.45288968 54:-0.031363424 55:0.27442002 56:0.41073981 57:-0.04205963 58:0.27727148 59:0.4583928 60:-0.039096858 61:0.27075323 62:0.48069334 63:-0.033072531 
0 0 0 1 0 0 0 0 0 0 0 0 0 0 0 0 0 0 0 0 0 0 0 0 0 1:0.27888435 2:0.62560731 3:1.0482234e-09 4:0.35189635 5:0.60647672 6:-0.011444467 7:0.40175691 8:0.55034381 9:-0.021908863 10:0.41887623 11:0.48001197 12:-0.035659757 13:0.42422199 14:0.42195579 15:-0.045916729 16:0.37212119 17:0.46791095 18:0.010434679 19:0.39171717 20:0.4228363 21:0.0044869408 22:0.37901163 23:0.47918305 24:0.01033429 25:0.36536473 26:0.50814772 27:0.013039757 28:0.33576125 29:0.45541736 30:0.00059624127 31:0.35537195 32:0.40647742 33:-0.01928197 34:0.34247822 35:0.47675845 36:-0.020951886 37:0.33011517 38:0.49898314 39:-0.014484404 40:0.2981087 41:0.4516699 42:-0.012751855 43:0.31638908 44:0.40214324 45:-0.035243619 46:0.31076384 47:0.46812132 48:-0.034245797 49:0.29924968 50:0.49218705 51:-0.0258752 52:0.25538826 53:0.45289224 54:-0.027341381 55:0.27509487 56:0.41114235 57:-0.037599463 58:0.27795479 59:0.45812821 60:-0.034963552 61:0.27074224 62:0.47962606 63:-0.02915719 
0 0 0 1 0 0 0 0 0 0 0 0 0 0 0 0 0 0 0 0 0 0 0 0 0 1:0.27815062 2:0.62495601 3:1.1937025e-09 4:0.35029531 5:0.60604542 6:-0.01309726 7:0.39999652 8:0.55080479 9:-0.024671391 10:0.41816056 11:0.48117593 12:-0.039156344 13:0.42359188 14:0.42274076 15:-0.049970511 16:0.37253395 17:0.46792883 18:0.0072177285 19:0.39210647 20:0.42272744 21:-0.00035158274 22:0.37928388 23:0.48004618 24:0.0052329446 25:0.36580476 26:0.50740874 27:0.0079286275 28:0.33595592 29:0.4553405 30:-0.0024409438 31:0.35538587 32:0.40613192 33:-0.024014352 34:0.34237468 35:0.4786984 36:-0.024875741 37:0.33048844 38:0.4980047 39:-0.017469518 40:0.2983408 41:0.45162335 42:-0.015903916 43:0.31603965 44:0.40123522 45:-0.040318247 46:0.31101817 47:0.46859679 48:-0.038738705 49:0.29979748 50:0.49054319 51:-0.029487949 52:0.25592959 53:0.4528386 54:-0.030654144 55:0.27493265 56:0.41098133 57:-0.042061098 58:0.2781432 59:0.45880806 60:-0.039383229 61:0.27079865 62:0.47893086 63:-0.033270199 
0 0 0 1 0 0 0 0 0 0 0 0 0 0 0 0 0 0 0 0 0 0 0 0 0 1:0.27610019 2:0.62180972 3:1.8542659e-09 4:0.34875369 5:0.60373217 6:-0.011271893 7:0.3986038 8:0.54907286 9:-0.021893961 10:0.41680846 11:0.48012179 12:-0.035838962 13:0.4220612 14:0.42346317 15:-0.046041101 16:0.37099618 17:0.46568856 18:0.0098759476 19:0.39259666 20:0.42234996 21:0.0024872988 22:0.37892494 23:0.48070624 24:0.0082226451 25:0.3646524 26:0.50652128 27:0.010982824 28:0.33452642 29:0.45281523 30:-0.00062432699 31:0.3566646 32:0.40595341 33:-0.022305561 34:0.34225577 35:0.47924235 36:-0.023030043 37:0.32904142 38:0.49556705 39:-0.015379984 40:0.29699826 41:0.44857779 42:-0.014913057 43:0.31719169 44:0.40089369 45:-0.039383598 46:0.31074527 47:0.46909675 48:-0.037781894 49:0.29804617 50:0.48873019 51:-0.028357461 52:0.25450385 53:0.448255 54:-0.030348232 55:0.27539694 56:0.41004443 57:-0.041404948 58:0.27800366 59:0.45875195 60:-0.038713031 61:0.26983958 62:0.47689867 63:-0.032617893 
