svm_type c_svc
kernel_type rbf
gamma 0.015873015873015872
nr_class 3
total_sv 297
rho 0.013122439384460449 0.21992033720016479 0.24153918027877808
label 0 1 2
nr_sv 100 100 97
SV
1 1 1:0.39160925 2:0.50327122 3:5.346684e-09 4:0.46995384 5:0.46930128 6:-0.0048264312 7:0.5203681 8:0.39308178 9:-0.012174352 10:0.53887856 11:0.31072554 12:-0.025069382 13:0.54426551 14:0.24570385 15:-0.034814186 16:0.47443411 17:0.30511954 18:0.022681035 19:0.49803945 20:0.24851948 21:0.016023481 22:0.49532309 23:0.31656167 24:0.022833541 25:0.48120815 26:0.35838491 27:0.026689162 28:0.43578207 29:0.2974337 30:0.0074927956 31:0.45886195 32:0.2314326 33:-0.016767021 34:0.45709035 35:0.31879312 36:-0.019680312 37:0.44145757 38:0.36034438 39:-0.011972884 40:0.39335304 41:0.30163777 42:-0.011426909 43:0.41627562 44:0.23685899 45:-0.039381947 46:0.41890272 47:0.32065749 48:-0.039355356 49:0.40312868 50:0.36160412 51:-0.029506505 52:0.34455943 53:0.31433821 54:-0.031112306 55:0.37132391 56:0.26161346 57:-0.045211412 58:0.38077509 59:0.31734663 60:-0.043007005 61:0.37057295 62:0.34973246 63:-0.036390673 
1 1 1:0.39214605 2:0.50601929 3:1.7748646e-09 4:0.47046542 5:0.46981108 6:-0.0044606784 7:0.52176487 8:0.39551455 9:-0.011953903 10:0.54011577 11:0.31570816 12:-0.025223626 13:0.54371685 14:0.25001377 15:-0.035098467 16:0.47529095 17:0.30552334 18:0.026538346 19:0.49875629 20:0.24691167 21:0.020868884 22:0.49529761 23:0.31247249 24:0.026969148 25:0.48147428 26:0.3580817 27:0.029986059 28:0.43656632 29:0.2988829 30:0.01110846 31:0.45857912 32:0.23162806 33:-0.012250671 34:0.45664158 35:0.31529766 36:-0.017313644 37:0.44208235 38:0.36131248 39:-0.01134556 40:0.39347923 41:0.30342633 42:-0.0080923028 43:0.41522089 44:0.23490021 45:-0.034732863 46:0.41803116 47:0.31645617 48:-0.036010142 49:0.40413326 50:0.36135381 51:-0.027624376 52:0.34409893 53:0.31693578 54:-0.028173223 55:0.36803168 56:0.26148143 57:-0.041625328 58:0.37828243 59:0.31748742 60:-0.039704721 61:0.37035975 62:0.35354072 63:-0.033464387 
1 1 1:0.39305249 2:0.50692326 3:1.8887301e-09 4:0.47152138 5:0.46999902 6:-0.0032717257 7:0.5214898 8:0.39479241 9:-0.0095315799 10:0.53928679 11:0.31489274 12:-0.021820333 13:0.54433352 14:0.25007534 15:-0.030718731 16:0.47376767 17:0.3056756 18:0.030653395 19:0.49699688 20:0.2452611 21:0.026432706 22:0.49458736 23:0.30981234 24:0.033270724 25:0.48181349 26:0.35679522 27:0.036710985 28:0.43518573 29:0.29963389 30:0.015123842 31:0.45775777 32:0.22902463 33:-0.0072508347 34:0.45709291 35:0.31139636 36:-0.012379435 37:0.4431352 38:0.36025611 39:-0.0063028797 40:0.39235321 41:0.30404574 42:-0.0042286906 43:0.41490337 44:0.23066041 45:-0.030538367 46:0.4184708 47:0.31262204 48:-0.032358218 49:0.40516818 50:0.36092383 51:-0.024113763 52:0.34309879 53:0.31702513 54:-0.024336237 55:0.3683565 56:0.25904146 57:-0.038225919 58:0.37948292 59:0.31529093 60:-0.036686245 61:0.37225452 62:0.35405022 63:-0.030507097 
1 1 1:0.39291406 2:0.50814837 3:1.9299429e-09 4:0.47148433 5:0.47125584 6:-0.0033376014 7:0.52127016 8:0.39487773 9:-0.010308146 10:0.53912973 11:0.31430963 12:-0.02345534 13:0.54530704 14:0.24898866 15:-0.033275031 16:0.47424251 17:0.30589932 18:0.029097883 19:0.4977951 20:0.24494725 21:0.023986779 22:0.49491382 23:0.31084773 24:0.030272365 25:0.48190391 26:0.35856774 27:0.033351459 28:0.43565419 29:0.29949948 30:0.013200634 31:0.4582395 32:0.2291539 33:-0.010081742 34:0.45709649 35:0.31293896 36:-0.01565752 37:0.44320545 38:0.3614552 39:-0.0099030351 40:0.3926785 41:0.30369183 42:-0.0063880822 43:0.41576159 44:0.23034468 45:-0.032813713 46:0.4184638 47:0.31314605 48:-0.034396809 49:0.40446615 50:0.3611058 51:-0.026201384 52:0.34326857 53:0.31658897 54:-0.026784744 55:0.36905172 56:0.25919652 57:-0.040103406 58:0.37890297 59:0.31606951 60:-0.038154796 61:0.37028393 62:0.35430878 63:-0.031928498 
1 1 1:0.39426145 2:0.50927776 3:1.7410943e-09 4:0.47177562 5:0.47116244 6:-0.0042798519 7:0.52063322 8:0.39492771 9:-0.012004051 10:0.53865111 11:0.31481946 12:-0.025701111 13:0.54593611 14:0.25017285 15:-0.035986837 16:0.4743464 17:0.30435929 18:0.027531736 19:0.49732023 20:0.24570718 21:0.022246543 22:0.49476948 23:0.31308499 24:0.028313309 25:0.48173392 26:0.36081421 27:0.031183671 28:0.43590334 29:0.29872581 30:0.01190376 31:0.4578498 32:0.2308962 33:-0.010775981 34:0.45708457 35:0.3154695 36:-0.016099066 37:0.44361553 38:0.36225858 39:-0.010583162 40:0.39311841 41:0.30365333 42:-0.0074922768 43:0.41550764 44:0.23325737 45:-0.033209056 46:0.41863421 47:0.31508765 48:-0.034578893 49:0.40516105 50:0.36115938 51:-0.026641317 52:0.34392276 53:0.31722534 54:-0.027816465 55:0.36869875 56:0.2610271 57:-0.040540878 58:0.37914908 59:0.31736445 60:-0.038393985 61:0.37114078 62:0.35458356 63:-0.032263357 
1 1 1:0.39257857 2:0.50811803 3:1.884042e-09 4:0.47147548 5:0.47061926 6:-0.0033108215 7:0.52018166 8:0.39622381 9:-0.0095025962 10:0.53808284 11:0.31570446 12:-0.022124033 13:0.54556406 14:0.25014511 15:-0.031601124 16:0.47382632 17:0.30769444 18:0.032777511 19:0.49709556 20:0.24537264 21:0.028561339 22:0.4948267 23:0.31041241 24:0.033899654 25:0.48232174 26:0.36051288 27:0.036120947 28:0.43581587 29:0.3008258 30:0.01730046 31:0.45863834 32:0.23140931 33:-0.0055389432 34:0.45722842 35:0.31260991 36:-0.014156294 37:0.44391936 38:0.36283869 39:-0.01086344 40:0.39296061 41:0.3040798 42:-0.0018819469 43:0.41582724 44:0.23272371 45:-0.027779203 46:0.41824481 47:0.3127431 48:-0.032512546 49:0.40513092 50:0.36213347 51:-0.026830427 52:0.34401518 53:0.31593055 54:-0.021863319 55:0.36972883 56:0.25752479 57:-0.035245344 58:0.37985051 59:0.3128033 60:-0.035156947 61:0.37210184 62:0.35318199 63:-0.03060123 
1 1 1:0.39439309 2:0.5086903 3:1.4219942e-09 4:0.47196293 5:0.47096401 6:-0.0037724746 7:0.52043313 8:0.39505774 9:-0.01162638 10:0.53705108 11:0.31419036 12:-0.025516555 13:0.54336166 14:0.24746332 15:-0.035932865 16:0.47342432 17:0.30477661 18:0.027592067 19:0.49575603 20:0.2442164 21:0.022279516 22:0.49294782 23:0.31147534 24:0.028650805 25:0.47954059 26:0.36081848 27:0.031762149 28:0.43480799 29:0.29894757 30:0.011721556 31:0.45659772 32:0.22932395 33:-0.011950934 34:0.45520005 35:0.31363747 36:-0.017494928 37:0.44115645 38:0.3619988 39:-0.011677531 40:0.39203486 41:0.30295795 42:-0.0077702976 43:0.4140265 44:0.23083404 45:-0.034552913 46:0.41664204 47:0.31275105 48:-0.035918858 49:0.40309334 50:0.36012128 51:-0.027547847 52:0.34311312 53:0.31560966 54:-0.028033238 55:0.36830324 56:0.25652605 57:-0.041815136 58:0.37833351 59:0.31311321 60:-0.039606877 61:0.37032023 62:0.35224703 63:-0.033118382 
1 1 1:0.39319828 2:0.50884843 3:1.4880456e-09 4:0.47116235 5:0.47033536 6:-0.0049267868 7:0.51907289 8:0.39372027 9:-0.012478183 10:0.53583992 11:0.31174934 12:-0.026062416 13:0.54161787 14:0.24381804 15:-0.036215417 16:0.47319451 17:0.30308026 18:0.030427447 19:0.49631834 20:0.24440032 21:0.025461994 22:0.49340716 23:0.3123171 24:0.031207763 25:0.47999072 26:0.36068645 27:0.033741765 28:0.43409207 29:0.29725724 30:0.015026304 31:0.4567554 32:0.22898635 33:-0.0089905774 34:0.45493585 35:0.31404489 36:-0.016198471 37:0.44097689 38:0.36188945 39:-0.011379872 40:0.39091036 41:0.30129227 42:-0.0042628148 43:0.41353315 44:0.23107553 45:-0.031666547 46:0.41583356 47:0.31344193 48:-0.034681309 49:0.40207836 50:0.35986537 51:-0.027159614 52:0.34177709 53:0.31372368 54:-0.024390001 55:0.36772579 56:0.2550751 57:-0.038433701 58:0.37764642 59:0.31256136 60:-0.037164669 61:0.36927286 62:0.35147327 63:-0.031347688 
1 1 1:0.39363456 2:0.50918007 3:1.3835073e-09 4:0.4705506 5:0.47160703 6:-0.0053669326 7:0.51900673 8:0.39370289 9:-0.013404075 10:0.53562593 11:0.31139949 12:-0.02748695 13:0.54111397 14:0.24408472 15:-0.038206022 16:0.47329995 17:0.30315498 18:0.028061312 19:0.49594164 20:0.24370521 21:0.022172639 22:0.49330005 23:0.31206885 24:0.027600631 25:0.48041883 26:0.36042571 27:0.030027755 28:0.43421286 29:0.29714319 30:0.012532024 31:0.45652673 32:0.22852516 33:-0.012174061 34:0.45456743 35:0.31407973 36:-0.019163866 37:0.440642 38:0.3617124 39:-0.01421681 40:0.39099175 41:0.3009682 42:-0.0068721981 43:0.41367447 44:0.23203056 45:-0.034336194 46:0.41557354 47:0.3149178 48:-0.036616687 49:0.40155536 50:0.36121818 51:-0.028720003 52:0.34153455 53:0.3132214 54:-0.027285442 55:0.36741918 56:0.25533998 57:-0.041141745 58:0.3772307 59:0.31294212 60:-0.039477974 61:0.36884063 62:0.35132924 63:-0.033440765 
1 1 1:0.39504921 2:0.50822365 3:8.7398278e-10 4:0.47130898 5:0.47043768 6:-0.0058263638 7:0.51940227 8:0.39037257 9:-0.014856152 10:0.53484923 11:0.30649534 12:-0.029720968 13:0.53946131 14:0.2380877 15:-0.04099993 16:0.47239444 17:0.29941475 18:0.024760719 19:0.49502259 20:0.24083179 21:0.017921688 22:0.49228331 23:0.31178957 24:0.024062036 25:0.4785614 26:0.36070451 27:0.027133601 28:0.43349722 29:0.29382074 30:0.0088422829 31:0.45576787 32:0.22449854 33:-0.016590932 34:0.45452198 35:0.31277862 36:-0.021636512 37:0.44019902 38:0.36004719 39:-0.015110943 40:0.39048192 41:0.29833201 42:-0.01100081 43:0.41334319 44:0.2267102 45:-0.039204311 46:0.41620111 47:0.31158435 48:-0.039497785 49:0.40188485 50:0.35802105 51:-0.030062696 52:0.34123057 53:0.31159428 54:-0.031873971 55:0.36702514 56:0.25213376 57:-0.045971215 58:0.37762189 59:0.31114122 60:-0.043042913 61:0.36931899 62:0.34978175 63:-0.035946909 
1 1 1:0.39258593 2:0.50691956 3:1.0165189e-09 4:0.47007686 5:0.47054476 6:-0.0059983367 7:0.51899451 8:0.38955736 9:-0.014347993 10:0.53516215 11:0.30499461 12:-0.028716816 13:0.54260731 14:0.23658967 15:-0.03966891 16:0.47304553 17:0.29869604 18:0.02693619 19:0.49613136 20:0.23757961 21:0.020640992 22:0.4933297 23:0.30740544 24:0.026402127 25:0.47963119 26:0.35530502 27:0.029130431 28:0.43377855 29:0.29240358 30:0.011440396 31:0.45661992 32:0.22143197 33:-0.013880983 34:0.45474204 35:0.30871359 36:-0.020184334 37:0.44041669 38:0.35555762 39:-0.014385281 40:0.39039657 41:0.29599079 42:-0.007993022 43:0.41392544 44:0.22533175 45:-0.035545748 46:0.41607723 47:0.30985466 48:-0.03685784 49:0.40170854 50:0.35603797 51:-0.028126299 52:0.340707 53:0.30812126 54:-0.028543495 55:0.3669562 56:0.24883302 57:-0.042113226 58:0.37682217 59:0.30759868 60:-0.039813723 61:0.36825508 62:0.34615356 63:-0.033193499 
1 1 1:0.39433751 2:0.5096699 3:1.3681709e-09 4:0.47079411 5:0.4714458 6:-0.0059954049 7:0.51963031 8:0.38906276 9:-0.014963312 10:0.53541923 11:0.30466029 12:-0.029990528 13:0.54188693 14:0.23599011 15:-0.041605562 16:0.47242427 17:0.29849368 18:0.02553015 19:0.49497318 20:0.23630056 21:0.018830262 22:0.49247068 23:0.30608541 24:0.024340408 25:0.47952712 26:0.35524648 27:0.026878443 28:0.43329042 29:0.29309911 30:0.0098021179 31:0.45542273 32:0.22229692 33:-0.015327345 34:0.45402485 35:0.30854213 36:-0.02172808 37:0.44011247 38:0.35602561 39:-0.016339747 40:0.389884 41:0.29757258 42:-0.0097736316 43:0.41287556 44:0.22659403 45:-0.036870897 46:0.41522068 47:0.30992037 48:-0.037899207 49:0.40122852 50:0.35648924 51:-0.029392296 52:0.33979619 53:0.31040248 54:-0.030549567 55:0.36530414 56:0.2507132 57:-0.043985683 58:0.37556475 59:0.30841732 60:-0.041405234 61:0.36755505 62:0.34668574 63:-0.034754761 
1 1 1:0.39251608 2:0.50635231 3:1.1267034e-09 4:0.47031856 5:0.46870458 6:-0.0035470014 7:0.51923907 8:0.38731089 9:-0.011186737 10:0.53556281 11:0.30331933 12:-0.025002668 13:0.5413031 14:0.2340907 15:-0.035184558 16:0.47153056 17:0.29452693 18:0.027831271 19:0.4943321 20:0.23376133 21:0.022650668 22:0.49374878 23:0.30434433 24:0.030345967 25:0.48022282 26:0.35374543 27:0.034468848 28:0.43207717 29:0.28948706 30:0.011363343 31:0.45495555 32:0.21684355 33:-0.012123706 34:0.45556226 35:0.3045384 36:-0.015296221 37:0.44053805 38:0.35176519 39:-0.0073891566 40:0.38859546 41:0.29398429 42:-0.0089817271 43:0.41258195 44:0.22285922 45:-0.035224494 46:0.4166778 47:0.30806759 48:-0.03409791 49:0.40143493 50:0.35302261 51:-0.023742324 52:0.33890307 53:0.30677855 54:-0.030253975 55:0.36591035 56:0.24724483 57:-0.043196041 58:0.37736762 59:0.30670691 60:-0.03955299 61:0.36839747 62:0.34437925 63:-0.031776115 
1 1 1:0.39291072 2:0.50440228 3:7.4220258e-10 4:0.47028014 5:0.46742177 6:-0.0042890944 7:0.52025527 8:0.38432986 9:-0.013399763 10:0.53662002 11:0.29794657 12:-0.028654302 13:0.54169714 14:0.22784929 15:-0.040136553 16:0.47416323 17:0.28953055 18:0.022959491 19:0.4971191 20:0.22546297 21:0.016137922 22:0.49511969 23:0.29857501 24:0.024030367 25:0.48070538 26:0.3471337 27:0.028217521 28:0.4340086 29:0.2843346 30:0.0056193243 31:0.45648104 32:0.21004733 33:-0.020118369 34:0.45560735 35:0.30132231 36:-0.022185724 37:0.43986762 38:0.34635028 39:-0.013177836 40:0.38967541 41:0.28911626 42:-0.015497434 43:0.41313693 44:0.21661776 45:-0.043745819 46:0.41643077 47:0.3057487 48:-0.040939778 49:0.40052816 50:0.35021943 51:-0.029092329 52:0.33878756 53:0.30243823 54:-0.037610225 55:0.36626911 56:0.24192035 57:-0.051528294 58:0.37714574 59:0.30434886 60:-0.046939556 61:0.36760902 62:0.34202904 63:-0.038296007 
1 1 1:0.39389479 2:0.50812489 3:1.7785223e-09 4:0.47019938 5:0.46734524 6:-0.0026809801 7:0.51910931 8:0.38360882 9:-0.011655289 10:0.53630298 11:0.2987887 12:-0.027671268 13:0.54213572 14:0.22818899 15:-0.040220097 16:0.47225764 17:0.28848621 18:0.028285721 19:0.4973821 20:0.22572863 21:0.021096045 22:0.49501294 23:0.29649839 24:0.02637092 25:0.47984725 26:0.34578282 27:0.028558243 28:0.43308151 29:0.2844426 30:0.0097545953 31:0.45707867 32:0.2123878 33:-0.016500734 34:0.45577738 35:0.30112243 36:-0.022854595 37:0.44037732 38:0.3488327 39:-0.017158518 40:0.38893822 41:0.28998035 42:-0.012484927 43:0.41328812 44:0.21857065 45:-0.040676169 46:0.41637239 47:0.30568707 48:-0.040634982 49:0.40139735 50:0.35283238 51:-0.031153742 52:0.33763948 53:0.30406243 54:-0.035754174 55:0.36536682 56:0.24240807 57:-0.049714405 58:0.3768205 59:0.30361348 60:-0.04612584 61:0.36846775 62:0.34334546 63:-0.038614251 
1 1 1:0.39189592 2:0.50314629 3:1.2086159e-09 4:0.47172949 5:0.46471137 6:-0.0043540746 7:0.52242333 8:0.3807041 9:-0.012837202 10:0.53923422 11:0.29320753 12:-0.027294284 13:0.54254395 14:0.22354743 15:-0.03774472 16:0.47442082 17:0.28196669 18:0.024460576 19:0.49736607 20:0.21965176 21:0.018044658 22:0.4954479 23:0.29543465 24:0.026320206 25:0.48025674 26:0.34135786 27:0.030693792 28:0.43292281 29:0.27728143 30:0.0072290609 31:0.45493144 32:0.20419005 33:-0.017509123 34:0.45512727 35:0.29842156 36:-0.018639592 37:0.4389438 38:0.3397955 39:-0.0090938453 40:0.38792574 41:0.28281292 42:-0.014081627 43:0.41136691 44:0.21188095 45:-0.042112082 46:0.41680664 47:0.3030782 48:-0.039285466 49:0.40088364 50:0.34434158 51:-0.027351435 52:0.33672619 53:0.29609734 54:-0.036370002 55:0.36478525 56:0.23746926 57:-0.049853202 58:0.37705535 59:0.30211538 60:-0.045387056 61:0.36731508 62:0.33818445 63:-0.036852028 
1 1 1:0.39233831 2:0.50354588 3:2.1793221e-09 4:0.47290036 5:0.46353543 6:-0.0044794623 7:0.5235464 8:0.38042307 9:-0.013738691 10:0.54119939 11:0.29254085 12:-0.029525278 13:0.54445463 14:0.22200033 15:-0.041425779 16:0.47610712 17:0.28271374 18:0.024918295 19:0.49986091 20:0.2134354 21:0.016905909 22:0.49840307 23:0.2880142 24:0.024560023 25:0.48321748 26:0.33736342 27:0.028647572 28:0.43471053 29:0.27655268 30:0.0065739937 31:0.45841089 32:0.19731998 33:-0.021526698 34:0.45783377 35:0.29027531 36:-0.024486592 37:0.44131657 38:0.3352651 39:-0.01537642 40:0.38878858 41:0.28138208 42:-0.015994396 43:0.41368172 44:0.20256773 45:-0.047657873 46:0.41851464 47:0.29312107 48:-0.046386741 49:0.40205935 50:0.33826745 51:-0.034617934 52:0.3363218 53:0.29588121 54:-0.039460041 55:0.36621061 56:0.23241712 57:-0.05560948 58:0.37803274 59:0.29629913 60:-0.052153476 61:0.36743766 62:0.3352823 63:-0.043927148 
1 1 1:0.39555687 2:0.5068934 3:3.0985756e-09 4:0.47486526 5:0.46177411 6:-0.0013451079 7:0.52408212 8:0.37691551 9:-0.010160104 10:0.54103947 11:0.29039794 12:-0.026589563 13:0.54512709 14:0.22043687 15:-0.039410446 16:0.47380742 17:0.27907932 18:0.030644327 19:0.49845147 20:0.21118382 21:0.023255765 22:0.49752116 23:0.28430337 24:0.028667161 25:0.48236874 26:0.33580625 27:0.030815577 28:0.43334001 29:0.27452219 30:0.010588689 31:0.4569616 32:0.1985358 33:-0.016045943 34:0.45722991 35:0.28780401 36:-0.022741977 37:0.44136027 38:0.33653358 39:-0.017270999 40:0.38747489 41:0.2809065 42:-0.013305461 43:0.41309431 44:0.20558214 45:-0.04226885 46:0.41759878 47:0.29295024 48:-0.042746212 49:0.40175724 50:0.34034824 51:-0.033644319 52:0.33414507 53:0.29690021 54:-0.038170651 55:0.3645474 56:0.23355621 57:-0.052643865 58:0.37606245 59:0.29657432 60:-0.049141824 61:0.36591852 62:0.33779114 63:-0.041784085 
1 1 1:0.39468229 2:0.50203604 3:5.4904548e-10 4:0.47331822 5:0.4633826 6:-0.0049687978 7:0.52436644 8:0.37245303 9:-0.015159186 10:0.5412271 11:0.28226098 12:-0.032095022 13:0.54789716 14:0.21132083 15:-0.045265879 16:0.47813252 17:0.274804 18:0.022754027 19:0.50213146 20:0.20775419 21:0.014043958 22:0.50012511 23:0.28492805 24:0.02100186 25:0.4841646 26:0.33692059 27:0.024719579 28:0.43613315 29:0.26933512 30:0.0041234503 31:0.45872724 32:0.19091387 33:-0.024233257 34:0.45857194 35:0.28516987 36:-0.027686141 37:0.44261307 38:0.33361891 39:-0.019049585 40:0.38971195 41:0.27442083 42:-0.018477375 43:0.41369885 44:0.20004775 45:-0.048175044 46:0.41788095 47:0.29298815 48:-0.044797018 49:0.40195322 50:0.34041286 51:-0.032310225 52:0.33659056 53:0.28856862 54:-0.042428166 55:0.36554962 56:0.22473352 57:-0.056548588 58:0.37707418 59:0.29043087 60:-0.051062468 61:0.36727303 62:0.33066624 63:-0.041683663 
1 1 1:0.39526558 2:0.50287235 3:2.4099172e-09 4:0.47747168 5:0.45445696 6:-0.0027541013 7:0.52625209 8:0.36597651 9:-0.012453046 10:0.54276884 11:0.27515298 12:-0.029402316 13:0.54975551 14:0.20238943 15:-0.042551383 16:0.47262254 17:0.26794699 18:0.028206505 19:0.49757379 20:0.20120978 21:0.019938525 22:0.49650684 23:0.28007963 24:0.025944976 25:0.48060918 26:0.33276266 27:0.028570831 28:0.43035892 29:0.26476091 30:0.0084176362 31:0.45441261 32:0.18930878 33:-0.019657316 34:0.45459801 35:0.28690517 36:-0.025333397 37:0.43802467 38:0.33498305 39:-0.018680302 40:0.38320738 41:0.27273721 42:-0.015425739 43:0.4086841 44:0.19656333 45:-0.046406101 46:0.41390607 47:0.28950205 48:-0.046501368 49:0.39771152 50:0.33653316 51:-0.036489878 52:0.32866478 53:0.28901935 54:-0.040102325 55:0.3591069 56:0.22463636 57:-0.055646226 58:0.3715595 59:0.29059628 60:-0.052152738 61:0.36130086 62:0.33091909 63:-0.044554479 
1 1 1:0.39222023 2:0.50247347 3:2.7370157e-09 4:0.47479007 5:0.45597279 6:-0.0035311119 7:0.52442962 8:0.36947206 9:-0.01209161 10:0.54268301 11:0.27811939 12:-0.027834356 13:0.54727089 14:0.20518503 15:-0.03980872 16:0.47312117 17:0.27007693 18:0.030153966 19:0.49813029 20:0.20268625 21:0.021609116 22:0.49621224 23:0.28073207 24:0.027289608 25:0.4794625 26:0.33066693 27:0.029810544 28:0.43131229 29:0.26522714 30:0.010777783 31:0.45501524 32:0.18780512 33:-0.018910674 34:0.45502892 35:0.28549731 36:-0.025412511 37:0.43889123 38:0.33234999 39:-0.018672628 40:0.38425168 41:0.27172306 42:-0.012956893 43:0.40927404 44:0.19538148 45:-0.046176944 46:0.41459408 47:0.28893039 48:-0.047492594 49:0.39840391 50:0.33533007 51:-0.037351336 52:0.33014521 53:0.28673509 54:-0.037535384 55:0.35954484 56:0.22245309 57:-0.054396987 58:0.37231079 59:0.28925386 60:-0.05213093 61:0.36227518 62:0.32954779 63:-0.044962488 
1 1 1:0.38921589 2:0.50112402 3:1.8751705e-09 4:0.47244194 5:0.45582592 6:-0.0031634241 7:0.52402645 8:0.36607122 9:-0.011489158 10:0.5406481 11:0.27357897 12:-0.027130282 13:0.54582 14:0.19984923 15:-0.038937539 16:0.47165096 17:0.26509815 18:0.031254824 19:0.49419165 20:0.19299482 21:0.024565771 22:0.49592683 23:0.2678749 24:0.031826828 25:0.48247981 26:0.32052416 27:0.035322316 28:0.42862949 29:0.26107383 30:0.011909838 31:0.45039549 32:0.17957093 33:-0.0148081 34:0.45368516 35:0.27270737 36:-0.019586621 37:0.43947312 38:0.32247061 39:-0.011964453 40:0.38149521 41:0.26884839 42:-0.011803807 43:0.40325072 44:0.18892328 45:-0.042149011 46:0.41107547 47:0.27966076 48:-0.041893952 49:0.39782083 50:0.32840928 51:-0.031265974 52:0.32709771 53:0.28617167 54:-0.036507282 55:0.35551476 56:0.21897385 57:-0.052100983 58:0.36920241 59:0.28361359 60:-0.048681296 61:0.36136073 62:0.32597223 63:-0.040686764 
1 1 1:0.38691646 2:0.49999756 3:1.5705913e-09 4:0.469906 5:0.45392847 6:-0.0049803117 7:0.52347869 8:0.36314189 9:-0.015309631 10:0.54059935 11:0.27004963 12:-0.032570872 13:0.54208833 14:0.19523376 15:-0.045753386 16:0.47002149 17:0.26019594 18:0.026635036 19:0.49373299 20:0.18881574 21:0.018691616 22:0.49322867 23:0.26709938 24:0.025330771 25:0.47897634 26:0.32204181 27:0.028342729 28:0.42585725 29:0.25652286 30:0.0073745116 31:0.44801262 32:0.17689897 33:-0.020758592 34:0.44965366 35:0.27227786 36:-0.026224406 37:0.43564543 38:0.32398543 39:-0.019255679 40:0.37732428 41:0.26471061 42:-0.015973525 43:0.40056294 44:0.18557617 45:-0.046530742 46:0.40708777 47:0.2772761 48:-0.045749553 49:0.39404571 50:0.32721195 51:-0.035155986 52:0.32122189 53:0.28324521 54:-0.040578797 55:0.35002857 56:0.2148782 57:-0.055849757 58:0.36331984 59:0.27989134 60:-0.051705521 61:0.35590959 62:0.32309344 63:-0.043457799 
1 1 1:0.38947412 2:0.50048035 3:1.7452575e-09 4:0.47016811 5:0.45468277 6:-0.0054858406 7:0.52247679 8:0.36317709 9:-0.016661275 10:0.53905642 11:0.2714344 12:-0.034856103 13:0.54066825 14:0.19622859 15:-0.049164519 16:0.46921393 17:0.26031727 18:0.025785806 19:0.49343306 20:0.19013704 21:0.016648794 22:0.49353686 23:0.26717079 24:0.02211852 25:0.47900197 26:0.32213736 27:0.024575064 28:0.42604005 29:0.25682044 30:0.0064450754 31:0.44825542 32:0.1768682 33:-0.022432055 34:0.45084023 35:0.27215061 36:-0.028730856 37:0.43698755 38:0.32538864 39:-0.022331964 40:0.37789252 41:0.26481926 42:-0.017059704 43:0.40082702 44:0.18538487 45:-0.047615446 46:0.40796101 47:0.27729902 48:-0.046852376 49:0.39480469 50:0.32912314 51:-0.036455635 52:0.32206464 53:0.28357226 54:-0.042045619 55:0.34937447 56:0.2144009 57:-0.057215042 58:0.36397558 59:0.27912128 60:-0.052909981 61:0.35749009 62:0.32348078 63:-0.04461769 
1 1 1:0.38464302 2:0.4962638 3:1.981711e-09 4:0.46978709 5:0.45187953 6:-0.0067427298 7:0.52251321 8:0.3598997 9:-0.019099707 10:0.54052246 11:0.26614103 12:-0.038383372 13:0.54706573 14:0.18817472 15:-0.053512614 16:0.46911269 17:0.25452083 18:0.024971645 19:0.49478066 20:0.18602192 21:0.014392741 22:0.49413538 23:0.26731235 24:0.02022028 25:0.47700652 26:0.32091016 27:0.023029882 28:0.42431733 29:0.25068578 30:0.0056026611 31:0.44866714 32:0.17178883 33:-0.025873451 34:0.45033699 35:0.27521268 36:-0.030836564 37:0.43376067 38:0.32384875 39:-0.022405814 40:0.37543389 41:0.25825539 42:-0.018433597 43:0.40102574 44:0.17876618 45:-0.052559279 46:0.40791547 47:0.27648023 48:-0.051935114 49:0.39132422 50:0.3236779 51:-0.040263254 52:0.31936133 53:0.27531922 54:-0.043645207 55:0.34983134 56:0.21035236 57:-0.060435634 58:0.36343265 59:0.27947059 60:-0.056573991 61:0.35276058 62:0.31992072 63:-0.048038106 
1 1 1:0.38627031 2:0.49657625 3:2.0087767e-09 4:0.47022572 5:0.44891793 6:-0.0073350556 7:0.52277482 8:0.3548612 9:-0.019569695 10:0.54053277 11:0.25862053 12:-0.038139611 13:0.54512256 14:0.17834879 15:-0.052120853 16:0.46893424 17:0.25027299 18:0.024039129 19:0.49172655 20:0.17824015 21:0.015369456 22:0.49265155 23:0.26203045 24:0.024020005 25:0.47846216 26:0.3157827 27:0.028550424 28:0.42297205 29:0.24838942 30:0.0052899988 31:0.44413584 32:0.16585498 33:-0.024109215 34:0.44789618 35:0.27085206 36:-0.025872458 37:0.43282586 38:0.31827956 39:-0.015184199 40:0.37342855 41:0.25821739 42:-0.018186016 43:0.3956008 44:0.17596339 45:-0.05135309 46:0.40468892 47:0.27574983 48:-0.048657134 49:0.38954034 50:0.32127249 51:-0.035383198 52:0.31670985 53:0.2770206 54:-0.042750999 55:0.34641036 56:0.20902869 57:-0.059341136 58:0.36075214 59:0.27994773 60:-0.054462433 61:0.35038179 62:0.32043314 63:-0.044874042 
1 1 1:0.38634646 2:0.49752241 3:2.6005418e-09 4:0.47006363 5:0.44929457 6:-0.0088977469 7:0.52276659 8:0.35478163 9:-0.022786306 10:0.54036599 11:0.25844708 12:-0.042970378 13:0.54486889 14:0.17913331 15:-0.058607589 16:0.46817207 17:0.25042239 18:0.020452451 19:0.4908756 20:0.1772972 21:0.010188963 22:0.49165121 23:0.26019323 24:0.017247053 25:0.4775427 26:0.31441015 27:0.0206251 28:0.42227218 29:0.24851982 30:0.0017180549 31:0.4438481 32:0.16808823 33:-0.028633572 34:0.44779134 35:0.27148426 36:-0.031961337 37:0.43329898 38:0.31783694 39:-0.022881689 40:0.37248987 41:0.2584078 42:-0.021630116 43:0.39496121 44:0.1776415 45:-0.054604784 46:0.40394488 47:0.27538565 48:-0.052438367 49:0.38934252 50:0.3209314 51:-0.040222105 52:0.3156988 53:0.27788052 54:-0.046360306 55:0.34465006 56:0.21062413 57:-0.062329173 58:0.35928336 59:0.27994478 60:-0.057429861 61:0.34943381 62:0.320164 63:-0.048317418 
1 1 1:0.38327396 2:0.49624088 3:2.1028088e-09 4:0.46975052 5:0.44265616 6:-0.0063163079 7:0.52208441 8:0.35032809 9:-0.017597064 10:0.53926563 11:0.25418252 12:-0.035836115 13:0.54274553 14:0.17359397 15:-0.049470086 16:0.46419939 17:0.24583954 18:0.030466359 19:0.48738745 20:0.17312828 21:0.022443427 22:0.488419 23:0.25593552 24:0.02986473 25:0.4747166 26:0.3099604 27:0.033329908 28:0.41836885 29:0.24544665 30:0.011218818 31:0.43898124 32:0.1623611 33:-0.019001771 34:0.44318637 35:0.26613912 36:-0.024086302 37:0.42915136 38:0.31563565 39:-0.015503393 40:0.36865374 41:0.25662538 42:-0.012855166 43:0.39007843 44:0.17462113 45:-0.04721301 46:0.40031698 47:0.274001 48:-0.047404766 49:0.38689178 50:0.32171583 51:-0.035705231 52:0.31155568 53:0.27687559 54:-0.037912712 55:0.33988094 56:0.20543638 57:-0.055465519 58:0.35563377 59:0.27534875 60:-0.052182999 61:0.34716481 62:0.31795448 63:-0.043680519 
1 1 1:0.38290447 2:0.49647951 3:1.0450322e-09 4:0.46913666 5:0.4438985 6:-0.0063890503 7:0.52107954 8:0.34570354 9:-0.018146129 10:0.53736907 11:0.24660979 12:-0.036981046 13:0.54270303 14:0.1635612 15:-0.051224753 16:0.46516079 17:0.239223 18:0.028948518 19:0.48767528 20:0.16429386 21:0.021316884 22:0.48891512 23:0.24902357 24:0.02917162 25:0.47536093 26:0.30676121 27:0.032621127 28:0.41757295 29:0.2394677 30:0.0094043007 31:0.43914455 32:0.15808253 33:-0.020602949 34:0.44305888 35:0.26294056 36:-0.025769401 37:0.42904916 38:0.31284592 39:-0.017523907 40:0.36630645 41:0.25151685 42:-0.014672187 43:0.38771543 44:0.1702204 45:-0.04762144 46:0.39745879 47:0.26987168 48:-0.047270119 49:0.38406536 50:0.31867653 51:-0.035762031 52:0.30747524 53:0.27324656 54:-0.039818604 55:0.33609205 56:0.20191061 57:-0.056005027 58:0.35187498 59:0.27147776 60:-0.052145425 61:0.34359211 62:0.31415373 63:-0.043550152 
1 1 1:0.38363731 2:0.50089741 3:2.3217857e-09 4:0.46956035 5:0.44690302 6:-0.0072634262 7:0.52122235 8:0.34599331 9:-0.019930586 10:0.53681326 11:0.2460379 12:-0.040125169 13:0.54307681 14:0.1637194 15:-0.05621754 16:0.46347913 17:0.24244696 18:0.027812503 19:0.48657921 20:0.16597573 21:0.018422009 22:0.48839277 23:0.24848373 24:0.023512833 25:0.4754664 26:0.30559537 27:0.025000054 28:0.41684994 29:0.24224323 30:0.0078925584 31:0.43918496 32:0.15973838 33:-0.023697603 34:0.44416043 35:0.26039657 36:-0.032713525 37:0.43120646 38:0.31260002 39:-0.027634051 40:0.36554825 41:0.25371829 42:-0.016453883 43:0.38769951 44:0.17268534 45:-0.049795672 46:0.39751881 47:0.26998413 48:-0.051638901 49:0.38487878 50:0.32175452 51:-0.042265784 52:0.30632448 53:0.27544603 54:-0.042202789 55:0.33392629 56:0.20299463 57:-0.058676887 58:0.35078311 59:0.27108708 60:-0.055756483 61:0.34404278 62:0.31556255 63:-0.048322164 
1 1 1:0.38033271 2:0.49853945 3:1.4355774e-09 4:0.46667013 5:0.44539732 6:-0.01168597 7:0.51931834 8:0.34313864 9:-0.025751319 10:0.53447676 11:0.24079904 12:-0.045699306 13:0.54073817 14:0.15809464 15:-0.060977336 16:0.46265191 17:0.24054851 18:0.018808462 19:0.48387039 20:0.16350538 21:0.0096848942 22:0.48596156 23:0.24601433 24:0.018326143 25:0.47296223 26:0.2998535 27:0.022602504 28:0.41435567 29:0.23977087 30:0.0013316158 31:0.43419528 32:0.15208073 33:-0.028429272 34:0.44000527 35:0.25329751 36:-0.030710645 37:0.42645285 38:0.30073038 39:-0.020816637 40:0.36220273 41:0.25181735 42:-0.021003582 43:0.38125932 44:0.16757444 45:-0.053888079 46:0.39331642 47:0.26561758 48:-0.05132848 49:0.3813895 50:0.31322554 51:-0.03846769 52:0.30253547 53:0.27453005 54:-0.04494635 55:0.32832941 56:0.20359406 57:-0.061723348 58:0.34680808 59:0.2719444 60:-0.057211321 61:0.3410145 62:0.31284437 63:-0.047924362 
1 1 1:0.37925914 2:0.50288832 3:1.4487073e-09 4:0.4638114 5:0.45142698 6:-0.011807937 7:0.5182538 8:0.34425384 9:-0.028345561 10:0.53394049 11:0.2417095 12:-0.050884131 13:0.53843617 14:0.15802103 15:-0.069025755 16:0.45976853 17:0.23552576 18:0.011213223 19:0.48231056 20:0.16326885 21:-0.0012944507 22:0.48222622 23:0.25150096 24:0.0060208165 25:0.46749616 26:0.3073256 27:0.009439568 28:0.40991226 29:0.23601526 30:-0.0080149351 31:0.43071514 32:0.1528473 33:-0.041171856 34:0.435794 35:0.26200429 36:-0.043085307 37:0.42148703 38:0.31141117 39:-0.033001196 40:0.35708126 41:0.24987292 42:-0.031728625 43:0.37876588 44:0.16936591 45:-0.067105338 46:0.39019075 47:0.2751601 48:-0.062594175 49:0.37657869 50:0.32454699 51:-0.04860948 52:0.29712147 53:0.27457064 54:-0.057171319 55:0.3255477 56:0.20734927 57:-0.075306244 58:0.34286162 59:0.28037733 60:-0.069543257 61:0.33439058 62:0.32072711 63:-0.059405841 
1 1 1:0.37820736 2:0.50556576 3:1.6475434e-09 4:0.46398401 5:0.45053297 6:-0.01128479 7:0.51849353 8:0.34405038 9:-0.027309572 10:0.53504789 11:0.24139126 12:-0.049577761 13:0.53900689 14:0.15689391 15:-0.067391492 16:0.45814767 17:0.23873827 18:0.014807048 19:0.48070461 20:0.16323321 21:0.0028031857 22:0.48220363 23:0.25022602 24:0.0098075168 25:0.46820721 26:0.30744538 27:0.013099805 28:0.40876937 29:0.23946871 30:-0.004354096 31:0.42895091 32:0.15353933 33:-0.037654787 34:0.43545163 35:0.26103014 36:-0.041065011 37:0.42251444 38:0.31257746 39:-0.031713493 40:0.35619467 41:0.25332278 42:-0.028042238 43:0.37670481 44:0.16788848 45:-0.063298501 46:0.38898486 47:0.2709474 48:-0.060116474 49:0.37645724 50:0.32248178 51:-0.046811007 52:0.29670423 53:0.27844486 54:-0.053359035 55:0.32305303 56:0.20640832 57:-0.070875563 58:0.34114853 59:0.27757898 60:-0.065520048 61:0.33413488 62:0.32031766 63:-0.055725388 
1 1 1:0.37856141 2:0.50840718 3:1.3325278e-09 4:0.4648774 5:0.45507562 6:-0.012760678 7:0.51802212 8:0.34716415 9:-0.029182348 10:0.53232038 11:0.24284206 12:-0.051981959 13:0.53944218 14:0.15792754 15:-0.070609361 16:0.45920625 17:0.24021861 18:0.01507576 19:0.48282617 20:0.16410774 21:0.002752881 22:0.48325723 23:0.25087753 24:0.008256929 25:0.46857193 26:0.31081295 27:0.010309479 28:0.40904385 29:0.24100459 30:-0.0036801361 31:0.43130061 32:0.15663648 33:-0.037786178 34:0.4356252 35:0.26457909 36:-0.044204354 37:0.42165968 38:0.31859437 39:-0.037052784 40:0.35520044 41:0.25496402 42:-0.026925601 43:0.37697285 44:0.17270707 45:-0.061881036 46:0.38678497 47:0.27555788 48:-0.060924534 49:0.37357768 50:0.32805663 51:-0.049579859 52:0.29355451 53:0.28038549 54:-0.052046731 55:0.32102299 56:0.20909622 57:-0.069537342 58:0.33838722 59:0.27979034 60:-0.065435961 61:0.33124048 62:0.3224293 63:-0.056848802 
1 1 1:0.37847731 2:0.51923281 3:1.5152346e-09 4:0.4658317 5:0.46218833 6:-0.012119338 7:0.51891232 8:0.350701 9:-0.028504362 10:0.53308231 11:0.24430108 12:-0.051667105 13:0.53825396 14:0.15752593 15:-0.070518926 16:0.4548932 17:0.24333748 18:0.019344894 19:0.47692654 20:0.1668475 21:0.0078646392 22:0.47804445 23:0.25510409 24:0.013299362 25:0.46348959 26:0.31654149 27:0.01490272 28:0.40519187 29:0.24491368 30:-0.00026073481 31:0.42679453 32:0.15891813 33:-0.033651046 34:0.43242261 35:0.26722786 36:-0.041096982 37:0.41860494 38:0.3233259 39:-0.034901783 40:0.35182664 41:0.26002783 42:-0.02453205 43:0.37365851 44:0.17461067 45:-0.05959304 46:0.38495472 47:0.27912024 48:-0.059606846 49:0.37190622 50:0.33386648 51:-0.049006689 52:0.29093343 53:0.28741598 54:-0.050635941 55:0.31967735 56:0.21373868 57:-0.06815429 58:0.33847773 59:0.28596699 60:-0.064212553 61:0.3314456 62:0.33123296 63:-0.055930354 
1 1 1:0.37895754 2:0.52129102 3:9.1536617e-10 4:0.46634039 5:0.46095344 6:-0.011544256 7:0.51767319 8:0.35078505 9:-0.027800208 10:0.53159302 11:0.2450294 12:-0.050647076 13:0.53671581 14:0.15729724 15:-0.068879992 16:0.45533544 17:0.24203938 18:0.01843963 19:0.47605839 20:0.16500846 21:0.0073007722 22:0.47755229 23:0.25631815 24:0.014360577 25:0.46287274 26:0.31737626 27:0.017268436 28:0.4048546 29:0.2445206 30:-0.0011639431 31:0.42406645 32:0.15744114 33:-0.034985684 34:0.4305824 35:0.26922292 36:-0.039866995 37:0.41707671 38:0.32307848 39:-0.031177742 40:0.35142976 41:0.26062009 42:-0.025413783 43:0.37128443 44:0.17436241 45:-0.061187826 46:0.3836067 47:0.28044805 48:-0.059362005 49:0.37051925 50:0.33248243 51:-0.046752721 52:0.29134315 53:0.28836346 54:-0.051258616 55:0.31831449 56:0.21500808 57:-0.068555266 58:0.33691236 59:0.28859112 60:-0.063617609 61:0.32911858 62:0.33225501 63:-0.054196376 
1 1 1:0.37813535 2:0.53034723 3:1.9751498e-09 4:0.46511656 5:0.47283381 6:-0.011794931 7:0.51845407 8:0.35852683 9:-0.028924922 10:0.53223282 11:0.25109676 12:-0.052768126 13:0.53579491 14:0.16188119 15:-0.07209146 16:0.45460361 17:0.24847177 18:0.014575653 19:0.47659588 20:0.16893627 21:0.001636805 22:0.48005781 23:0.25948101 24:0.0082236091 25:0.46598232 26:0.3208667 27:0.011034339 28:0.40399188 29:0.25080192 30:-0.0058298991 31:0.42501694 32:0.16224627 33:-0.040774804 34:0.43322331 35:0.27340674 36:-0.04488631 37:0.4189705 38:0.3272593 39:-0.035683163 40:0.34987602 41:0.26735479 42:-0.030875718 43:0.37128955 44:0.18097858 45:-0.06690491 46:0.38497174 47:0.28703651 48:-0.063378043 49:0.37085661 50:0.33956197 51:-0.049835049 52:0.28852805 53:0.29652214 54:-0.057761066 55:0.31611258 56:0.22291538 57:-0.07533586 58:0.33604699 59:0.2951327 60:-0.069548637 61:0.32760763 62:0.33753049 63:-0.059444603 
1 1 1:0.37862134 2:0.54115611 3:1.8361233e-09 4:0.46636775 5:0.48190126 6:-0.011128039 7:0.51887709 8:0.36338827 9:-0.02937635 10:0.53066242 11:0.25336948 12:-0.054457814 13:0.53558248 14:0.16366062 15:-0.074917644 16:0.45695806 17:0.24893817 18:0.010244124 19:0.47892809 20:0.17270468 21:-0.0034039898 22:0.48122239 23:0.26863196 24:0.0034065819 25:0.46664047 26:0.32789081 27:0.0059993551 28:0.4041332 29:0.25352421 30:-0.011291034 31:0.42592961 32:0.17059647 33:-0.047325931 34:0.4329918 35:0.28648862 36:-0.050136328 37:0.41806164 38:0.33501139 39:-0.040286709 40:0.34837559 41:0.27250054 42:-0.036998395 43:0.37002191 44:0.19092984 45:-0.073544852 46:0.3827678 47:0.30084276 48:-0.067561947 49:0.36771622 50:0.34904054 51:-0.052583776 52:0.28561288 53:0.30348456 54:-0.064466268 55:0.31450883 56:0.22995839 57:-0.081526026 58:0.33337831 59:0.30578744 60:-0.073790833 61:0.32286501 62:0.34637952 63:-0.062514246 
1 1 1:0.38130882 2:0.5451383 3:1.4751436e-09 4:0.46706298 5:0.4819124 6:-0.0099274283 7:0.51717687 8:0.36331433 9:-0.027765006 10:0.5290212 11:0.25472584 12:-0.052842941 13:0.53482139 14:0.16588755 15:-0.073279776 16:0.45446956 17:0.24805981 18:0.01392703 19:0.47641268 20:0.17209409 21:0.00061047723 22:0.47922462 23:0.26880336 24:0.0072110672 25:0.46381918 26:0.32940724 27:0.0097759105 28:0.40242293 29:0.25311732 30:-0.0081672641 31:0.42298031 32:0.16888499 33:-0.043942574 34:0.43116114 35:0.28538427 36:-0.047201656 37:0.41633993 38:0.33560166 39:-0.03740982 40:0.3475585 41:0.27252749 42:-0.034582719 43:0.3684786 44:0.18894233 45:-0.07100001 46:0.38235483 47:0.29862061 48:-0.06551595 49:0.367645 50:0.3479338 51:-0.050726179 52:0.28640452 53:0.30371419 54:-0.062722929 55:0.31475472 56:0.22986074 57:-0.079338863 58:0.33425808 59:0.30672157 60:-0.071497433 61:0.32431254 62:0.34900481 63:-0.060156357 
1 1 1:0.37688863 2:0.55042076 3:1.7703968e-09 4:0.46706465 5:0.48815984 6:-0.0091573205 7:0.51804799 8:0.36852568 9:-0.025009835 10:0.52977347 11:0.2578131 12:-0.048673909 13:0.53434384 14:0.16593532 15:-0.068131372 16:0.45577574 17:0.25741062 18:0.020163603 19:0.47695839 20:0.17648722 21:0.0072384188 22:0.48038149 23:0.27106407 24:0.012613789 25:0.46683022 26:0.33651316 27:0.014311656 28:0.40375483 29:0.26140609 30:-0.0018753289 31:0.42396364 32:0.17260507 33:-0.039210748 34:0.43238899 35:0.28772774 36:-0.047190964 37:0.41942331 38:0.34700912 39:-0.040234122 40:0.34765109 41:0.2799252 42:-0.02833234 43:0.36913025 44:0.19374481 45:-0.066062786 46:0.3827534 47:0.3050915 48:-0.065112054 49:0.36923075 50:0.36100316 51:-0.053139102 52:0.2842541 53:0.31052569 54:-0.056395348 55:0.3141962 56:0.23464182 57:-0.074634619 58:0.33441105 59:0.3120032 60:-0.069850735 61:0.32562646 62:0.35819274 63:-0.060663968 
1 1 1:0.37528819 2:0.56178272 3:2.5831985e-09 4:0.46553242 5:0.49432808 6:-0.0087692654 7:0.5167985 8:0.37537241 9:-0.025306005 10:0.53123754 11:0.26190647 12:-0.049796596 13:0.53488928 14:0.17227478 15:-0.069579616 16:0.45134079 17:0.26493609 18:0.019787192 19:0.47570318 20:0.1829669 21:0.00582129 22:0.47760418 23:0.2808288 24:0.011305804 25:0.46172628 26:0.34414354 27:0.012821623 28:0.40003514 29:0.26908106 30:-0.0038346767 31:0.42226681 32:0.17974202 33:-0.04235477 34:0.42995006 35:0.29805967 36:-0.049936965 37:0.41616538 38:0.35294485 39:-0.042910777 40:0.34456819 41:0.28814286 42:-0.032015886 43:0.3674016 44:0.1968396 45:-0.072820514 46:0.38146958 47:0.30964306 48:-0.072272107 49:0.36738452 50:0.36643374 51:-0.059821177 52:0.28214574 53:0.32035738 54:-0.061525445 55:0.31136054 56:0.24127966 57:-0.081364088 58:0.33306119 59:0.31741405 60:-0.076864205 61:0.32491684 62:0.36415344 63:-0.067775987 
1 1 1:0.37702525 2:0.56295639 3:1.6835533e-09 4:0.46640158 5:0.49346623 6:-0.0095275156 7:0.51768529 8:0.37442863 9:-0.026433647 10:0.53162539 11:0.2630811 12:-0.050971895 13:0.53568506 14:0.17397122 15:-0.070825279 16:0.45101902 17:0.26419044 18:0.01758166 19:0.47401604 20:0.18367112 21:0.0039787074 22:0.47671717 23:0.2819339 24:0.0097952653 25:0.46272475 26:0.34486088 27:0.011710349 28:0.39926454 29:0.26898137 30:-0.0051942659 31:0.41997153 32:0.18013443 33:-0.042924281 34:0.42769924 35:0.29714027 36:-0.049380541 37:0.41476178 38:0.35163221 39:-0.041564513 40:0.34377134 41:0.28842908 42:-0.032385953 43:0.36574686 44:0.19719486 45:-0.07119453 46:0.37955478 47:0.30614698 48:-0.069184124 49:0.36658645 50:0.36101422 51:-0.056230705 52:0.28235245 53:0.32023746 54:-0.061136205 55:0.30929396 56:0.24264203 57:-0.079166748 58:0.33058 59:0.31726906 60:-0.073458105 61:0.32371438 62:0.36253738 63:-0.063702457 
1 1 1:0.37671554 2:0.56491625 3:2.2371072e-09 4:0.4654358 5:0.49778748 6:-0.010813281 7:0.51777267 8:0.37737364 9:-0.027933639 10:0.53108799 11:0.26553082 12:-0.052159768 13:0.53258079 14:0.17595944 15:-0.071569867 16:0.4515878 17:0.26839399 18:0.015507369 19:0.47419786 20:0.18930806 21:0.0024622099 22:0.47759104 23:0.28671396 24:0.0091906805 25:0.46309167 26:0.34671363 27:0.011811508 28:0.39967442 29:0.27306497 30:-0.0064081601 31:0.42064157 32:0.18503894 33:-0.041319054 34:0.43059403 35:0.30017519 36:-0.045175277 37:0.41717595 38:0.35122818 39:-0.036163401 40:0.34415194 41:0.29256737 42:-0.032982748 43:0.36583412 44:0.2039835 45:-0.068948753 46:0.38184634 47:0.31188995 48:-0.064775057 49:0.36838457 50:0.36367184 51:-0.050950158 52:0.28270441 53:0.3242988 54:-0.061357684 55:0.3091293 56:0.24846143 57:-0.077703208 58:0.33195278 59:0.32209453 60:-0.070886105 61:0.32482183 62:0.36479998 63:-0.060422014 
1 1 1:0.37656534 2:0.56868291 3:2.2753224e-09 4:0.46550617 5:0.50103629 6:-0.010921216 7:0.51708949 8:0.38146299 9:-0.028740693 10:0.53046858 11:0.27155781 12:-0.05377946 13:0.53319824 14:0.18208621 15:-0.074184164 16:0.44821331 17:0.27034062 18:0.014738033 19:0.47064969 20:0.19039147 21:0.001094358 22:0.47584131 23:0.28519475 24:0.0073870192 25:0.46192583 26:0.3466742 27:0.0098136505 28:0.39617264 29:0.27594429 30:-0.0072066691 31:0.41649437 32:0.18584839 33:-0.043168008 34:0.42748883 35:0.30022272 36:-0.047343418 37:0.41425425 38:0.35434142 39:-0.038284097 40:0.34131297 41:0.29631189 42:-0.033806924 43:0.36258122 44:0.20762174 45:-0.070947923 46:0.37932003 47:0.31660092 48:-0.067286469 49:0.36607093 50:0.37015113 51:-0.053539935 52:0.28034222 53:0.32949942 54:-0.06220942 55:0.30789769 56:0.25583723 57:-0.079649404 58:0.33005527 59:0.3305344 60:-0.073372722 61:0.32220873 62:0.37390888 63:-0.063107051 
1 1 1:0.37575272 2:0.57075113 3:2.2397206e-09 4:0.46526954 5:0.50293803 6:-0.010233313 7:0.51677513 8:0.38278773 9:-0.027238686 10:0.52936184 11:0.27143455 12:-0.051307485 13:0.53209567 14:0.18084063 15:-0.070541896 16:0.44967017 17:0.27163723 18:0.016109705 19:0.470902 20:0.19119816 21:0.004024073 22:0.47469026 23:0.28761086 24:0.011716048 25:0.45986927 26:0.34492642 27:0.014942636 28:0.39712092 29:0.2768912 30:-0.0055210157 31:0.41661659 32:0.18746363 33:-0.039161518 34:0.42666742 35:0.30338854 36:-0.04111271 37:0.41279739 38:0.35156086 39:-0.03071354 40:0.34218508 41:0.29647326 42:-0.031806521 43:0.36289695 44:0.20762818 45:-0.067006163 46:0.37949717 47:0.31683946 48:-0.061668459 49:0.36596504 50:0.36620438 51:-0.046956073 52:0.28173497 53:0.32770982 54:-0.0598091 55:0.30881414 56:0.25355151 57:-0.075466797 58:0.33045369 59:0.32927004 60:-0.068005487 61:0.32187098 62:0.37116948 63:-0.05697231 
1 1 1:0.37700623 2:0.57637304 3:2.2631554e-09 4:0.4655664 5:0.50602996 6:-0.010044768 7:0.51591861 8:0.3861351 9:-0.02737654 10:0.52897072 11:0.27589196 12:-0.051919766 13:0.53157508 14:0.18426062 15:-0.071294002 16:0.44634748 17:0.27235043 18:0.01693175 19:0.46768963 20:0.19250213 21:0.0042331722 22:0.47473812 23:0.28876358 24:0.012644815 25:0.46092153 26:0.34952444 27:0.016608953 28:0.39419621 29:0.28033456 30:-0.0052940166 31:0.41285512 32:0.18804884 33:-0.040817026 34:0.42595965 35:0.30647773 36:-0.041702129 37:0.41109505 38:0.35784766 39:-0.029510746 40:0.33901021 41:0.30226645 42:-0.03257167 43:0.35849822 44:0.21493112 45:-0.070700966 46:0.37767011 47:0.32825622 48:-0.064863853 49:0.36263761 50:0.37764144 51:-0.048475113 52:0.27687669 53:0.33609575 54:-0.061407577 55:0.30385873 56:0.25947237 57:-0.079875462 58:0.32808912 59:0.33584741 60:-0.072843328 61:0.31872758 62:0.37662652 63:-0.061142527 
1 1 1:0.38109171 2:0.58368415 3:3.0589038e-09 4:0.46911609 5:0.51292294 6:-0.010841041 7:0.51730549 8:0.39255196 9:-0.029013233 10:0.52681226 11:0.27984798 12:-0.054369953 13:0.5294947 14:0.18773048 15:-0.074553765 16:0.44659364 17:0.28253764 18:0.014731154 19:0.46489656 20:0.19749168 21:0.00089486525 22:0.47399786 23:0.29243177 24:0.0087513998 25:0.460991 26:0.35269582 27:0.012372591 28:0.39422387 29:0.29104877 30:-0.0072912583 31:0.40973189 32:0.19857499 33:-0.043570653 34:0.42468822 35:0.31694189 36:-0.045150775 37:0.41069382 38:0.36513159 39:-0.033444341 40:0.33929616 41:0.31323817 42:-0.034314644 43:0.35618809 44:0.22627604 45:-0.07267043 46:0.37701076 47:0.33932686 48:-0.067146324 49:0.36298373 50:0.38747755 51:-0.051105842 52:0.27734926 53:0.3477025 54:-0.062975362 55:0.30321291 56:0.26894099 57:-0.081221946 58:0.32823914 59:0.3448765 60:-0.074208252 61:0.31960225 62:0.3861784 63:-0.062651746 
1 1 1:0.38173488 2:0.58438832 3:2.274074e-09 4:0.47001827 5:0.51212972 6:-0.011271425 7:0.51764119 8:0.39281243 9:-0.02889757 10:0.52717566 11:0.2814101 12:-0.053544071 13:0.529562 14:0.18897602 15:-0.073053017 16:0.4467558 17:0.28338659 18:0.016648298 19:0.46500435 20:0.19898199 21:0.0038198445 22:0.47334644 23:0.29441038 24:0.011832309 25:0.46050936 26:0.35477793 27:0.015547882 28:0.39390713 29:0.29135367 30:-0.0046189157 31:0.40906981 32:0.1978488 33:-0.040218994 34:0.42401743 35:0.3158251 36:-0.042102262 37:0.41094664 38:0.36609477 39:-0.030477172 40:0.33888796 41:0.31351092 42:-0.030901005 43:0.35595101 44:0.22414975 45:-0.06838987 46:0.37657762 47:0.33542761 48:-0.063467607 49:0.3632201 50:0.38497823 51:-0.04788154 52:0.27774709 53:0.34810916 54:-0.058852572 55:0.30261576 56:0.27016419 57:-0.076281391 58:0.32719895 59:0.34528756 60:-0.069571473 61:0.31884027 62:0.38727582 63:-0.05831233 
1 1 1:0.38057262 2:0.59411949 3:2.7455718e-09 4:0.47060522 5:0.52166337 6:-0.011615157 7:0.51753885 8:0.39811188 9:-0.029863706 10:0.524979 11:0.28455445 12:-0.055132579 13:0.52906322 14:0.19280845 15:-0.075512774 16:0.44771349 17:0.28777948 18:0.013591954 19:0.46668771 20:0.20822355 21:-0.00040547515 22:0.47416541 23:0.30542445 24:0.0060203327 25:0.46025929 26:0.36610204 27:0.0082949447 28:0.39428806 29:0.29598671 30:-0.0080570905 31:0.41200274 32:0.20935658 33:-0.043662939 34:0.42591467 35:0.32804972 36:-0.047020707 37:0.41142792 38:0.37623277 39:-0.037647985 40:0.33834451 41:0.31950963 42:-0.034513216 43:0.35644463 44:0.2332574 45:-0.071635954 46:0.37642422 47:0.34425655 48:-0.067616351 49:0.36202782 50:0.39296332 51:-0.053778976 52:0.27652365 53:0.35569486 54:-0.062643081 55:0.30203068 56:0.28038687 57:-0.079879217 58:0.326653 59:0.35476747 60:-0.073516585 61:0.31727588 62:0.39516357 63:-0.063278228 
1 1 1:0.38002455 2:0.601767 3:2.8542857e-09 4:0.46766269 5:0.53170198 6:-0.012902763 7:0.5168522 8:0.41017044 9:-0.032027423 10:0.52760088 11:0.29598829 12:-0.057726055 13:0.52784812 14:0.20248911 15:-0.078114167 16:0.44619846 17:0.29666227 18:0.012300517 19:0.46671444 20:0.21364218 21:-0.0017354237 22:0.47400525 23:0.31184098 24:0.0058891857 25:0.45869231 26:0.37219539 27:0.0090575879 28:0.39370304 29:0.30502838 30:-0.0091338661 31:0.41182446 32:0.21567935 33:-0.045544446 34:0.42560464 35:0.33526167 36:-0.047440071 37:0.41033253 38:0.3822405 39:-0.036402278 40:0.3384999 41:0.32860962 42:-0.035534963 43:0.35627377 44:0.24155638 45:-0.074186996 46:0.37662759 47:0.35463876 48:-0.068956673 49:0.3619526 50:0.40255675 51:-0.053358763 52:0.27651435 53:0.36546034 54:-0.063633151 55:0.30221349 56:0.28671268 57:-0.081879139 58:0.32758537 59:0.36244062 60:-0.074975044 61:0.31876013 62:0.40401685 63:-0.063706748 
1 1 1:0.37924665 2:0.60377777 3:2.0947781e-09 4:0.46780556 5:0.53366476 6:-0.013182217 7:0.51692718 8:0.41120857 9:-0.031736355 10:0.52747345 11:0.29850847 12:-0.056914471 13:0.53015846 14:0.20535997 15:-0.077128313 16:0.44851509 17:0.29913014 18:0.01226997 19:0.46678227 20:0.21439038 21:-0.0017618254 22:0.47314417 23:0.31125695 24:0.0056317872 25:0.45891932 26:0.37376747 27:0.0089860912 28:0.39491263 29:0.30700564 30:-0.0085537955 31:0.41125366 32:0.21413095 33:-0.045136034 34:0.42463326 35:0.33209544 36:-0.047562286 37:0.41119459 38:0.38394633 39:-0.036602262 40:0.33900103 41:0.32991841 42:-0.034363594 43:0.35589385 44:0.24005745 45:-0.072342187 46:0.37538299 47:0.35074037 48:-0.067484051 49:0.36252308 50:0.40159643 51:-0.052280411 52:0.27733868 53:0.36569348 54:-0.062045343 55:0.30191514 56:0.28837115 57:-0.079840586 58:0.32622007 59:0.36344492 60:-0.073143139 61:0.31855673 62:0.4059504 63:-0.062030755 
1 1 1:0.37931639 2:0.61485726 3:2.8200657e-09 4:0.46882546 5:0.54297769 6:-0.013455834 7:0.51741058 8:0.41899556 9:-0.032273322 10:0.52750993 11:0.30298817 12:-0.058032248 13:0.53223646 14:0.2099846 15:-0.078668959 16:0.44811845 17:0.30565351 18:0.01398178 19:0.46859232 20:0.22204685 21:-0.00033193899 22:0.47579187 23:0.31943408 24:0.006460886 25:0.46150783 26:0.38166207 27:0.009095802 28:0.39463511 29:0.31381616 30:-0.0073531731 31:0.41349491 32:0.22376473 33:-0.044456087 34:0.4263193 35:0.34327367 36:-0.04831785 37:0.41200176 38:0.3928073 39:-0.038557325 40:0.33849412 41:0.33736277 42:-0.033827826 43:0.35666403 44:0.24934933 45:-0.073023573 46:0.3756676 47:0.36208168 48:-0.069454901 49:0.36175668 50:0.41207016 51:-0.054915536 52:0.27585685 53:0.37415352 54:-0.062114939 55:0.30138916 56:0.2956602 57:-0.080666512 58:0.32582861 59:0.37081662 60:-0.074695729 61:0.31771284 62:0.41240013 63:-0.064167909 
1 1 1:0.38010806 2:0.6194036 3:2.3874338e-09 4:0.46762985 5:0.54979074 6:-0.013890864 7:0.51703548 8:0.42371607 9:-0.033392146 10:0.52790248 11:0.30961776 12:-0.060107995 13:0.53328031 14:0.21911561 15:-0.082128532 16:0.44724154 17:0.31302899 18:0.011103047 19:0.46685934 20:0.22582932 21:-0.0046637706 22:0.47580883 23:0.31897116 24:0.00071816868 25:0.46393105 26:0.38631329 27:0.0027324928 28:0.39374352 29:0.32101607 30:-0.010432224 31:0.41207314 32:0.22843483 33:-0.049103316 34:0.42688277 35:0.34169206 36:-0.055263646 37:0.41533583 38:0.39869204 39:-0.047062885 40:0.33743814 41:0.34423822 42:-0.036794577 43:0.35512039 44:0.25645497 45:-0.075719193 46:0.37487 47:0.36475751 48:-0.072768025 49:0.36347982 50:0.42017674 51:-0.059152078 52:0.27539489 53:0.38119075 54:-0.065328225 55:0.29932737 56:0.30287272 57:-0.084059641 58:0.32449982 59:0.37573591 60:-0.078115463 61:0.31905678 62:0.42060691 63:-0.067696758 
1 1 1:0.37995315 2:0.61985737 3:2.1004487e-09 4:0.467702 5:0.54894179 6:-0.012413333 7:0.51789832 8:0.42302954 9:-0.030633591 10:0.52909338 11:0.30893117 12:-0.056125186 13:0.53246224 14:0.21905553 15:-0.076955274 16:0.44708097 17:0.31356049 18:0.013077583 19:0.46671405 20:0.22618021 21:-0.0012219499 22:0.47599512 23:0.31866619 24:0.0049844137 25:0.46437231 26:0.38368765 27:0.0074794237 28:0.39385861 29:0.32182613 30:-0.008527007 31:0.41069922 32:0.22823635 33:-0.045554254 34:0.4258756 35:0.33985621 36:-0.050540201 37:0.41461635 38:0.39587423 39:-0.041657705 40:0.33755368 41:0.34527522 42:-0.034840941 43:0.35438731 44:0.25639933 45:-0.072341919 46:0.37463072 47:0.36336395 48:-0.068604007 49:0.36353657 50:0.41829848 51:-0.054559771 52:0.27549833 53:0.3819077 54:-0.063244581 55:0.29889858 56:0.30322871 57:-0.080905937 58:0.32427996 59:0.37594411 60:-0.074454226 61:0.31911165 62:0.42085534 63:-0.063725382 
1 1 1:0.37708309 2:0.62502217 3:3.2307239e-09 4:0.46768749 5:0.55123711 6:-0.009746735 7:0.51650596 8:0.42787156 9:-0.0270743 10:0.52685976 11:0.31364411 12:-0.051975712 13:0.53033513 14:0.22116847 15:-0.071812168 16:0.44494593 17:0.31745481 18:0.018209945 19:0.46592146 20:0.23049526 21:0.0055449521 22:0.47404853 23:0.3260816 24:0.013304114 25:0.46016279 26:0.38849208 27:0.016613321 28:0.39163467 29:0.3255291 30:-0.0043168385 31:0.40936455 32:0.23101021 33:-0.039920948 34:0.42433643 35:0.34831539 36:-0.043058887 37:0.41127726 38:0.40135956 39:-0.032602649 40:0.33557975 41:0.34807155 42:-0.031584814 43:0.35410869 44:0.25803411 45:-0.0690955 46:0.37471101 47:0.37024164 48:-0.064846575 49:0.36118236 50:0.42223641 51:-0.049878061 52:0.27359658 53:0.3834134 54:-0.060434476 55:0.29979441 56:0.30457813 57:-0.077651829 58:0.32409674 59:0.38084605 60:-0.070708469 61:0.31512034 62:0.42492008 63:-0.059447043 
1 1 1:0.37666056 2:0.62777072 3:3.3398804e-09 4:0.46866536 5:0.55533326 6:-0.011654859 7:0.51634073 8:0.4305248 9:-0.028790088 10:0.52558088 11:0.31393951 12:-0.05297095 13:0.53118753 14:0.2203391 15:-0.071659043 16:0.44696036 17:0.31608438 18:0.018854782 19:0.46623173 20:0.23216344 21:0.0071240854 22:0.47346121 23:0.33527806 24:0.016342927 25:0.45884144 26:0.39561886 27:0.020318408 28:0.39198714 29:0.32418457 30:-0.0028444857 31:0.40962026 32:0.23301922 33:-0.037995432 34:0.42442286 35:0.35757798 36:-0.039690189 37:0.40954053 38:0.40450349 39:-0.027981425 40:0.33507785 41:0.34708762 42:-0.029755626 43:0.35314992 44:0.25997019 45:-0.067826636 46:0.37422052 47:0.37723744 48:-0.063519575 49:0.35879403 50:0.42331153 51:-0.048086874 52:0.27231535 53:0.38133198 54:-0.058178827 55:0.29961619 56:0.3046647 57:-0.075510427 58:0.32432169 59:0.38530621 60:-0.068881035 61:0.31332415 62:0.42635876 63:-0.057695851 
1 1 1:0.37667954 2:0.6268611 3:2.9812492e-09 4:0.46839875 5:0.55462265 6:-0.011177825 7:0.51639241 8:0.42997763 9:-0.028228924 10:0.52545261 11:0.31422946 12:-0.052604049 13:0.5301134 14:0.22135927 15:-0.07174471 16:0.44702592 17:0.31630564 18:0.019075135 19:0.46575648 20:0.23164017 21:0.0069711017 22:0.47348717 23:0.33213547 24:0.015377581 25:0.46005559 26:0.39418322 27:0.018986635 28:0.39213473 29:0.32379544 30:-0.0027900168 31:0.40916544 32:0.23261836 33:-0.037954345 34:0.42403129 35:0.35371941 36:-0.040710647 37:0.41048151 38:0.4029091 39:-0.029963404 40:0.33518004 41:0.34646821 42:-0.029787788 43:0.35286248 44:0.25870162 45:-0.067176513 46:0.37356067 47:0.37207982 48:-0.063365698 49:0.35944772 50:0.42025521 51:-0.04872454 52:0.27276585 53:0.38090402 54:-0.058431845 55:0.29904622 56:0.30559537 57:-0.075325258 58:0.32365918 59:0.38398254 60:-0.06884753 61:0.31424749 62:0.42582983 63:-0.058023509 
1 1 1:0.37238383 2:0.63082552 3:2.4665376e-09 4:0.46477252 5:0.55810571 6:-0.015325314 7:0.51541698 8:0.43267244 9:-0.035146751 10:0.52535981 11:0.31641605 12:-0.061449915 13:0.53166854 14:0.22334787 15:-0.082549714 16:0.44438487 17:0.32234338 18:0.0090461532 19:0.46386623 20:0.23419023 21:-0.0059596146 22:0.47120893 23:0.3309727 24:0.0022482758 25:0.45783305 26:0.39368379 27:0.0063027521 28:0.38916323 29:0.32957178 30:-0.011586858 31:0.40633905 32:0.23191397 33:-0.049601801 34:0.42102984 35:0.35102496 36:-0.050948981 37:0.40792039 38:0.40264314 39:-0.038685542 40:0.33185896 41:0.35244212 42:-0.037422307 43:0.34863079 44:0.25933829 45:-0.077180639 46:0.36965743 47:0.37157512 48:-0.071539357 49:0.35703537 50:0.42297581 51:-0.05500441 52:0.26895839 53:0.38881987 54:-0.065248363 55:0.29238433 56:0.3097299 57:-0.084213734 58:0.31805736 59:0.38408986 60:-0.07733047 61:0.31102413 62:0.42556885 63:-0.06555254 
1 1 1:0.36634833 2:0.63328546 3:2.3550459e-09 4:0.46263078 5:0.56082714 6:-0.01489178 7:0.51508951 8:0.43336642 9:-0.032237757 10:0.52505475 11:0.31545326 12:-0.056119826 13:0.53081679 14:0.22066808 15:-0.074681111 16:0.44427314 17:0.32043526 18:0.016721675 19:0.46264511 20:0.23599285 21:0.005346674 22:0.46935761 23:0.3345972 24:0.014911128 25:0.45703185 26:0.39436942 27:0.019384999 28:0.38691384 29:0.32735714 30:-0.0029675611 31:0.40487859 32:0.23173404 33:-0.037531149 34:0.41831833 35:0.35208854 36:-0.038789868 37:0.40436104 38:0.4018248 39:-0.026776077 40:0.32821852 41:0.34945554 42:-0.028234901 43:0.34628856 44:0.26069978 45:-0.065768667 46:0.36634198 47:0.37516159 48:-0.061690658 49:0.35280645 50:0.42372954 51:-0.046351638 52:0.26384968 53:0.38344565 54:-0.055407319 55:0.2892673 56:0.30957341 57:-0.07308539 58:0.31414187 59:0.38652503 60:-0.067412689 61:0.30586129 62:0.42573723 63:-0.056650739 
1 1 1:0.36869064 2:0.63293475 3:2.686753e-09 4:0.46481356 5:0.55687648 6:-0.013830291 7:0.51540828 8:0.4317795 9:-0.030791668 10:0.52535868 11:0.31431824 12:-0.054680862 13:0.52965051 14:0.2203292 15:-0.073273659 16:0.44185284 17:0.3173787 18:0.020112934 19:0.46071014 20:0.23372039 21:0.0087036612 22:0.46795046 23:0.33277547 24:0.017273385 25:0.4557654 26:0.39102805 27:0.020831628 28:0.38547423 29:0.32470903 30:-0.00046197663 31:0.40322194 32:0.23095053 33:-0.035061523 34:0.41677013 35:0.35152975 36:-0.037842888 37:0.40307063 38:0.39951065 39:-0.027190648 40:0.32738298 41:0.34773284 42:-0.026800487 43:0.34626788 44:0.25901836 45:-0.065189756 46:0.36634657 47:0.37238836 48:-0.063224539 49:0.35249597 50:0.41989148 51:-0.049358852 52:0.26328385 53:0.38277513 54:-0.054908443 55:0.28938138 56:0.30956942 57:-0.073523544 58:0.3150411 59:0.38623115 60:-0.069208495 61:0.30721742 62:0.42542219 63:-0.059596255 
1 1 1:0.36888477 2:0.63360125 3:2.2232962e-09 4:0.4634465 5:0.55929923 6:-0.017902663 7:0.51467609 8:0.43370274 9:-0.03850434 10:0.52381194 11:0.31621301 12:-0.0646303 13:0.5294171 14:0.22119904 15:-0.085153393 16:0.44407168 17:0.32217342 18:0.0050609945 19:0.46040887 20:0.2351125 21:-0.0096871024 22:0.46684799 23:0.33350959 24:0.00064909272 25:0.45454609 26:0.39135677 27:0.0063297516 28:0.38591552 29:0.3293367 30:-0.01429726 31:0.40023646 32:0.22894143 33:-0.051435735 34:0.41441494 35:0.35057029 36:-0.048564021 37:0.40096635 38:0.39672014 39:-0.03315533 40:0.32652587 41:0.35327321 42:-0.039318047 43:0.33993536 44:0.25569129 45:-0.079085909 46:0.36213043 47:0.36793584 48:-0.071042866 49:0.35019666 50:0.41557553 51:-0.052515138 52:0.26182836 53:0.390569 54:-0.066400647 55:0.28245869 56:0.31254408 57:-0.085565597 58:0.30884367 59:0.3858223 60:-0.078083269 61:0.3022632 62:0.42312101 63:-0.065522373 
1 1 1:0.36312911 2:0.63597775 3:2.0278621e-09 4:0.46013743 5:0.5630824 6:-0.017296502 7:0.51437938 8:0.4346796 9:-0.036617067 10:0.52469659 11:0.31339887 12:-0.061380193 13:0.52668548 14:0.21574593 15:-0.080402292 16:0.44111609 17:0.3199304 18:0.009283049 19:0.45923853 20:0.23261099 21:-0.0030357505 22:0.46687901 23:0.33232799 24:0.0087073408 25:0.45451179 26:0.38904789 27:0.014948142 28:0.38253194 29:0.32709414 30:-0.0097689545 31:0.39829192 32:0.22716767 33:-0.044835195 34:0.41301739 35:0.35071859 36:-0.041242301 37:0.39921635 38:0.39671281 39:-0.025350967 40:0.32285792 41:0.35062957 42:-0.03446015 43:0.33758187 44:0.2550436 45:-0.073327318 46:0.3597869 47:0.37211686 48:-0.065103352 49:0.34698507 50:0.41966885 51:-0.046140067 52:0.25729197 53:0.38741404 54:-0.061088964 55:0.2804381 56:0.3095704 57:-0.079552934 58:0.30591923 59:0.38788643 60:-0.071701102 61:0.29767108 62:0.42732999 63:-0.058684319 
1 1 1:0.36442578 2:0.63877964 3:2.3059317e-09 4:0.46162477 5:0.56524813 6:-0.018545836 7:0.51432413 8:0.43592039 9:-0.038788248 10:0.52382571 11:0.31307423 12:-0.064436562 13:0.52749681 14:0.21568617 15:-0.084155925 16:0.44124717 17:0.31883508 18:0.0076907515 19:0.45881489 20:0.23101544 21:-0.0055024074 22:0.46531233 23:0.33385253 24:0.0059613795 25:0.4518168 26:0.38914472 27:0.011841138 28:0.38221255 29:0.32616755 30:-0.011526739 31:0.3982673 32:0.22707699 33:-0.047571529 34:0.41286162 35:0.35378128 36:-0.043998942 37:0.39840573 38:0.39611921 39:-0.028134085 40:0.32254374 41:0.35002208 42:-0.036609173 43:0.3381725 44:0.25401425 45:-0.076852009 46:0.36058399 47:0.37254459 48:-0.069000468 49:0.34662813 50:0.41822636 51:-0.050049111 52:0.25723496 53:0.38694304 54:-0.063682884 55:0.28099027 56:0.3094576 57:-0.08289896 58:0.30718291 59:0.38782197 60:-0.075480618 61:0.29819161 62:0.42567632 63:-0.062746778 
1 1 1:0.36588478 2:0.64073622 3:1.928925e-09 4:0.46164569 5:0.56497371 6:-0.017677596 7:0.51400185 8:0.43124241 9:-0.038192865 10:0.52231652 11:0.30751935 12:-0.064217344 13:0.52622116 14:0.20931801 15:-0.084327161 16:0.44033477 17:0.31679204 18:0.0043709367 19:0.4556092 20:0.22868161 21:-0.0098470468 22:0.46249741 23:0.33324757 24:0.0023535064 25:0.45050004 26:0.39071557 27:0.0090838708 28:0.38012311 29:0.32536986 30:-0.015560677 31:0.39342678 32:0.22492972 33:-0.053042028 34:0.40801495 35:0.35209125 36:-0.047936235 37:0.39399979 38:0.39609089 39:-0.030602025 40:0.31949282 41:0.35033619 42:-0.041116823 43:0.33184415 44:0.25470892 45:-0.082057506 46:0.35429102 47:0.37424451 48:-0.071651831 49:0.34155521 50:0.42024267 51:-0.050786402 52:0.25318599 53:0.38768533 54:-0.068698786 55:0.27456963 56:0.30795461 57:-0.088305995 58:0.30028933 59:0.38751096 60:-0.079290658 61:0.29200023 62:0.42517471 63:-0.065149292 
1 1 1:0.35943872 2:0.64077616 3:2.4592797e-09 4:0.45773077 5:0.56349564 6:-0.017021241 7:0.51153386 8:0.43088832 9:-0.037409667 10:0.52122504 11:0.30908602 12:-0.063350283 13:0.52493119 14:0.20971146 15:-0.083319224 16:0.43536791 17:0.31418484 18:0.0065184291 19:0.45087397 20:0.22433697 21:-0.0072989636 22:0.46022046 23:0.32748133 24:0.004863963 25:0.44841307 26:0.38666633 27:0.0118097 28:0.3747991 29:0.32332364 30:-0.013018026 31:0.38846371 32:0.22122517 33:-0.049613945 34:0.4046298 35:0.34907517 36:-0.044401709 37:0.38953546 38:0.39453048 39:-0.026735626 40:0.31366411 41:0.34822243 42:-0.038291603 43:0.3259275 44:0.25204989 45:-0.078090608 46:0.34979412 47:0.37134716 48:-0.068029545 49:0.33649763 50:0.41703889 51:-0.047504317 52:0.24669892 53:0.38441616 54:-0.065464698 55:0.2689828 56:0.30511573 57:-0.08402767 58:0.29529396 59:0.38503471 60:-0.075063199 61:0.2862677 62:0.42294604 63:-0.061066307 
1 1 1:0.36059737 2:0.64293009 3:2.252964e-09 4:0.45822513 5:0.56705719 6:-0.018705757 7:0.5119921 8:0.43371308 9:-0.039404139 10:0.52201724 11:0.30959815 12:-0.065429419 13:0.52340972 14:0.21016891 15:-0.085621946 16:0.43961263 17:0.31695831 18:0.0041273222 19:0.4548229 20:0.22641435 21:-0.010180341 22:0.46154228 23:0.33011857 24:0.0014786625 25:0.44906008 26:0.38760966 27:0.0078898361 28:0.37795907 29:0.32462716 30:-0.015338058 31:0.39124036 32:0.22253524 33:-0.052019376 34:0.4065069 35:0.35070533 36:-0.047541518 37:0.39290887 38:0.39558256 39:-0.030975584 40:0.31615794 41:0.34896818 42:-0.040587936 43:0.32762203 44:0.2520875 45:-0.080444366 46:0.35175887 47:0.37108397 48:-0.071048319 49:0.3401581 50:0.4184761 51:-0.051361199 52:0.24943586 53:0.3858805 54:-0.068021439 55:0.26891083 56:0.30662197 57:-0.086671889 58:0.29668641 59:0.38554901 60:-0.078283317 61:0.29015446 62:0.42410791 63:-0.064931653 
1 1 1:0.35520148 2:0.64387226 3:1.9565851e-09 4:0.45533603 5:0.56660587 6:-0.017899999 7:0.50945348 8:0.42585158 9:-0.038950354 10:0.51734388 11:0.29859412 12:-0.065761752 13:0.52179462 14:0.19887584 15:-0.086727552 16:0.43117434 17:0.30655488 18:0.0056742625 19:0.4485085 20:0.21786535 21:-0.0089809392 22:0.45761889 23:0.32528389 24:0.0027774477 25:0.44385356 26:0.38273218 27:0.0091510788 28:0.36909324 29:0.3172158 30:-0.014773144 31:0.38369757 32:0.21654932 33:-0.051728349 34:0.40079501 35:0.34875306 36:-0.046279002 37:0.38552782 38:0.39278519 39:-0.0286591 40:0.30775863 41:0.34367746 42:-0.04117398 43:0.32105085 44:0.24672166 45:-0.082268618 46:0.34618011 47:0.37085816 48:-0.071311362 49:0.33263776 50:0.41719806 51:-0.050060526 52:0.24133979 53:0.38103047 54:-0.069702141 55:0.26528099 56:0.29998186 57:-0.089285046 58:0.29232001 59:0.38438034 60:-0.079433203 61:0.28329772 62:0.42407593 63:-0.064665139 
1 1 1:0.35127753 2:0.64410645 3:1.4952012e-09 4:0.45155227 5:0.5593611 6:-0.019505866 7:0.50604147 8:0.42412063 9:-0.040687062 10:0.51597846 11:0.29864216 12:-0.06804429 13:0.51726174 14:0.19650713 15:-0.089547649 16:0.42810497 17:0.30490687 18:0.01185137 19:0.44634902 20:0.21220119 21:-0.0030892049 22:0.45580089 23:0.31441823 24:0.0066741114 25:0.44229847 26:0.37786457 27:0.011857811 28:0.36690775 29:0.31410739 30:-0.0084760152 31:0.38250497 32:0.20560278 33:-0.047236256 34:0.39962631 35:0.33249655 36:-0.046636805 37:0.38526446 38:0.38649717 39:-0.032017995 40:0.30511603 41:0.34015292 42:-0.035403859 43:0.31769729 44:0.23566848 45:-0.078373648 46:0.34365314 47:0.35396582 48:-0.072491601 49:0.33213738 50:0.40859893 51:-0.054298066 52:0.23765785 53:0.38033563 54:-0.064670585 55:0.258228 56:0.29584503 57:-0.086144239 58:0.28762448 59:0.3740803 60:-0.079784945 61:0.28225002 62:0.41825441 63:-0.067445405 
1 1 1:0.35058868 2:0.64552677 3:2.470365e-09 4:0.45107472 5:0.56067467 6:-0.018619416 7:0.50524539 8:0.42462894 9:-0.040396765 10:0.51450241 11:0.29823241 12:-0.068500139 13:0.51671916 14:0.19558507 15:-0.090613112 16:0.42826581 17:0.30414438 18:0.0093440637 19:0.4469572 20:0.21003273 21:-0.0064068474 22:0.45368966 23:0.31587514 24:0.0034977419 25:0.43853921 26:0.37719581 27:0.0086644161 28:0.36679387 29:0.31342298 30:-0.011790214 31:0.38266397 32:0.20631661 33:-0.051712878 34:0.39814699 35:0.33579287 36:-0.050462976 37:0.38294986 38:0.38566455 39:-0.035353594 40:0.3048054 41:0.339488 42:-0.039181318 43:0.31939906 44:0.23702903 45:-0.082610458 46:0.34344849 47:0.35842028 48:-0.075490154 49:0.33008802 50:0.40989414 51:-0.056436554 52:0.23713417 53:0.37931591 54:-0.068830051 55:0.25949448 56:0.29583484 57:-0.089640997 58:0.28713295 59:0.37695733 60:-0.082143761 61:0.27923203 62:0.41961464 63:-0.069100894 
1 0.36050724637681159 1:0.34749237 2:0.64049047 3:1.5519883e-09 4:0.44937027 5:0.55501473 6:-0.018917553 7:0.50334954 8:0.41585284 9:-0.039812274 10:0.51277667 11:0.28765461 12:-0.066737592 13:0.51671332 14:0.18462513 15:-0.08758717 16:0.42547458 17:0.29464689 18:0.010562653 19:0.4421393 20:0.20364378 21:-0.00362147 22:0.45053208 23:0.31301928 24:0.0075608925 25:0.43675369 26:0.37527755 27:0.013443761 28:0.36298341 29:0.30454484 30:-0.0099368561 31:0.37677377 32:0.20031944 33:-0.047747917 34:0.39381984 35:0.33392027 36:-0.045119908 37:0.37974164 38:0.38371208 39:-0.029288417 40:0.29969832 41:0.33135715 42:-0.036856364 43:0.31219849 44:0.22999957 45:-0.079120882 46:0.33817244 47:0.35366327 48:-0.07160075 49:0.32642844 50:0.40510872 51:-0.052479632 52:0.23092553 53:0.37056273 54:-0.065982662 55:0.25265208 56:0.28840202 57:-0.086321548 58:0.28231826 59:0.37145674 60:-0.07861504 61:0.27641788 62:0.41414523 63:-0.065504134 
1 0 1:0.34356084 2:0.63661528 3:3.9414694e-10 4:0.4465721 5:0.5485934 6:-0.018006157 7:0.50157273 8:0.40735161 9:-0.038989127 10:0.51102197 11:0.27788514 12:-0.066734061 13:0.51552665 14:0.17403109 15:-0.088763162 16:0.41955253 17:0.28952733 18:0.012120327 19:0.43788195 20:0.19837381 21:-0.0033427179 22:0.44709423 23:0.30755672 24:0.0061091529 25:0.4349795 26:0.37435365 27:0.010832412 28:0.35718837 29:0.299254 30:-0.0094121043 31:0.37079775 32:0.19255543 33:-0.050470002 34:0.38838515 35:0.32686546 36:-0.051594909 37:0.37653154 38:0.38567993 39:-0.037865411 40:0.29392624 41:0.32614082 42:-0.037187796 43:0.3067466 44:0.22345501 45:-0.082376115 46:0.33314115 47:0.35125166 48:-0.077377684 49:0.32357442 50:0.41036037 51:-0.059436906 52:0.2252368 53:0.36672914 54:-0.067118943 55:0.24650934 56:0.28174463 57:-0.089672245 58:0.27657676 59:0.36736158 60:-0.083310306 61:0.27290195 62:0.41476744 63:-0.070971802 
1 0 1:0.34284067 2:0.6374349 3:1.7753492e-09 4:0.4459171 5:0.55353677 6:-0.021022877 7:0.50117302 8:0.41237274 9:-0.042769216 10:0.51072979 11:0.28100944 12:-0.070571825 13:0.51484776 14:0.17593615 15:-0.092350796 16:0.42357773 17:0.29154384 18:0.0094484305 19:0.44143835 20:0.19786723 21:-0.0067096455 22:0.44840899 23:0.30864853 24:0.0033561348 25:0.43504205 26:0.36898744 27:0.0084810341 28:0.35910243 29:0.30003059 30:-0.011110967 31:0.37385508 32:0.1916609 33:-0.052891742 34:0.39030862 35:0.32878482 36:-0.052156486 37:0.37710306 38:0.37940845 39:-0.036766041 40:0.29480958 41:0.32608137 42:-0.038409114 43:0.30831861 44:0.22225063 45:-0.084506206 46:0.33430111 47:0.35190514 48:-0.078427896 49:0.32325956 50:0.40586343 51:-0.059239302 52:0.22534449 53:0.3656041 54:-0.068064533 55:0.24714741 56:0.28274322 57:-0.090739176 58:0.27659947 59:0.36971575 60:-0.084363125 61:0.27078754 62:0.41388524 63:-0.071728192 
1 0 1:0.34133843 2:0.63732147 3:2.0896394e-09 4:0.44471031 5:0.55255443 6:-0.021562245 7:0.49846813 8:0.40712607 9:-0.04383219 10:0.50750542 11:0.27507156 12:-0.071618609 13:0.5125531 14:0.16946578 15:-0.092904337 16:0.42186072 17:0.28304467 18:0.0057120137 19:0.43597606 20:0.18977848 21:-0.010523585 22:0.44423479 23:0.30735803 24:0.0014778038 25:0.43179962 26:0.37095511 27:0.0080830874 28:0.3558051 29:0.29427063 30:-0.014420632 31:0.36826634 32:0.18958439 33:-0.056283217 34:0.38522446 35:0.33393764 36:-0.052648615 37:0.37077552 38:0.38076764 39:-0.034711134 40:0.29059958 41:0.32214946 42:-0.041302174 43:0.30179048 44:0.22139096 45:-0.087415375 46:0.32788056 47:0.35366246 48:-0.079237789 49:0.31483394 50:0.40131131 51:-0.058315709 52:0.22062996 53:0.36127135 54:-0.070333965 55:0.24264887 56:0.28095224 57:-0.09195482 58:0.27112353 59:0.37012821 60:-0.084158428 61:0.26221743 62:0.40985718 63:-0.070419826 
1 0 1:0.33593595 2:0.6380769 3:2.9037206e-09 4:0.44114313 5:0.55105126 6:-0.020588791 7:0.49608675 8:0.40838331 9:-0.042168282 10:0.50716752 11:0.27509943 12:-0.069780402 13:0.51307005 14:0.16811895 15:-0.090774648 16:0.41646487 17:0.28418624 18:0.0099440813 19:0.43448949 20:0.18874884 21:-0.006137515 22:0.44149473 23:0.30584556 24:0.0058585252 25:0.42526525 26:0.36932111 27:0.012528921 28:0.35224879 29:0.29326001 30:-0.010841681 31:0.36730236 32:0.18481342 33:-0.053282466 34:0.38414788 35:0.32904685 36:-0.050121497 37:0.36744398 38:0.37694016 39:-0.032023355 40:0.28835422 41:0.31979609 42:-0.038646337 43:0.30217406 44:0.218153 45:-0.086105779 46:0.32864046 47:0.35245311 48:-0.078978077 49:0.31344828 50:0.40137395 51:-0.057887938 52:0.21944195 53:0.35882455 54:-0.068510778 55:0.24274731 56:0.27837127 57:-0.090887159 58:0.27221221 59:0.36754659 60:-0.083993495 61:0.26226145 62:0.40738761 63:-0.070450664 
1 0 1:0.33674723 2:0.63863075 3:3.0868474e-09 4:0.44180357 5:0.55162156 6:-0.020452486 7:0.49607491 8:0.40874022 9:-0.042565208 10:0.50655758 11:0.27522048 12:-0.071026869 13:0.51263916 14:0.16846575 15:-0.093008503 16:0.41765141 17:0.28408605 18:0.0093442276 19:0.43582347 20:0.18813635 21:-0.0078751538 22:0.44196889 23:0.30561185 24:0.0032653345 25:0.42496416 26:0.37012544 27:0.0093599418 28:0.353136 29:0.29315704 30:-0.012228174 31:0.36849859 32:0.18424663 33:-0.056105617 34:0.38473535 35:0.32918131 36:-0.054091733 37:0.36780393 38:0.37806779 39:-0.036771771 40:0.28874907 41:0.31981906 42:-0.040827952 43:0.30355555 44:0.21783748 45:-0.089425243 46:0.32950637 47:0.35229582 48:-0.082976073 49:0.31378603 50:0.40193605 51:-0.062433574 52:0.21915331 53:0.3591888 54:-0.071521886 55:0.24335513 56:0.27842742 57:-0.094776906 58:0.27279273 59:0.36834863 60:-0.088230819 61:0.26260278 62:0.4090153 63:-0.07504236 
1 0 1:0.33841574 2:0.63775563 3:2.7077036e-09 4:0.44140831 5:0.55065566 6:-0.022127103 7:0.49546057 8:0.40632731 9:-0.04629267 10:0.50614941 11:0.27225891 12:-0.076458111 13:0.51245195 14:0.16733488 15:-0.099971533 16:0.41920376 17:0.28004342 18:0.0017289314 19:0.44082251 20:0.18503752 21:-0.018127423 22:0.44559252 23:0.30495378 24:-0.0075008739 25:0.42751667 26:0.3669636 27:-0.0017993351 28:0.35269529 29:0.2893731 30:-0.020461118 31:0.37055677 32:0.18286286 33:-0.067115188 34:0.38568339 35:0.33191031 36:-0.064076662 37:0.36832368 38:0.37607601 39:-0.046035819 40:0.28716439 41:0.31692883 42:-0.049531627 43:0.30281785 44:0.21367049 45:-0.10055373 46:0.32908291 47:0.35110125 48:-0.092498273 49:0.31333566 50:0.4007805 51:-0.070612848 52:0.21718141 53:0.3577964 54:-0.080784008 55:0.24064237 56:0.27927846 57:-0.10505246 58:0.27151686 59:0.36883572 60:-0.097757034 61:0.26211798 62:0.40723768 63:-0.083917111 
1 0 1:0.33601463 2:0.64083993 3:2.2977724e-09 4:0.44059685 5:0.55287224 6:-0.021433344 7:0.49404114 8:0.40728027 9:-0.045398388 10:0.50349438 11:0.27101129 12:-0.075475983 13:0.51070392 14:0.16461802 15:-0.098689519 16:0.416612 17:0.2809487 18:0.0024993862 19:0.43629703 20:0.18571733 21:-0.016734164 22:0.44157377 23:0.30973172 24:-0.0052262014 25:0.42487445 26:0.37352851 27:0.00093601045 28:0.35072431 29:0.29081243 30:-0.019878464 31:0.36776611 32:0.18532568 33:-0.066702411 34:0.38393059 35:0.33757699 36:-0.063494235 37:0.36715108 38:0.38174766 39:-0.045053493 40:0.28585249 41:0.31850448 42:-0.048953429 43:0.30040488 44:0.21778148 45:-0.10018327 46:0.32671654 47:0.35901663 48:-0.091879472 49:0.31101373 50:0.40742716 51:-0.069543235 52:0.21640253 53:0.35912237 54:-0.080017723 55:0.23968455 56:0.27802646 57:-0.10384063 58:0.2694594 59:0.37086898 60:-0.095964111 61:0.25850642 62:0.41032004 63:-0.081668966 
1 0 1:0.33666101 2:0.64088672 3:2.1974218e-09 4:0.44065839 5:0.55216026 6:-0.020640204 7:0.49377596 8:0.40700838 9:-0.044650212 10:0.50339895 11:0.27180022 12:-0.075034082 13:0.510463 14:0.16559567 15:-0.098694809 16:0.41550925 17:0.2796858 18:0.0038180451 19:0.43473497 20:0.18549995 21:-0.01518029 22:0.44046879 23:0.30834913 24:-0.0041871825 25:0.42448795 26:0.37257868 27:0.0015723985 28:0.34999052 29:0.28997266 30:-0.019115884 31:0.36683378 32:0.18450306 33:-0.065431349 34:0.38311252 35:0.33496594 36:-0.062872253 37:0.36693868 38:0.38128555 39:-0.045184173 40:0.28516886 41:0.31837064 42:-0.048661571 43:0.30035383 44:0.2166051 45:-0.099249929 46:0.32649121 47:0.35581174 48:-0.091123521 49:0.31141844 50:0.40554944 51:-0.069342531 52:0.21601084 53:0.35996249 54:-0.08025676 55:0.23994304 56:0.27819917 57:-0.10395262 58:0.26984066 59:0.37062702 60:-0.095908105 61:0.25978622 62:0.41158211 63:-0.081712075 
1 0 1:0.33326051 2:0.64318579 3:2.2202822e-09 4:0.43870384 5:0.55367112 6:-0.021240298 7:0.49304786 8:0.40971875 9:-0.045420583 10:0.50227374 11:0.27484822 12:-0.075857431 13:0.50750858 14:0.16924667 15:-0.099670961 16:0.41634774 17:0.28122428 18:0.0034251455 19:0.43628782 20:0.18812813 21:-0.015870938 22:0.44074398 23:0.31012866 24:-0.0060380572 25:0.42367524 26:0.37336677 27:-0.0012035277 28:0.35092434 29:0.29101491 30:-0.019265957 31:0.36763459 32:0.18821274 33:-0.065834358 34:0.3830342 35:0.33726919 36:-0.064821109 37:0.36698216 38:0.38328016 39:-0.048538052 40:0.28593254 41:0.31902063 42:-0.048450656 43:0.29981098 44:0.21962693 45:-0.099026605 46:0.32546991 47:0.3580215 48:-0.091927879 49:0.31098533 50:0.408106 51:-0.07109201 52:0.21709792 53:0.36068738 54:-0.079774663 55:0.23951153 56:0.2806707 57:-0.10325219 58:0.26884562 59:0.37286952 60:-0.095612817 61:0.25918925 62:0.41455668 63:-0.081896335 
1 0 1:0.3368665 2:0.64144146 3:2.5172719e-09 4:0.43966126 5:0.55391014 6:-0.022046896 7:0.4935022 8:0.41049337 9:-0.047626007 10:0.50294262 11:0.27720332 12:-0.07927382 13:0.50639224 14:0.17159238 15:-0.10416712 16:0.41516203 17:0.27937269 18:0.00025122549 19:0.4358035 20:0.18729527 21:-0.020736182 22:0.44006804 23:0.31038722 24:-0.011353897 25:0.42229772 26:0.37234885 27:-0.0066439258 28:0.34974903 29:0.29042152 30:-0.022784751 31:0.36692896 32:0.18808068 33:-0.070512593 34:0.38263392 35:0.33881518 36:-0.068672471 37:0.3659873 38:0.38274121 39:-0.051676996 40:0.28513497 41:0.31910104 42:-0.052459717 43:0.30034858 44:0.22053432 45:-0.10401396 46:0.32626551 47:0.36033916 48:-0.095590062 49:0.31091377 50:0.40844777 51:-0.073767014 52:0.21635668 53:0.36084673 54:-0.084422447 55:0.24015759 56:0.28128043 57:-0.10848215 58:0.26971483 59:0.37470075 60:-0.1000186 61:0.25950339 62:0.41538399 63:-0.085617848 
1 0 1:0.33236688 2:0.64517653 3:2.0716677e-09 4:0.43894738 5:0.55883384 6:-0.017999148 7:0.49515912 8:0.41469729 9:-0.040183071 10:0.50428247 11:0.27938133 12:-0.069422007 13:0.50785995 14:0.17151955 15:-0.09234561 16:0.41833448 17:0.29155314 18:0.010063233 19:0.43671846 20:0.19589452 21:-0.0070481165 22:0.43943778 23:0.31554806 24:0.0027209625 25:0.42381683 26:0.38317588 27:0.0072548045 28:0.35362124 29:0.30008021 30:-0.013263598 31:0.36893448 32:0.19651632 33:-0.058265343 34:0.38221341 35:0.34113085 36:-0.060268939 37:0.36851868 38:0.39330676 39:-0.046444245 40:0.28860062 41:0.32610738 42:-0.042515296 43:0.30310056 44:0.22672568 45:-0.090397567 46:0.32596579 47:0.3629362 48:-0.085110649 49:0.31358409 50:0.41719624 51:-0.066444933 52:0.21917337 53:0.36591253 54:-0.073768422 55:0.24294147 56:0.2831651 57:-0.095575124 58:0.27012813 59:0.37539154 60:-0.088264666 61:0.26199567 62:0.42150673 63:-0.075404257 
1 0 1:0.33349708 2:0.65121675 3:3.612554e-09 4:0.43934792 5:0.56859159 6:-0.018197358 7:0.49546957 8:0.42713484 9:-0.039972723 10:0.50511444 11:0.29349902 12:-0.068483368 13:0.51092088 14:0.18588066 15:-0.09055724 16:0.41761163 17:0.30243248 18:0.010954544 19:0.43622714 20:0.20304786 21:-0.0047598467 22:0.43968979 23:0.31613165 24:0.0058052251 25:0.42296338 26:0.37961647 27:0.011066383 28:0.35392055 29:0.31135777 30:-0.010954018 31:0.37042835 32:0.20665133 33:-0.051780675 34:0.38344005 35:0.34589869 36:-0.051440634 37:0.36787194 38:0.39283052 39:-0.036489945 40:0.29054967 41:0.33578122 42:-0.038999528 43:0.30640173 44:0.23744117 45:-0.082664631 46:0.32819927 47:0.36693004 48:-0.075778708 49:0.31405228 50:0.41479695 51:-0.056802653 52:0.22229601 53:0.37208152 54:-0.069292277 55:0.24678212 56:0.28854361 57:-0.088584654 58:0.27246436 59:0.37786806 60:-0.080186732 61:0.26310536 62:0.4213962 63:-0.066725746 
1 0 1:0.34047687 2:0.65491605 3:3.6684817e-09 4:0.44276768 5:0.57481325 6:-0.01702114 7:0.49825931 8:0.43512133 9:-0.038326036 10:0.50851822 11:0.30254829 12:-0.066351488 13:0.51255214 14:0.19531833 15:-0.087805815 16:0.42224091 17:0.30708444 18:0.0098809293 19:0.44304979 20:0.21332569 21:-0.0057171201 22:0.44462445 23:0.32676798 24:0.0053401915 25:0.4263466 26:0.38421965 27:0.010799713 28:0.35871467 29:0.31493106 30:-0.012769306 31:0.37819993 32:0.21430428 33:-0.052669328 34:0.38987741 35:0.35338771 36:-0.050019164 37:0.37253422 38:0.39373177 39:-0.033867698 40:0.29558337 41:0.33910748 42:-0.041444775 43:0.31305453 44:0.24535826 45:-0.084034227 46:0.33428615 47:0.37489459 48:-0.074829683 49:0.31875581 50:0.41848168 51:-0.054527886 52:0.22797169 53:0.37536734 54:-0.072411135 55:0.25266498 56:0.29707819 57:-0.090768464 58:0.2781499 59:0.3856768 60:-0.081251107 61:0.26796499 62:0.42484033 63:-0.067051657 
1 0 1:0.34129265 2:0.65319419 3:1.9185036e-09 4:0.44282269 5:0.57402891 6:-0.019988703 7:0.49736553 8:0.43427595 9:-0.042355735 10:0.5067625 11:0.30384189 12:-0.070801966 13:0.51257038 14:0.19990152 15:-0.092946157 16:0.422957 17:0.30662075 18:0.0051842723 19:0.44156986 20:0.21268968 21:-0.011671367 22:0.44537145 23:0.32551682 24:-0.0012196257 25:0.42863402 26:0.38878971 27:0.0041033132 28:0.3600134 29:0.31459463 30:-0.016057661 31:0.37579823 32:0.21360968 33:-0.057706214 34:0.38920075 35:0.35065141 36:-0.056044366 37:0.37382042 38:0.39578855 39:-0.040443365 40:0.29716271 41:0.33989373 42:-0.043457855 43:0.31116176 44:0.243571 45:-0.088343605 46:0.33361059 47:0.37083703 48:-0.080606788 49:0.32038772 50:0.41907942 51:-0.060981099 52:0.23003484 53:0.37828636 54:-0.073225833 55:0.25204334 56:0.30159166 57:-0.093851976 58:0.27900344 59:0.38767719 60:-0.085733101 61:0.27159894 62:0.42816892 63:-0.072287403 
1 0 1:0.33897269 2:0.65771389 3:3.7173633e-09 4:0.44134465 5:0.58159566 6:-0.017636843 7:0.49804872 8:0.44187206 9:-0.040433865 10:0.50889152 11:0.31189778 12:-0.069772474 13:0.5114063 14:0.2056433 15:-0.092787884 16:0.42355546 17:0.31479049 18:0.0044643939 19:0.4419629 20:0.22305623 21:-0.01358412 22:0.44567138 23:0.33706456 24:-0.0036061865 25:0.42895228 26:0.39536986 27:0.0013509766 28:0.36066988 29:0.32303464 30:-0.018468302 31:0.37741995 32:0.22356489 33:-0.060250796 34:0.39141756 35:0.36397055 36:-0.057143237 37:0.3744134 38:0.40456423 39:-0.040695556 40:0.29770759 41:0.34700993 42:-0.047510173 43:0.31531492 44:0.25652832 45:-0.091312625 46:0.33814082 47:0.38817975 48:-0.081321694 49:0.32137576 50:0.43029878 51:-0.060740415 52:0.22931705 53:0.38231882 54:-0.078848474 55:0.25588912 56:0.30790478 57:-0.098171234 58:0.28188789 59:0.39791155 60:-0.088588327 61:0.26960546 62:0.43478444 63:-0.07447616 
1 1 1:0.3380647 2:0.66390419 3:3.5585519e-09 4:0.44090584 5:0.58788073 6:-0.016842624 7:0.49639297 8:0.45070058 9:-0.037926864 10:0.50705433 11:0.32107252 12:-0.065897442 13:0.51377523 14:0.21721007 15:-0.087656751 16:0.42380032 17:0.32692665 18:0.01058604 19:0.44262484 20:0.2309736 21:-0.0058344323 22:0.44559336 23:0.34213996 24:0.0039996128 25:0.42853439 26:0.40400523 27:0.0088850698 28:0.36216214 29:0.33408192 30:-0.011743732 31:0.3778415 32:0.23179671 33:-0.053158466 34:0.39019197 35:0.36922419 36:-0.053044897 37:0.37474826 38:0.41438022 39:-0.038377237 40:0.29981929 41:0.35671031 42:-0.040165465 43:0.31635344 44:0.26346698 45:-0.084113948 46:0.33765754 47:0.3931174 48:-0.077323042 49:0.3227894 50:0.43946105 51:-0.058476888 52:0.23163307 53:0.39101169 54:-0.070721634 55:0.25816059 56:0.31182361 57:-0.090641759 58:0.28296101 59:0.40071023 60:-0.082831323 61:0.27237988 62:0.44218123 63:-0.069849387 
1 1 1:0.33925742 2:0.66365933 3:2.3342446e-09 4:0.44150925 5:0.58801782 6:-0.018409824 7:0.49737358 8:0.45098749 9:-0.040066637 10:0.5082615 11:0.32275254 12:-0.068223819 13:0.51492739 14:0.22056957 15:-0.090228476 16:0.42412519 17:0.32481706 18:0.0080405045 19:0.44457123 20:0.23116532 21:-0.008121754 22:0.4471007 23:0.3430264 24:0.0019614049 25:0.43009651 26:0.40710944 27:0.0070631891 28:0.36257291 29:0.33145401 30:-0.013441351 31:0.37947187 32:0.23022071 33:-0.054762162 34:0.39088392 35:0.36624175 36:-0.054610912 37:0.37529144 38:0.41460922 39:-0.040032439 40:0.30019626 41:0.35464317 42:-0.040885869 43:0.3172465 44:0.26127103 45:-0.084779114 46:0.33731484 47:0.38869128 48:-0.078281842 49:0.32272619 50:0.43703595 51:-0.059729405 52:0.23272547 53:0.39008549 54:-0.070585571 55:0.25823057 56:0.31328666 57:-0.090746842 58:0.28303951 59:0.40062094 60:-0.083211996 61:0.27368787 62:0.44206262 63:-0.070380382 
1 1 1:0.34188959 2:0.66565841 3:2.8925262e-09 4:0.44345391 5:0.58989 6:-0.01331658 7:0.49840581 8:0.4557614 9:-0.032313053 10:0.50861883 11:0.32873341 12:-0.058875613 13:0.51500642 14:0.22602767 15:-0.07945136 16:0.42595717 17:0.33264294 18:0.017302411 19:0.44458818 20:0.23694004 21:0.0032753998 22:0.44746387 23:0.34638914 24:0.013258101 25:0.43126735 26:0.41330796 27:0.01828922 28:0.36600214 29:0.33899772 30:-0.0054679415 31:0.3823669 32:0.2371421 33:-0.045027249 34:0.39320236 35:0.37213525 36:-0.046867605 37:0.37812042 38:0.42491394 39:-0.033558261 40:0.30416939 41:0.36054936 42:-0.033783678 43:0.3202723 44:0.26666299 45:-0.074996866 46:0.3395077 47:0.39299381 48:-0.069443181 49:0.32607007 50:0.44386423 51:-0.052003782 52:0.23627825 53:0.39391863 54:-0.064066209 55:0.26234853 56:0.31131113 57:-0.082085915 58:0.28637451 59:0.39850175 60:-0.074259579 61:0.27773821 62:0.44364148 63:-0.061610717 
1 1 1:0.34194049 2:0.66659051 3:3.5652359e-09 4:0.44477099 5:0.59253401 6:-0.015044589 7:0.500723 8:0.46015906 9:-0.034165699 10:0.51245856 11:0.33480012 12:-0.060511686 13:0.5163185 14:0.23313817 15:-0.080793343 16:0.42947632 17:0.33690438 18:0.018188795 19:0.45019525 20:0.24414237 21:0.0045128199 22:0.45162666 23:0.35232189 24:0.014212399 25:0.43419963 26:0.41524428 27:0.018959917 28:0.36941975 29:0.34188005 30:-0.0037014389 31:0.38744125 32:0.24280408 33:-0.041830976 34:0.39683169 35:0.37414527 36:-0.043559771 37:0.3809213 38:0.42182213 39:-0.030649621 40:0.30848652 41:0.36207998 42:-0.031504739 43:0.3264679 44:0.26989448 45:-0.071767107 46:0.34409279 47:0.39218727 48:-0.066898361 49:0.32915828 50:0.43854651 51:-0.050214346 52:0.24263471 53:0.39365795 54:-0.061462693 55:0.26949573 56:0.31679934 57:-0.078657746 58:0.29171753 59:0.40235656 60:-0.07123293 61:0.28140575 62:0.44450235 63:-0.059089508 
1 1 1:0.34083962 2:0.66534281 3:3.39539e-09 4:0.44411787 5:0.59058714 6:-0.017420718 7:0.50177181 8:0.45912597 9:-0.037837848 10:0.5151751 11:0.33485696 12:-0.064692065 13:0.5187158 14:0.2340896 15:-0.085375458 16:0.42764062 17:0.33270067 18:0.013882359 19:0.44943112 20:0.24478601 21:-0.0002484131 22:0.45112497 23:0.3539629 24:0.00910981 25:0.43342626 26:0.41261044 27:0.013427509 28:0.36731052 29:0.33916494 30:-0.0068937666 31:0.38488573 32:0.24460609 33:-0.044754893 34:0.39419979 35:0.37605956 36:-0.045521863 37:0.37762943 38:0.41830742 39:-0.032385856 40:0.30647811 41:0.3608838 42:-0.033712823 43:0.32450792 44:0.27239841 45:-0.074518621 46:0.34250548 47:0.39428231 48:-0.069386631 49:0.32698387 50:0.43560442 51:-0.052629985 52:0.24068707 53:0.39293596 54:-0.062717594 55:0.2679562 56:0.3192113 57:-0.080499187 58:0.29026711 59:0.40516543 60:-0.073150903 61:0.27927542 62:0.44363672 63:-0.061137471 
1 1 1:0.34589729 2:0.66895366 3:2.8758911e-09 4:0.44665298 5:0.59403598 6:-0.015240179 7:0.50124663 8:0.46433866 9:-0.035679672 10:0.51359755 11:0.3415564 12:-0.062911063 13:0.51988876 14:0.24132878 15:-0.084073305 16:0.42998239 17:0.33978075 18:0.010943436 19:0.45258072 20:0.24891956 21:-0.0048322571 22:0.45448348 23:0.35554367 24:0.0052734078 25:0.43601361 26:0.41860494 27:0.01089731 28:0.37050751 29:0.3453247 30:-0.011032435 31:0.38893765 32:0.24654926 33:-0.050841574 34:0.39871103 35:0.37811756 36:-0.049608428 37:0.38216507 38:0.42446232 39:-0.034180652 40:0.31073561 41:0.36638156 42:-0.038778309 43:0.32749307 44:0.27296779 45:-0.081203863 46:0.34586415 47:0.39498353 48:-0.073620103 49:0.3307139 50:0.44119751 51:-0.054239754 52:0.24705184 53:0.39961109 54:-0.068521366 55:0.27096903 56:0.32299992 57:-0.087095335 58:0.29374295 59:0.40625265 60:-0.078353219 61:0.28339469 62:0.4459866 63:-0.064556792 
1 1 1:0.34360528 2:0.66719788 3:2.5522386e-09 4:0.44574612 5:0.59136558 6:-0.01569278 7:0.50237674 8:0.46488443 9:-0.035624586 10:0.5171181 11:0.34353843 12:-0.062187586 13:0.52116269 14:0.2447135 15:-0.082727455 16:0.43275324 17:0.34203383 18:0.012817569 19:0.45571223 20:0.25180125 21:-0.0015469374 22:0.45685941 23:0.35558468 24:0.0083322609 25:0.43847129 26:0.41752088 27:0.013602016 28:0.37295958 29:0.34592009 30:-0.0084590195 31:0.39132759 32:0.24722077 33:-0.046563592 34:0.39910263 35:0.37392408 36:-0.046179879 37:0.38306215 38:0.42120469 39:-0.031906221 40:0.31204465 41:0.36626202 42:-0.035471741 43:0.32960549 44:0.27071768 45:-0.076082423 46:0.3464666 47:0.38729355 48:-0.069737993 49:0.33192101 50:0.4341017 51:-0.051760904 52:0.24699935 53:0.39990899 54:-0.064517125 55:0.27046978 56:0.32455173 57:-0.081955679 58:0.29288244 59:0.40334415 60:-0.074012987 61:0.28367469 62:0.44243184 63:-0.061236024 
1 1 1:0.34885466 2:0.66501278 3:3.393573e-09 4:0.44790238 5:0.59145284 6:-0.013932055 7:0.5025354 8:0.46626735 9:-0.032946862 10:0.51680648 11:0.34649891 12:-0.059261911 13:0.52363586 14:0.25031865 15:-0.079659462 16:0.43136057 17:0.34127501 18:0.017934905 19:0.45709574 20:0.25375745 21:0.0038423412 22:0.45828459 23:0.35632887 24:0.012631404 25:0.43779665 26:0.41449508 27:0.016919199 28:0.37357536 29:0.34622249 30:-0.0042495662 31:0.3943432 32:0.25078955 33:-0.041259497 34:0.40291831 35:0.37620503 36:-0.041951146 37:0.38529277 38:0.41962063 39:-0.02884132 40:0.31468442 41:0.36635059 42:-0.032439243 43:0.33455533 44:0.27486822 45:-0.072610192 46:0.35187355 47:0.3910442 48:-0.06723287 49:0.33590472 50:0.43561885 51:-0.050154962 52:0.25088647 53:0.39829719 54:-0.062695093 55:0.27619645 56:0.32305521 57:-0.080553427 58:0.29977405 59:0.40275702 60:-0.073237807 61:0.29076701 62:0.44175497 63:-0.060979411 
1 1 1:0.34298879 2:0.66114092 3:4.1573496e-09 4:0.44560081 5:0.58954895 6:-0.011645378 7:0.50237572 8:0.46967268 9:-0.027741598 10:0.518731 11:0.35179889 12:-0.05124167 13:0.52431357 14:0.25704205 15:-0.068884932 16:0.4337391 17:0.34810323 18:0.025064833 19:0.45819324 20:0.25896633 21:0.013394198 22:0.45968959 23:0.35938132 24:0.022837164 25:0.44077891 26:0.41578197 27:0.02765402 28:0.37721363 29:0.35101461 30:0.0035148168 31:0.39731959 32:0.25429171 33:-0.031642202 34:0.40553546 35:0.37768698 36:-0.032934822 37:0.38855314 38:0.42127886 39:-0.019891364 40:0.31903744 41:0.36825997 42:-0.023979343 43:0.33921766 44:0.27553755 45:-0.062679693 46:0.35531968 47:0.38965139 48:-0.05869795 49:0.33904403 50:0.43309742 51:-0.042361338 52:0.25575694 53:0.39627773 54:-0.05317476 55:0.28243387 56:0.3205519 57:-0.069708392 58:0.30375239 59:0.40038928 60:-0.062986106 61:0.29294831 62:0.44041535 63:-0.051202506 
1 1 1:0.34590152 2:0.66001427 3:4.4858259e-09 4:0.44727263 5:0.58884615 6:-0.012028741 7:0.50376576 8:0.47018597 9:-0.027839854 10:0.52076221 11:0.35214841 12:-0.050822373 13:0.52754343 14:0.2618221 15:-0.067867868 16:0.43273205 17:0.34593439 18:0.023062719 19:0.45949286 20:0.2607426 21:0.010851837 22:0.45921636 23:0.36280948 24:0.020261467 25:0.43922713 26:0.41720656 27:0.024810012 28:0.3769846 29:0.3486627 30:0.0014476085 31:0.39908254 32:0.25775629 33:-0.034098469 34:0.40541714 35:0.38244438 36:-0.035369411 37:0.38780424 38:0.42131007 39:-0.022834033 40:0.31992009 41:0.36681491 42:-0.026161443 43:0.34051788 44:0.27862588 45:-0.066775389 46:0.35567057 47:0.39399642 48:-0.063988082 49:0.33955103 50:0.43454832 51:-0.048306204 52:0.25794727 53:0.39586717 54:-0.055329349 55:0.28454649 56:0.324045 57:-0.073835328 58:0.30620769 59:0.40404871 60:-0.068527177 61:0.29629695 62:0.44139916 63:-0.057679769 
1 1 1:0.34551936 2:0.65975064 3:4.3525126e-09 4:0.4472802 5:0.58678079 6:-0.012033971 7:0.50425237 8:0.46891889 9:-0.027600447 10:0.5222975 11:0.35163438 12:-0.050476655 13:0.52836663 14:0.26305461 15:-0.067600973 16:0.43165955 17:0.34674317 18:0.024980981 19:0.45966536 20:0.26162267 21:0.01305253 22:0.46029386 23:0.36174077 24:0.021639375 25:0.44026119 26:0.41694012 27:0.025490776 28:0.37656212 29:0.34914434 30:0.0034511497 31:0.39948308 32:0.25684398 33:-0.032229431 34:0.40606076 35:0.37952092 36:-0.035104584 37:0.38837934 38:0.42171603 39:-0.023812311 40:0.31937009 41:0.36753896 42:-0.024074037 43:0.34155363 44:0.27714235 45:-0.065129384 46:0.3566117 47:0.39206702 48:-0.063825309 49:0.33990091 50:0.43598378 51:-0.049113482 52:0.25624764 53:0.39774865 54:-0.053096358 55:0.28426075 56:0.32434458 57:-0.072246 58:0.30589449 59:0.40335801 60:-0.067923218 61:0.29538023 62:0.44238415 63:-0.057875123 
1 1 1:0.35068214 2:0.65874344 3:3.2775644e-09 4:0.44829285 5:0.58903337 6:-0.014114929 7:0.50599825 8:0.4697957 9:-0.034063846 10:0.52350479 11:0.35646692 12:-0.060957324 13:0.5288676 14:0.26635993 15:-0.082490727 16:0.43691117 17:0.34933734 18:0.011060894 19:0.4631958 20:0.26784223 21:-0.0051909513 22:0.46356905 23:0.36607847 24:0.0011904489 25:0.44510663 26:0.42427173 27:0.0041139545 28:0.38163936 29:0.35219064 30:-0.010855903 31:0.40438023 32:0.26109621 33:-0.04962448 34:0.41033834 35:0.38003021 36:-0.052347124 37:0.39364907 38:0.42674005 39:-0.041332677 40:0.32373017 41:0.3706443 42:-0.038057737 43:0.34571174 44:0.28011316 45:-0.078309909 46:0.35934019 47:0.38952172 48:-0.07358516 49:0.34402961 50:0.43585157 51:-0.058007594 52:0.2611078 53:0.40145972 54:-0.067354262 55:0.28715286 56:0.32911447 57:-0.085142836 58:0.30781451 59:0.40487692 60:-0.077922992 61:0.29881632 62:0.4437021 63:-0.066493943 
1 1 1:0.34969774 2:0.66041958 3:3.2759466e-09 4:0.4490926 5:0.59138125 6:-0.013828553 7:0.50730544 8:0.47411984 9:-0.031876624 10:0.52557516 11:0.35992482 12:-0.056672473 13:0.53166765 14:0.26997876 15:-0.075974815 16:0.44037592 17:0.35671735 18:0.014988535 19:0.46529803 20:0.27494061 21:0.00076594122 22:0.46378791 23:0.37354112 24:0.0085537173 25:0.44526905 26:0.42905542 27:0.012252282 28:0.38494089 29:0.35794342 30:-0.0060405554 31:0.40646333 32:0.26701841 33:-0.042860981 34:0.41126186 35:0.3871935 36:-0.044739306 37:0.39531177 38:0.43086097 39:-0.033203218 40:0.3272551 41:0.3750253 42:-0.032580674 43:0.34878546 44:0.28506261 45:-0.072317205 46:0.36192912 47:0.39541721 48:-0.06852816 49:0.34711948 50:0.44025713 51:-0.053232946 52:0.26454642 53:0.4044387 54:-0.060979098 55:0.2900281 56:0.33377498 57:-0.07882677 58:0.31029341 59:0.4085868 60:-0.072862305 61:0.30164325 62:0.44582376 63:-0.06217806 
1 1 1:0.35163465 2:0.65846407 3:2.7877396e-09 4:0.45054242 5:0.59030139 6:-0.015217944 7:0.50728291 8:0.47313657 9:-0.033649798 10:0.52489889 11:0.35963327 12:-0.058322508 13:0.53398144 14:0.27182561 15:-0.077425487 16:0.43939471 17:0.35528812 18:0.013091243 19:0.46390516 20:0.27489793 21:-0.00065877684 22:0.46341261 23:0.37397531 24:0.0080182049 25:0.44522241 26:0.42812392 27:0.012270679 28:0.38406637 29:0.3570022 30:-0.006935033 31:0.40470251 32:0.26648182 33:-0.042757675 34:0.41023687 35:0.38717881 36:-0.042873085 37:0.39371589 38:0.42827472 39:-0.030245667 40:0.32669869 41:0.37468472 42:-0.032711323 43:0.34720093 44:0.28522295 45:-0.072509639 46:0.3615959 47:0.39681879 48:-0.068124317 49:0.34638092 50:0.44018173 51:-0.052208804 52:0.26387358 53:0.40397534 54:-0.060305819 55:0.28940964 56:0.33483583 57:-0.078759663 58:0.31076249 59:0.40985632 60:-0.072953567 61:0.30194959 62:0.44538236 63:-0.062196601 
1 1 1:0.35088533 2:0.65972149 3:4.1516328e-09 4:0.45096073 5:0.5906018 6:-0.012437491 7:0.50721288 8:0.47555244 9:-0.02921336 10:0.52445722 11:0.36317912 12:-0.052585464 13:0.53190184 14:0.27466491 15:-0.070316963 16:0.4396618 17:0.3597993 18:0.016538374 19:0.46382028 20:0.27628955 21:0.0037078895 22:0.46382913 23:0.37442893 24:0.013127073 25:0.44595867 26:0.42725003 27:0.017988076 28:0.384765 29:0.36174339 30:-0.0038737345 31:0.40527546 32:0.26940611 33:-0.039625891 34:0.41042316 35:0.38974449 36:-0.039415848 37:0.39305869 38:0.42863595 39:-0.025969744 40:0.32810897 41:0.37866414 42:-0.029814491 43:0.34905517 44:0.28900635 45:-0.069158457 46:0.36254963 47:0.40021667 48:-0.064546272 49:0.34586316 50:0.43994337 51:-0.048160974 52:0.26576439 53:0.40587041 54:-0.057220694 55:0.29350024 56:0.33518389 57:-0.074778713 58:0.31316447 59:0.41123936 60:-0.068692341 61:0.30202335 62:0.445719 63:-0.057657395 
-1 1 1:0.4218446 2:0.67607021 3:9.0635188e-09 4:0.48805118 5:0.62950671 6:-0.028780542 7:0.52778959 8:0.54985589 9:-0.045429412 10:0.51919997 11:0.47776356 12:-0.065017812 13:0.49270913 14:0.42877799 15:-0.085653514 16:0.48758277 17:0.41321835 18:0.0019641439 19:0.49110305 20:0.31880558 21:-0.018083565 22:0.48929387 23:0.25790173 24:-0.036996949 25:0.48550698 26:0.20690039 27:-0.050981358 28:0.44386005 29:0.40678126 30:-0.0075261677 31:0.44900087 32:0.29743701 33:-0.023547737 34:0.44863313 35:0.22901976 36:-0.046696883 37:0.44730073 38:0.16977932 39:-0.064556256 40:0.40319961 41:0.42024237 42:-0.024371367 43:0.40666714 44:0.31665999 45:-0.044926912 46:0.41088083 47:0.25063264 48:-0.069091827 49:0.41495982 50:0.19731949 51:-0.085812263 52:0.36150676 53:0.45106959 54:-0.046354942 55:0.36600453 56:0.36929226 57:-0.064823695 58:0.37296772 59:0.31731352 60:-0.080161572 61:0.38069141 62:0.27342987 63:-0.092205137 
-1 1 1:0.42672017 2:0.68512011 3:4.2065831e-09 4:0.49159461 5:0.63705665 6:-0.027578812 7:0.53277516 8:0.5521279 9:-0.043444112 10:0.52293354 11:0.47389007 12:-0.061658453 13:0.49472505 14:0.42186666 15:-0.080999814 16:0.49207926 17:0.4220545 18:-0.0048390622 19:0.49307486 20:0.32372752 21:-0.025774434 22:0.49131465 23:0.26242581 24:-0.043099683 25:0.48822773 26:0.2104578 27:-0.055654101 28:0.44903368 29:0.41409546 30:-0.01381377 31:0.45150515 32:0.30132079 33:-0.03076469 34:0.45010331 35:0.23467438 36:-0.051653158 37:0.44912893 38:0.17373568 39:-0.067795329 40:0.40906298 41:0.42672315 42:-0.029226402 43:0.4107039 44:0.32132435 45:-0.049867373 46:0.41360179 47:0.25716078 48:-0.071105912 49:0.41783485 50:0.20376834 51:-0.085857317 52:0.36749262 53:0.45716482 54:-0.049534988 55:0.37059921 56:0.37535578 57:-0.068131618 58:0.37622511 59:0.32407755 60:-0.082521126 61:0.38367435 62:0.2776345 63:-0.093482189 
-1 1 1:0.42787063 2:0.68598402 3:4.1329882e-09 4:0.49273789 5:0.63936073 6:-0.027224518 7:0.53417349 8:0.55661488 9:-0.043958832 10:0.52684796 11:0.48031405 12:-0.063110098 13:0.50020653 14:0.42866957 15:-0.083324559 16:0.49378034 17:0.42013121 18:-0.0072856839 19:0.49500465 20:0.32261544 21:-0.028700585 22:0.49461791 23:0.26214862 24:-0.046213042 25:0.49287313 26:0.21055228 27:-0.058890846 28:0.45109496 29:0.41266182 30:-0.016667079 31:0.45311341 32:0.29976344 33:-0.034112021 34:0.45253789 35:0.23366886 36:-0.054598358 37:0.45239758 38:0.17362675 39:-0.070448421 40:0.4110879 41:0.42631042 42:-0.032255847 43:0.41211823 44:0.32135785 45:-0.052612167 46:0.41472816 47:0.2591095 48:-0.072596766 49:0.41875038 50:0.20683379 51:-0.086558573 52:0.37002933 53:0.45802927 54:-0.052724905 55:0.37193334 56:0.37693027 57:-0.07078556 58:0.37711912 59:0.32595924 60:-0.084271602 61:0.38408226 62:0.27892959 63:-0.09457311 
-1 1 1:0.42661718 2:0.68667418 3:4.5750332e-09 4:0.49248251 5:0.63935363 6:-0.026595486 7:0.53358662 8:0.55621248 9:-0.042613078 10:0.52507305 11:0.47942492 12:-0.061171457 13:0.498041 14:0.42894712 15:-0.080682762 16:0.49292186 17:0.41989875 18:-0.0049499623 19:0.49390626 20:0.32136548 21:-0.025405502 22:0.49343759 23:0.26051375 24:-0.042404834 25:0.49183828 26:0.20837241 27:-0.054753095 28:0.45013815 29:0.41276312 30:-0.014323913 31:0.45231479 32:0.29947764 33:-0.030726742 34:0.45209336 35:0.23345576 36:-0.050662313 37:0.45257452 38:0.17443392 39:-0.066100106 40:0.41009456 41:0.42665014 42:-0.029926077 43:0.41106841 44:0.3217721 45:-0.049491245 46:0.41327158 47:0.25982961 48:-0.068903141 49:0.41717738 50:0.20841101 51:-0.082397409 52:0.36909875 53:0.4582521 54:-0.050462946 55:0.37118292 56:0.37762731 57:-0.067824155 58:0.37659493 59:0.32738 60:-0.080718964 61:0.3839103 62:0.28173691 63:-0.090520918 
-1 1 1:0.43027878 2:0.68737066 3:4.1215498e-09 4:0.49503198 5:0.63814741 6:-0.026680371 7:0.53515857 8:0.55379546 9:-0.042510007 10:0.52714771 11:0.4742496 12:-0.06101105 13:0.50201344 14:0.41760668 15:-0.080391265 16:0.49641928 17:0.42138827 18:-0.0026843846 19:0.49920487 20:0.32240736 21:-0.02284844 22:0.49830195 23:0.26108932 24:-0.040148877 25:0.49537703 26:0.20893881 27:-0.053027604 28:0.45406789 29:0.41408178 30:-0.012307689 31:0.45811987 32:0.29981697 33:-0.029565621 34:0.45745763 35:0.23194158 36:-0.051723126 37:0.45659426 38:0.17157331 39:-0.068696722 40:0.41335991 41:0.42729986 42:-0.028223572 43:0.41682211 44:0.32173413 45:-0.049380068 46:0.42060888 47:0.25921726 48:-0.071486913 49:0.42527092 50:0.20813383 51:-0.086617701 52:0.3704015 53:0.45820665 54:-0.048827726 55:0.37390628 56:0.37699515 57:-0.068022646 58:0.38104156 59:0.32687721 60:-0.08278729 61:0.38945058 62:0.28175324 63:-0.093811773 
-1 1 1:0.42959118 2:0.68657589 3:4.0944155e-09 4:0.49371913 5:0.63850653 6:-0.027214464 7:0.53474081 8:0.55522949 9:-0.043142203 10:0.52841645 11:0.47571087 12:-0.061561745 13:0.50212842 14:0.41968799 15:-0.080766506 16:0.49424684 17:0.41879097 18:-0.0024450717 19:0.49704564 20:0.32105419 21:-0.022322902 22:0.49669811 23:0.26038647 24:-0.039401211 25:0.49444336 26:0.20851153 27:-0.052066397 28:0.45288152 29:0.41182756 30:-0.011820233 31:0.45689285 32:0.29846293 33:-0.028510425 34:0.45685497 35:0.23120992 36:-0.050061956 37:0.45660627 38:0.1713753 39:-0.066639468 40:0.41322395 41:0.42582741 42:-0.02764729 43:0.41633514 44:0.32070458 45:-0.048603248 46:0.42022279 47:0.25776643 48:-0.070331641 49:0.42503172 50:0.20646107 51:-0.085116312 52:0.37160498 53:0.45741984 54:-0.048280604 55:0.3744857 56:0.37671652 57:-0.067227103 58:0.38129523 59:0.32667813 60:-0.081684172 61:0.38944823 62:0.28211391 63:-0.09240824 
-1 1 1:0.43212742 2:0.68692988 3:4.2176707e-09 4:0.49599248 5:0.63731241 6:-0.02553962 7:0.53604758 8:0.55483592 9:-0.04122135 10:0.52860761 11:0.47701025 12:-0.059948858 13:0.50237036 14:0.42159623 15:-0.079660416 16:0.49458161 17:0.42132843 18:-0.00099225889 19:0.4970355 20:0.32346305 21:-0.021366652 22:0.49642551 23:0.26232573 24:-0.038948338 25:0.4943136 26:0.20917845 27:-0.0521143 28:0.45320508 29:0.41372114 30:-0.011743852 31:0.45806986 32:0.30002546 33:-0.029375346 34:0.45847002 35:0.23215975 36:-0.05145625 37:0.45895225 38:0.17063981 39:-0.068414152 40:0.41338572 41:0.42667559 42:-0.028883597 43:0.41791889 44:0.32066041 45:-0.050544824 46:0.4230912 47:0.25792155 48:-0.072105326 49:0.4292894 50:0.20577341 51:-0.086869486 52:0.37112698 53:0.45765394 54:-0.050751705 55:0.3752732 56:0.37527153 57:-0.070469186 58:0.38295174 59:0.32473123 60:-0.085025452 61:0.39202958 62:0.27903289 63:-0.095871285 
-1 1 1:0.43293056 2:0.68616092 3:4.0689829e-09 4:0.49666318 5:0.63889766 6:-0.025403893 7:0.53610522 8:0.55557424 9:-0.040856458 10:0.52773356 11:0.47824368 12:-0.059264142 13:0.5001719 14:0.42552847 15:-0.078606009 16:0.49584761 17:0.41809937 18:-0.0018536455 19:0.49854961 20:0.31959817 21:-0.021644676 22:0.49806577 23:0.25864702 24:-0.038549062 25:0.49597162 26:0.20671277 27:-0.051132333 28:0.45400965 29:0.41109571 30:-0.012245516 31:0.45815548 32:0.29674113 33:-0.028494265 34:0.45809105 35:0.22987498 36:-0.049339049 37:0.45836079 38:0.17022261 39:-0.06550552 40:0.41415158 41:0.42497054 42:-0.028915275 43:0.41787386 44:0.31866375 45:-0.048670493 46:0.42239067 47:0.25670487 48:-0.069096349 49:0.42802238 50:0.20557943 51:-0.083317421 52:0.37272376 53:0.45676866 54:-0.050369106 55:0.37665829 56:0.37490577 57:-0.068182908 58:0.38317406 59:0.32473183 60:-0.081775077 61:0.39091927 62:0.27898169 63:-0.092035621 
-1 1 1:0.43248203 2:0.68541992 3:4.5360835e-09 4:0.49674127 5:0.63732421 6:-0.025150374 7:0.53670639 8:0.55408084 9:-0.040621191 10:0.52827126 11:0.4766624 12:-0.059125453 13:0.49979776 14:0.42329043 15:-0.078471757 16:0.49556112 17:0.41754225 18:-0.001480125 19:0.49881852 20:0.31966531 21:-0.021312917 22:0.49855107 23:0.25871342 24:-0.038157094 25:0.49658585 26:0.20656654 27:-0.050640915 28:0.45396134 29:0.4103567 30:-0.011997395 31:0.45824754 32:0.29591864 33:-0.028466037 34:0.45805439 35:0.22890982 36:-0.049237791 37:0.4580583 38:0.16907367 39:-0.065249413 40:0.41417143 41:0.42397308 42:-0.02878307 43:0.41836527 44:0.31770545 45:-0.048759717 46:0.42253712 47:0.25668401 48:-0.068854615 49:0.42753497 50:0.20643307 51:-0.082697563 52:0.37260243 53:0.45529136 54:-0.050359268 55:0.37689275 56:0.37426493 57:-0.068173707 58:0.38338006 59:0.32434538 60:-0.081507243 61:0.39078957 62:0.27880001 63:-0.091488175 
